<?xml version="1.0"?>
<opencv_storage>
<my_svm type_id="opencv-ml-svm">
  <svm_type>C_SVC</svm_type>
  <kernel><type>LINEAR</type></kernel>
  <C>1.</C>
  <term_criteria><epsilon>1.1920928955078125e-07</epsilon>
    <iterations>1000</iterations></term_criteria>
  <var_all>8866</var_all>
  <var_count>8866</var_count>
  <class_count>7</class_count>
  <class_labels type_id="opencv-matrix">
    <rows>1</rows>
    <cols>7</cols>
    <dt>i</dt>
    <data>
      0 1 3 4 5 6 7</data></class_labels>
  <sv_total>21</sv_total>
  <support_vectors>
    <_>
      8.46152310e-04 2.43083574e-03 4.44679783e-04 9.39411810e-04
      2.13152962e-04 8.93510471e-04 6.49903342e-03 9.64964565e-04
      -3.90704663e-04 -8.65948619e-04 -3.44199070e-04 1.82661437e-03
      1.95497065e-03 1.17373583e-03 3.13787069e-03 3.87120846e-04
      1.15960262e-04 4.63607430e-04 -1.05600897e-03 -1.19547429e-03
      5.75571263e-04 1.06597343e-03 1.43758219e-03 6.87418040e-04
      2.36695842e-03 2.51000887e-03 2.56357089e-05 2.04287888e-03
      6.89102628e-04 4.63283250e-05 -4.09648521e-04 -6.35588367e-04
      4.06055733e-05 -4.10285080e-03 -2.66435021e-03 -1.97534799e-03
      -1.26705435e-03 2.33837334e-03 1.76271505e-03 8.01347254e-04
      3.12670309e-04 3.67444853e-04 2.32318445e-04 -3.34625001e-05
      -2.90768454e-03 -4.84611467e-03 -9.99454714e-05 -6.37816556e-04
      -1.06150692e-04 -1.14191533e-03 -8.98485014e-05 2.02218210e-03
      2.69095856e-03 3.04456032e-03 6.18058490e-04 -5.19130481e-05
      -1.27761078e-03 -9.34726151e-04 1.63695007e-03 8.39802029e-04
      4.15240967e-04 1.21679070e-04 -7.44671343e-05 1.50505768e-03
      3.41700716e-03 1.02747197e-03 2.30547390e-03 1.11151370e-03
      9.30308888e-04 1.31530070e-03 -3.11467680e-04 -3.41246399e-04
      -9.74572438e-04 1.81770232e-03 1.94200093e-03 1.84587052e-03
      3.50356172e-03 1.14142383e-03 -2.70415796e-03 8.58771033e-04
      -1.02868024e-03 1.05184398e-03 5.05481439e-04 1.53876143e-03
      9.73802246e-03 2.87193409e-03 5.86971466e-04 1.07942848e-03
      1.09583221e-03 2.27727555e-03 1.51167286e-03 1.16814801e-03
      2.63725850e-03 -4.10771405e-04 -3.19703977e-04 -1.19278824e-03
      -5.02786459e-03 1.71483960e-04 4.96469624e-03 3.68943647e-03
      2.71201297e-03 5.74418984e-04 3.85020184e-03 2.28362065e-03
      -3.14052188e-04 5.46537165e-04 -1.26394851e-04 1.24607945e-03
      1.00392487e-03 1.23875577e-03 1.17002977e-02 3.13200732e-03
      -1.14833738e-03 -3.11950059e-03 -1.62726780e-03 -5.16560220e-04
      -2.51530739e-03 -4.03355283e-04 3.47997155e-03 -7.96894950e-04
      -1.03691383e-03 2.37122294e-04 1.64562836e-03 -2.17910972e-03
      -1.21161586e-03 -1.37223676e-03 -1.11913694e-04 4.00551398e-05
      -4.55554895e-04 1.04425824e-03 -2.57044565e-04 2.09040381e-03
      2.00614426e-03 1.60789303e-03 6.91504159e-04 1.10160641e-03
      1.70524244e-03 1.10828923e-03 -7.43943674e-04 -1.61153683e-03
      -2.03482085e-03 5.10666345e-04 -2.28759879e-03 8.16343236e-04
      3.13943674e-05 -2.03166739e-03 -1.33261376e-03 -1.02743553e-03
      -8.11112754e-04 1.08914135e-03 -5.95614722e-04 -8.51057761e-04
      -1.78685423e-03 -4.60568117e-03 -4.91025159e-03 1.22442353e-03
      -6.28017262e-03 -1.56809180e-03 -3.17827868e-03 -4.41467902e-03
      -4.11449093e-03 -2.65402487e-03 -8.52011726e-04 -1.53487269e-03
      -1.37344620e-03 -2.87354761e-03 -2.88733165e-03 -1.69347646e-03
      -4.42792242e-03 -8.12881347e-03 -2.76662526e-04 8.45515635e-04
      -2.04051496e-03 -2.34139548e-03 -7.09268556e-04 -1.64741697e-03
      -4.84569697e-03 -4.69550630e-03 4.71329811e-04 3.99056968e-04
      1.66390871e-03 2.20264657e-04 -6.70670299e-03 6.43960666e-04
      -6.96909090e-04 -3.15886596e-03 -4.65573091e-03 3.79929807e-05
      2.68697715e-03 4.56136791e-03 2.14029234e-04 -3.63592524e-03
      -8.45649652e-03 -5.41035132e-03 -1.18212216e-02 -4.94091120e-03
      4.22624499e-03 3.68675706e-03 2.10638903e-03 3.67476256e-03
      -1.05806300e-02 3.03907349e-04 1.61850674e-03 1.59894989e-03
      2.23654602e-03 2.31310748e-03 2.39336560e-03 -1.94054644e-03
      -1.12720742e-03 1.41993791e-04 -2.08682823e-03 -1.71765173e-03
      -6.84950035e-04 -3.91189213e-04 1.29801210e-03 -1.70659437e-03
      -1.63723167e-03 1.92634907e-04 7.79371010e-04 2.78761517e-03
      9.94111970e-03 3.74605483e-03 1.18953071e-03 -8.22962960e-04
      -1.60978083e-03 -6.45522494e-04 -2.22699787e-03 8.05232441e-04
      -8.61820474e-04 -9.00202140e-04 -9.97304684e-04 -1.11665542e-03
      1.14130380e-03 -4.31414519e-04 3.13703786e-03 4.77001630e-03
      2.96064280e-03 2.13425420e-03 2.65557203e-03 2.84389197e-03
      4.70654294e-03 8.46014125e-04 -4.21587058e-04 -6.82135986e-04
      -6.56553893e-04 3.07365996e-03 9.56957228e-03 5.39992657e-03
      -1.38951035e-03 -5.35870087e-04 -1.75341649e-03 -2.06051092e-03
      -3.37576261e-04 4.25463915e-03 4.30057617e-03 -1.77954411e-04
      1.14480080e-03 2.63721240e-03 2.50458857e-03 -7.67205085e-04
      -3.74929421e-03 2.52566789e-03 8.33142723e-04 3.09261447e-03
      7.82668139e-05 -4.25886828e-04 -2.69688862e-05 -1.05336029e-02
      -2.14536488e-03 1.93090655e-03 5.51486248e-03 1.38721140e-02
      1.16985021e-02 7.69366685e-04 5.20863803e-03 7.29583902e-03
      1.36151649e-02 1.72093175e-02 1.87566818e-03 -1.59494169e-02
      1.34012774e-02 1.20773809e-02 6.67700451e-03 3.00749065e-03
      4.57332656e-03 -1.15424476e-03 2.85309879e-03 8.49160459e-03
      5.69033995e-03 1.26456749e-03 -5.37402509e-03 -1.12709664e-02
      -1.02202408e-02 1.23805564e-03 4.49334551e-03 2.68415548e-03
      7.82830000e-04 7.02016579e-04 -9.34611948e-04 1.16334029e-03
      4.98749735e-03 8.11630802e-04 4.60726814e-03 6.53359760e-03
      5.05332090e-03 -1.21395569e-02 -9.00937337e-03 1.28235025e-02
      1.49715645e-02 1.26839262e-02 1.24233598e-02 7.37676956e-03
      6.96025975e-03 4.92761470e-03 1.96808157e-03 2.72747944e-03
      1.85359991e-03 2.41624890e-03 4.22152458e-03 9.59668076e-04
      5.77210914e-04 4.50651394e-04 1.63610175e-03 3.25139589e-03
      2.93845334e-03 -3.15847166e-04 -3.76945187e-04 7.66197685e-04
      1.44930754e-03 7.25463033e-04 3.20317340e-03 2.49625673e-03
      2.53097573e-03 1.95540278e-03 3.80938640e-04 3.06356640e-04
      3.69746558e-04 -1.93423976e-03 -1.61544059e-03 4.11095098e-03
      2.87553784e-03 3.27815767e-03 2.22035567e-03 6.79983816e-04
      -1.44821906e-03 -4.03885357e-03 -1.41955586e-03 -1.35953771e-04
      1.61032507e-03 6.06274838e-03 6.69033732e-03 7.68630207e-03
      3.34804808e-03 9.29427159e-04 -1.60361163e-03 -3.25731933e-03
      -2.92255147e-03 2.11883313e-03 9.68453169e-05 -5.19361987e-04
      -9.35128133e-04 -3.00369458e-03 2.87275645e-03 -4.29718476e-03
      -1.49841532e-02 -5.31744212e-03 -5.72262332e-03 -5.46917086e-03
      -7.14174798e-03 -2.80122110e-03 2.92549338e-02 3.57394828e-03
      1.35352812e-03 5.28785400e-04 4.18989424e-04 1.07569492e-03
      8.83975998e-04 -1.20853574e-03 2.05342541e-03 -2.27825646e-03
      -2.36705621e-03 -3.74617963e-03 -2.05292162e-02 -1.98104959e-02
      -3.25146451e-04 1.27692893e-03 1.43006223e-03 -9.52607195e-04
      -8.82963184e-04 1.69481937e-04 2.73178611e-03 7.72718992e-03
      5.37748449e-04 -3.27449496e-04 -2.66087428e-03 2.50357785e-03
      1.52781699e-02 -5.17402077e-03 -1.11263189e-02 -7.00974325e-03
      -5.00125205e-03 -4.95267985e-03 -2.98490631e-03 -4.24145442e-03
      4.39062045e-04 -3.42554238e-04 -1.56926422e-03 -2.66095577e-03
      -7.27431849e-04 -2.85149887e-02 -2.12168656e-02 -9.83948354e-03
      -1.31677662e-03 -1.26931653e-03 -7.59708346e-04 1.51561096e-03
      8.04040581e-03 1.00337237e-03 -7.89720856e-04 -5.10248356e-04
      1.30976632e-03 2.28743744e-03 8.92246235e-03 6.02033688e-03
      4.49105958e-03 2.27410090e-03 3.85899795e-03 4.30754013e-03
      1.35322183e-03 -4.98916861e-03 6.19789399e-03 -4.70889587e-04
      -8.05454329e-04 1.00408436e-03 3.63164884e-03 7.84748886e-03
      2.77570169e-03 1.65427220e-03 1.87593035e-03 1.08607870e-03
      2.68238387e-03 7.31564220e-03 -1.85497738e-02 -3.33646219e-03
      -3.49427713e-03 1.23727578e-03 1.24160980e-03 -3.03598470e-03
      -4.83105937e-03 -4.05402447e-04 -1.56223087e-03 1.97385042e-03
      2.95990705e-03 4.17099276e-04 -8.77329207e-04 -7.67560583e-03
      -9.74645780e-04 -1.42136693e-03 -8.68024363e-04 -1.22601492e-03
      -6.86292595e-04 1.95718231e-03 -3.61803384e-03 -4.22421331e-03
      -1.53884292e-03 7.74044369e-04 1.95416459e-03 -2.83522671e-03
      -6.31303480e-03 1.62931276e-03 -8.10762809e-04 -5.18174376e-04
      -1.46350230e-03 -3.29496426e-04 -4.62660939e-03 2.17801356e-03
      -1.28027075e-03 -2.76834914e-03 -6.57595973e-03 -7.07361428e-03
      -9.36165918e-03 -1.59355458e-02 -8.57763865e-04 -1.68050604e-03
      -1.25727558e-03 -2.27173953e-03 -3.81619344e-03 5.75817702e-03
      8.70656502e-03 5.46502601e-03 1.27967331e-03 -2.49273307e-03
      1.86760467e-03 -6.54811156e-04 -1.79805718e-02 -2.44508940e-03
      -1.44863920e-03 -1.63409254e-03 -5.05440496e-03 -8.46566353e-03
      -4.77018906e-03 1.97551679e-04 -1.55170099e-03 -3.66990548e-03
      -1.64303079e-03 1.71767047e-03 2.67408276e-03 2.74537510e-04
      -1.71287829e-04 -1.42996630e-03 -2.22752523e-03 -1.33832474e-03
      -1.62184762e-03 -7.77719426e-04 -2.96960934e-03 -6.22121105e-03
      -4.20563482e-03 -4.11564717e-03 -3.60048283e-03 -4.06845286e-03
      -5.18192770e-03 -2.79983948e-03 -4.09540051e-04 1.37792772e-03
      1.05699559e-03 2.84793135e-03 8.37631244e-03 4.44029365e-03
      -1.83432398e-03 -5.35497488e-03 -3.87959369e-03 -3.07313283e-03
      -1.00104529e-02 -5.75538864e-03 1.77030300e-03 -1.71383843e-03
      -1.82211364e-03 -1.69940898e-03 -1.38462451e-03 4.24866611e-03
      6.16840646e-03 1.64706714e-03 -2.32811959e-04 1.25577406e-03
      -1.73730624e-03 -1.15872314e-03 7.89701182e-04 1.50856026e-03
      -3.05472233e-04 7.92974606e-05 -1.03386620e-03 -1.48683332e-03
      -2.94543989e-03 -4.10394557e-03 -5.61809074e-03 -6.97538070e-03
      -6.64465688e-03 -4.01616516e-03 -5.20078046e-03 -9.34914569e-04
      -2.62730545e-03 -3.32509354e-03 -1.20629650e-03 -2.66351760e-03
      -1.62264332e-03 6.07199792e-04 -5.06308461e-05 -1.57547265e-03
      -1.86203804e-03 -1.72249856e-03 -3.01115564e-03 1.16975873e-03
      -6.80785626e-04 3.62834707e-03 3.13435798e-03 2.67119054e-03
      2.10500928e-03 2.20144037e-04 4.52560326e-03 2.71481113e-03
      1.49825239e-03 -4.25362057e-04 1.92556193e-03 7.21335551e-03
      8.67618714e-03 6.47240039e-03 3.07543296e-03 7.75452529e-04
      -5.98173589e-04 -5.70262957e-04 -2.61315517e-03 -3.50090535e-03
      -7.37987366e-03 -2.06617219e-03 2.51951482e-04 -7.28542043e-04
      -5.90081268e-04 7.37450039e-03 1.67079344e-02 3.84013960e-03
      3.96592775e-03 6.96138060e-03 6.79653045e-03 9.49966628e-03
      1.15158223e-02 9.34777874e-03 8.60349834e-03 9.73440334e-03
      4.15307842e-03 5.56361396e-03 5.15184365e-03 4.84290998e-03
      6.01799809e-04 5.39880479e-04 -3.45415465e-04 2.50777556e-03
      -2.66661379e-03 6.06388645e-03 -5.17218316e-04 -2.92371958e-03
      3.24854022e-03 4.62037046e-03 6.25851704e-03 1.24150526e-03
      -1.31408533e-03 -1.39715732e-03 -2.78992113e-03 -2.48974236e-03
      -3.26598645e-03 5.55967912e-04 4.26180253e-04 2.66205263e-03
      2.16667098e-03 1.73900451e-03 3.67344583e-05 -2.32938514e-03
      -6.85862964e-03 -3.96856666e-03 -2.53177760e-03 -4.17722855e-03
      -6.77845953e-03 -7.08105334e-04 4.95293294e-04 3.33894440e-03
      5.24621457e-03 5.55124087e-03 2.83077196e-03 -5.58523927e-04
      2.31939484e-03 2.90993275e-03 7.79120484e-03 2.11288012e-03
      1.18723279e-03 2.50798953e-03 2.31951661e-03 4.98514157e-03
      9.81428381e-03 5.95731288e-03 -5.81724150e-03 -1.01379929e-02
      -1.47792455e-02 -1.33903679e-02 -2.47611422e-02 -1.15689905e-02
      1.09237656e-02 6.66343421e-03 1.37962438e-02 1.30482437e-02
      1.24174934e-02 1.45479375e-02 -1.86314678e-03 -4.94128140e-03
      -7.02861417e-03 -5.82684902e-03 6.67704793e-04 -7.66092492e-03
      -1.71675831e-02 -8.04108661e-03 -3.42293945e-03 -5.04283700e-03
      1.41501179e-04 1.56322506e-03 1.79766119e-02 1.59227327e-02
      1.75533369e-02 1.28234215e-02 5.86400507e-03 8.88993312e-03
      4.96136490e-03 -9.92975780e-04 -1.24746922e-03 -1.87229028e-03
      9.94182541e-04 -4.09145560e-03 -1.81847031e-03 4.48551378e-04
      -9.19739529e-03 -1.21423798e-02 -1.21639101e-02 -1.57355256e-02
      -1.07464464e-02 -1.38992453e-02 -3.28448135e-03 5.25710930e-04
      3.56859731e-04 -2.11406150e-03 -1.23877509e-03 -3.59565864e-04
      -1.05927617e-03 -1.79506082e-03 -3.27290804e-03 -2.04197760e-03
      8.82273540e-04 4.06205980e-03 1.12012830e-02 1.50354719e-03
      5.44612668e-03 -1.90642441e-03 -5.87129174e-03 -1.03090983e-02
      -1.12452144e-02 -1.23934178e-02 -6.27595047e-03 -1.75479206e-03
      -8.83891655e-04 -7.97176617e-05 1.37865660e-03 4.38752910e-03
      1.03572605e-03 3.30863614e-03 -1.07169396e-03 -4.06416308e-04
      3.65721789e-04 1.77864102e-04 2.14909669e-03 -3.54867545e-03
      -2.84700957e-03 -1.52073742e-03 -1.56672136e-03 -1.16357184e-03
      1.64879567e-03 -7.48999044e-03 -1.70736073e-03 -3.34815541e-03
      -2.45082821e-03 -1.15879602e-03 -6.69785368e-04 8.75545107e-03
      3.38547933e-03 1.72991829e-03 1.40712061e-03 -1.01511972e-03
      2.44481629e-03 -2.96076038e-03 -3.49916401e-03 -3.16503691e-04
      1.90023927e-03 2.12409743e-03 3.51794111e-03 4.45406837e-03
      7.08220899e-03 6.18220819e-03 9.99196549e-04 1.32321136e-03
      -2.93805875e-04 3.49274091e-03 -2.22566258e-03 -5.08846436e-03
      -2.51515699e-03 -3.70945060e-03 -4.96513397e-03 -4.66368301e-03
      -5.07149100e-03 4.11054119e-03 -5.63522975e-04 -2.18135192e-05
      -2.87469896e-03 -1.30782789e-02 -7.99852237e-03 -2.12450890e-04
      9.99162556e-04 3.40107013e-03 2.42404337e-03 1.33650261e-03
      -1.22259441e-03 4.48754174e-04 2.63098278e-04 2.02999869e-03
      3.28958570e-03 3.96391656e-03 3.06469505e-03 6.39286498e-03
      -1.31486420e-04 4.62141912e-03 1.52339227e-03 1.25610095e-03
      1.59874605e-03 7.77829264e-04 9.82275582e-04 -1.66948989e-03
      3.06910515e-04 1.55507925e-03 -1.83891528e-03 -4.57575591e-03
      -4.58511245e-03 -2.13453686e-03 2.66287429e-03 4.46264772e-03
      1.16622855e-03 -3.39270825e-03 -6.07541390e-03 -4.35448531e-03
      4.00012964e-03 -3.14709032e-03 3.11661395e-03 1.35078200e-03
      -2.13410985e-03 -2.58999947e-03 -1.29472064e-02 -1.42443758e-02
      -9.93355294e-04 -1.87870942e-03 1.69123604e-03 -1.78422814e-03
      2.34318377e-05 9.19817202e-03 9.33924969e-03 -7.61319243e-04
      1.62756059e-03 2.33562500e-03 6.13782043e-03 2.21338496e-03
      2.34600529e-03 7.96780689e-04 -1.92632515e-03 -4.45187557e-03
      -2.41102348e-03 -3.69502767e-03 -2.37621670e-03 -7.40448525e-03
      -7.89658912e-03 -9.52961389e-03 -6.78698672e-03 5.96192222e-05
      -8.42868103e-05 -1.77618858e-04 4.18318389e-03 7.84153957e-03
      2.43127043e-03 -3.95086594e-03 -3.71369743e-03 -6.99197687e-03
      -1.95865110e-02 -1.18779959e-02 -4.02366801e-04 -3.09577386e-04
      7.73731503e-04 3.80204583e-04 -1.39822233e-02 -9.20934952e-04
      -1.42913195e-03 -5.33087226e-03 -9.78269428e-03 -2.33868952e-03
      -3.85172735e-03 9.83766979e-04 -9.53305862e-04 -5.43321343e-03
      -6.35849033e-03 5.50628465e-04 -3.64296976e-03 1.08620024e-03
      2.84876302e-03 2.55549559e-03 -5.67347184e-03 2.34491006e-03
      -1.35066817e-02 -2.31918087e-03 9.76707600e-03 7.71841221e-03
      9.70687252e-03 1.00571094e-02 3.01650586e-03 9.46786779e-04
      -7.32016284e-03 -1.81539683e-03 -3.43237282e-03 -5.06152492e-03
      -3.09895817e-03 -6.59532938e-03 -9.27409716e-03 -4.28007124e-03
      -3.84802604e-03 -4.97951871e-03 -5.67713846e-03 -4.92138742e-03
      3.06877238e-03 1.35057429e-02 9.01839416e-03 6.03450509e-03
      5.02440380e-03 3.57625377e-03 9.24255437e-05 3.67058930e-03
      -6.17248286e-03 -6.60157250e-03 -2.34989595e-04 -3.04183550e-03
      4.70951106e-03 -2.15443294e-03 -1.17811309e-02 -3.67687852e-03
      -2.53755040e-03 -2.48543383e-03 -4.81481850e-03 -3.73734604e-03
      -2.78805103e-03 -5.18717570e-03 6.20401173e-04 1.47534208e-03
      4.60789027e-03 1.38728681e-03 2.84621189e-03 -1.94258383e-03
      2.87375553e-03 -6.28674112e-04 -1.54148042e-03 2.47508637e-03
      -1.12092250e-03 -3.67311673e-04 -4.48232889e-03 -1.63438288e-03
      -2.76697730e-03 -9.21289437e-04 -3.17183579e-03 -1.13799411e-03
      6.17205538e-03 -1.19422749e-03 -4.06538462e-03 -1.45438605e-03
      -9.25814384e-04 9.19631333e-04 4.80214413e-03 -2.37604161e-03
      -1.96978007e-03 2.39249622e-03 1.53031142e-03 3.74529231e-03
      9.97464266e-03 3.02296015e-04 1.43117469e-03 4.48063191e-04
      1.17862236e-03 1.49009423e-03 -4.25568596e-03 -5.58894710e-04
      -2.97879538e-04 -9.24834225e-04 -1.03252649e-03 -1.49417916e-04
      3.41904140e-03 -9.23887303e-04 -8.04452319e-03 -3.20429495e-03
      -1.50978949e-03 -1.28822855e-03 -7.54612032e-04 -1.04082935e-03
      -1.80617580e-03 -3.89770349e-03 -4.69032815e-03 -7.36799370e-03
      -2.24669441e-03 -9.56250413e-04 6.20317459e-03 -8.25242884e-03
      -7.23037170e-03 -6.22960087e-03 -6.24781614e-03 -3.97911901e-03
      -2.92169233e-03 5.75452531e-03 4.29380825e-03 -7.55633926e-03
      -2.04874994e-03 2.02790694e-03 7.70826219e-03 -3.25494038e-04
      -9.69376066e-04 5.38267056e-03 3.81315243e-03 1.96492369e-03
      1.52517122e-03 -7.47657497e-04 -1.53435348e-03 -7.95116241e-04
      -6.04312809e-04 -8.86215596e-04 -1.88151048e-03 -8.12700251e-04
      1.64906494e-03 -1.29303357e-04 -1.13040861e-03 1.47648726e-03
      5.29938552e-04 -1.08334806e-03 -4.23764810e-03 -6.10561110e-03
      1.67549972e-03 1.51588034e-03 3.19286319e-03 1.62528362e-03
      2.70702149e-04 -5.18257590e-03 -2.68975343e-03 1.60527485e-03
      6.68078021e-04 -8.36873136e-04 7.34407874e-03 3.08033871e-03
      2.87576299e-03 -2.07457831e-03 1.26822758e-03 2.21330416e-03
      3.77547578e-04 2.74838717e-03 -1.38907507e-03 1.52304182e-02
      2.33869278e-03 3.36689153e-03 3.64982523e-03 1.95859745e-03
      -2.43528630e-03 -5.55450609e-03 -6.49810396e-03 9.31425602e-04
      2.73469370e-03 5.04948013e-03 4.47305292e-03 4.09269519e-03
      6.49917452e-03 4.57020197e-03 4.75327810e-03 4.52346820e-03
      1.47064263e-03 5.95847517e-03 -8.80583283e-03 -1.31026572e-02
      -1.03082890e-02 -3.33945989e-03 6.80973800e-03 1.96307451e-02
      2.31559258e-02 4.90937440e-04 -2.17763474e-03 -1.04620541e-03
      1.83736545e-03 3.21137486e-03 9.27031320e-03 1.36734629e-02
      8.67859367e-03 8.97103641e-03 6.86276192e-03 2.61010439e-03
      1.74276286e-03 7.31524487e-05 6.18258072e-03 1.32267820e-02
      1.00966757e-02 5.25600836e-03 -4.21932084e-04 -3.16064502e-03
      1.10679027e-03 6.92831865e-03 7.88141973e-03 5.26046380e-03
      5.78986481e-03 4.04338865e-03 2.96854181e-03 6.34730700e-03
      2.65501230e-03 1.01531018e-03 4.39051585e-03 4.95937606e-03
      1.16466666e-02 1.09171439e-02 2.29349965e-03 7.17044482e-03
      2.43253191e-03 1.22702832e-03 5.41162398e-03 9.07749403e-03
      6.92245131e-03 7.79147726e-03 9.30605363e-03 3.61206545e-03
      3.43723851e-03 4.64472687e-03 -3.98722989e-03 -9.66457010e-04
      2.28791847e-03 -2.52785743e-03 -4.76432079e-03 -5.49799809e-03
      -2.95025064e-03 -6.36422681e-03 3.20717203e-03 -3.40709882e-03
      -9.45903419e-04 -7.18944613e-03 -1.13747176e-02 -6.17752597e-03
      -6.51246728e-03 -5.05725853e-03 -3.28355143e-03 2.57774536e-03
      2.55095796e-03 2.53681047e-03 -2.16492033e-03 -9.80890822e-04
      5.29602403e-04 -6.00023603e-04 -1.21963595e-03 -1.51511375e-03
      -9.06403363e-03 -7.43934140e-03 -5.70144970e-03 -1.92668207e-03
      1.27987575e-03 2.82764505e-03 5.63498586e-03 -3.70803196e-03
      5.90218138e-03 3.68199265e-03 2.14836537e-03 1.90757925e-03
      -3.83106852e-03 -1.82235695e-03 -1.48125354e-03 1.95757675e-04
      -4.44575475e-04 1.47871359e-03 1.65262015e-03 2.00659782e-03
      4.55450639e-03 7.69558316e-03 4.00168076e-03 4.33746353e-03
      3.90431471e-03 3.86739708e-03 8.15043040e-03 9.78837023e-04
      -4.56917216e-04 1.60982262e-03 2.13253754e-03 1.92044687e-03
      -5.33796847e-04 -3.37912003e-03 -3.77127295e-03 -4.34384303e-04
      -2.67849350e-03 -2.56640674e-03 1.34995009e-03 -8.27241596e-03
      -2.56215571e-03 -8.37740488e-04 -3.15240747e-03 -2.13359902e-03
      -1.79276662e-03 -4.63615311e-03 -6.65473705e-03 3.04178614e-03
      2.78159929e-03 2.19971268e-03 8.17573688e-04 2.65073613e-03
      6.34201104e-04 -5.48340660e-03 -6.66455179e-03 -4.08458989e-03
      1.28716917e-03 2.24432093e-03 1.50617845e-02 -1.18690357e-02
      -7.05799880e-03 -5.57066035e-03 -1.17347082e-02 -1.18496958e-02
      -1.24047846e-02 -6.28990540e-03 -1.01896783e-03 -5.57626458e-03
      -8.75227433e-03 -3.73778911e-03 -4.01371578e-03 2.17909832e-03
      9.25269257e-03 7.16463104e-03 3.50141246e-03 2.74130865e-03
      4.42059850e-03 3.85005842e-03 5.03398431e-03 2.92542391e-03
      3.40178376e-03 2.05925736e-03 5.47318195e-04 2.05502822e-03
      4.97256313e-03 1.87780079e-03 3.94004164e-04 1.67752174e-03
      1.80005259e-03 -7.24793208e-05 4.58721630e-03 6.33630203e-03
      7.29917455e-03 4.72508930e-03 1.58918998e-03 2.71584187e-03
      1.76755968e-03 4.21382114e-03 -2.67227809e-03 6.51663542e-03
      5.09357592e-03 2.70778220e-03 1.80860551e-03 -8.64172354e-03
      1.72824971e-03 -2.09513237e-03 -4.60524316e-04 -1.48051011e-04
      -9.91681358e-04 -3.62626975e-04 -2.27711350e-03 1.14076491e-03
      4.81650373e-03 5.15863206e-03 7.25091854e-03 4.63880692e-03
      4.22205264e-03 -1.31572187e-02 4.45192074e-03 7.58448290e-03
      5.18474262e-03 4.61186096e-03 8.51196703e-03 6.23773597e-03
      -1.65208394e-03 2.29704834e-04 -1.54952088e-03 1.86891481e-03
      -1.82121107e-03 3.57523514e-03 1.11163883e-02 -7.83591904e-03
      1.58244802e-03 2.72039790e-03 1.88387826e-03 5.19609172e-03
      4.59764060e-03 3.81076289e-03 9.76559334e-03 1.24609228e-02
      1.82630941e-02 2.74502411e-02 1.79881041e-04 -3.32557634e-02
      2.12154742e-02 1.39306244e-02 3.94743169e-03 -1.74060639e-03
      -8.81661079e-04 -1.03678824e-02 6.69240393e-03 3.79193155e-03
      5.75655745e-03 5.36118075e-03 8.01499700e-05 -8.77766404e-03
      -8.83846823e-03 2.85991398e-03 4.64881444e-03 3.26803117e-03
      8.73567653e-04 7.96885230e-04 -2.49807537e-03 -7.39396550e-03
      1.70723523e-03 1.11850852e-03 5.42667974e-03 1.00311898e-02
      9.91366431e-03 -1.86763555e-02 -1.10260658e-02 2.37265415e-02
      2.26399843e-02 1.67436805e-02 1.15371356e-02 7.99430162e-03
      -2.47194432e-02 -6.07381947e-03 -7.22413743e-03 -1.35854725e-02
      -1.39577137e-02 -1.40979188e-02 -1.87176149e-02 -1.81604140e-02
      -7.81938899e-03 -4.93528135e-03 -6.12967461e-03 -5.94935892e-03
      -5.03703393e-03 -6.15952536e-04 4.03807545e-03 -9.05210618e-04
      -1.47975143e-03 1.46640174e-03 -1.08926436e-02 -2.01335177e-02
      -1.02956789e-02 -1.08652972e-02 -1.19866896e-03 3.37204942e-03
      5.57551160e-03 -4.95140441e-03 6.01088488e-03 -4.56025009e-05
      6.72448718e-04 3.93994182e-04 2.95273680e-03 3.08768800e-03
      3.84866539e-03 3.68122081e-03 3.48722329e-03 1.65647559e-03
      3.86527157e-03 5.04928455e-03 9.95305274e-03 4.79463313e-04
      -2.35070777e-03 -1.50627608e-03 -4.09853505e-03 -2.91631743e-03
      -4.29839501e-03 -6.71968795e-03 9.31882969e-05 -1.26154849e-03
      -2.51121935e-04 1.39055052e-03 -1.15813769e-03 3.49172577e-03
      -6.42548641e-03 8.07026634e-04 -3.45521164e-03 -3.44533217e-03
      -4.06382000e-03 -3.95240681e-03 -1.86197204e-03 -1.46261917e-03
      -1.58525084e-03 4.38409217e-04 -8.98210972e-04 -4.15977673e-04
      -1.94914371e-03 5.23191295e-04 5.37131028e-03 2.99184676e-03
      1.68670353e-03 -3.02243419e-03 -1.99999474e-03 -9.70706926e-04
      -7.71388691e-03 -2.35721120e-03 -2.80602812e-03 -5.06580016e-03
      -3.92912002e-03 -1.18573131e-02 7.07444083e-03 5.17286314e-03
      2.41736043e-03 1.95490941e-03 3.14968219e-03 7.43696978e-03
      1.19651649e-02 7.91353465e-04 -5.67471725e-04 1.40770047e-03
      -4.76305540e-05 4.13566967e-03 1.04883988e-03 -3.98213649e-03
      3.14651732e-03 -9.28301451e-05 -3.25540517e-04 1.39619003e-03
      5.48315886e-03 1.84817929e-02 7.33633153e-03 3.70616978e-03
      5.01088286e-03 3.04933824e-03 4.26617125e-03 9.00075305e-03
      3.61938291e-04 3.69218783e-03 2.79608369e-03 2.79285968e-03
      3.24433716e-03 3.30913183e-03 2.81785673e-04 -2.19365139e-03
      -1.68469001e-03 -9.98515636e-04 8.01377289e-04 6.43593771e-03
      4.04843315e-03 2.19863979e-03 2.31124694e-03 -2.80027307e-04
      -2.40614638e-03 -2.38945358e-03 6.14587916e-04 5.60686458e-03
      5.06194541e-03 1.49963517e-03 2.51698238e-03 1.96373696e-03
      9.81966872e-03 1.18272277e-02 -1.55634768e-02 -4.69231186e-03
      -8.65413807e-03 -3.25223710e-03 -2.77805584e-03 -1.80900702e-03
      7.40678329e-03 8.77988432e-03 5.23531949e-03 2.50192010e-03
      1.86603481e-03 2.62542837e-03 1.03148669e-02 1.34600783e-02
      8.63481686e-03 -2.60804081e-03 -1.50915945e-03 -8.12124740e-03
      -1.78409517e-02 -1.00394711e-03 3.17950430e-03 -1.95848159e-04
      2.08078278e-03 -2.76401220e-03 3.74701736e-03 2.39730603e-03
      -2.36527119e-02 -9.69983824e-03 -4.43357276e-03 -7.65726250e-03
      -3.56289418e-03 -1.41287055e-02 5.52820880e-03 -1.13355704e-02
      -2.28141528e-03 -2.11321938e-04 7.30056548e-04 1.88645464e-03
      -2.46731960e-03 -8.73625744e-03 1.45746802e-03 -4.47003462e-04
      1.44795340e-03 4.06997977e-03 -1.18588936e-02 -1.86888650e-02
      -5.00867516e-03 -3.99938785e-03 -3.26464977e-03 -4.18707728e-03
      -9.56600625e-03 -7.23441551e-03 3.45938932e-03 5.11550158e-03
      2.12071091e-03 -4.13774373e-03 -4.57788631e-03 -5.25159016e-03
      7.20017240e-04 9.20596253e-03 -3.31072393e-03 -1.91555021e-03
      -5.62769221e-03 -4.57882043e-03 -6.77346671e-03 -1.68296089e-03
      -1.83316646e-03 -7.28093146e-04 -2.50747986e-03 -2.54618982e-03
      3.43821757e-03 -2.42085289e-02 -1.26998639e-02 2.63227476e-03
      2.67135003e-03 3.37043987e-03 3.11553315e-03 1.55135011e-03
      8.10599234e-03 4.97864420e-03 2.60837260e-03 1.61815807e-03
      2.87416019e-03 6.03355328e-03 -1.06598635e-03 -1.91854443e-02
      -1.46955214e-02 -1.25295799e-02 -8.89786053e-03 -1.36999572e-02
      -1.18557652e-02 -3.07892729e-02 -1.08489003e-02 -1.03032859e-02
      -1.61022302e-02 -1.80171821e-02 -2.03380045e-02 -2.34699566e-02
      -2.06092149e-02 -1.12508610e-02 9.59799066e-03 4.36490774e-03
      5.89259155e-03 1.60829108e-02 7.47497519e-03 2.28651171e-03
      -6.97863055e-04 -8.73326826e-06 7.84184027e-04 2.33159587e-03
      9.50746611e-03 6.13234052e-03 1.57968979e-03 2.48564116e-04
      -5.71872923e-04 2.50587659e-03 5.12524927e-03 -7.21625518e-03
      1.35130878e-03 -5.39544411e-03 -3.32141365e-03 -1.09785330e-03
      7.44925346e-03 1.07539371e-02 2.84996605e-03 2.62904959e-03
      -2.05148198e-03 -2.38396577e-03 -9.69108485e-04 2.90470081e-03
      -1.28604425e-02 -7.65150506e-03 -6.40897406e-03 -4.64334525e-03
      -7.07575644e-04 -1.83208601e-03 1.41187990e-03 2.45531881e-03
      6.61287643e-03 1.83852005e-03 2.33089365e-03 -8.70343007e-04
      -8.69866088e-03 -9.59170703e-03 1.31780666e-03 1.12059142e-03
      2.58879806e-03 2.62553291e-03 3.31324758e-04 1.19951123e-03
      4.17960080e-04 4.50701569e-04 2.20198464e-03 4.79565701e-03
      4.64670034e-03 9.63609014e-03 8.87655697e-05 2.84770713e-03
      -3.37061181e-04 2.19338201e-03 7.39826355e-05 -5.79554914e-03
      -6.32107537e-03 -1.08933179e-02 -7.86352530e-03 -5.12755523e-03
      -1.23356865e-03 4.59016906e-03 2.48044706e-03 1.04643879e-02
      -1.20241777e-03 9.34369280e-04 -2.29498907e-03 -7.24095572e-03
      -1.04524074e-02 -5.52742369e-03 3.63967702e-04 3.25282174e-03
      8.66692455e-04 -3.71947419e-04 4.38279333e-03 7.96210312e-04
      2.33344524e-03 3.44621320e-03 4.34849365e-03 2.65580905e-03
      9.19364902e-05 -2.55855685e-03 -5.17703872e-03 -3.53855710e-03
      8.43584246e-04 9.69615066e-04 3.05825891e-03 5.07449219e-03
      8.82765744e-03 1.06521454e-02 3.12123424e-03 1.86665938e-03
      -3.55745986e-04 -1.57913542e-03 -4.48255101e-03 -4.69500758e-03
      -1.58618670e-03 -9.54475079e-04 -4.59282240e-03 -4.12314525e-03
      3.19576077e-03 -9.38777905e-03 2.05543754e-03 5.51867438e-03
      -1.05169462e-03 -3.74250259e-04 1.65368116e-03 1.43434340e-02
      2.13893354e-02 1.72269694e-03 1.00148027e-03 -2.28710216e-03
      -7.67006946e-04 -1.53156742e-03 5.95294870e-04 3.75740509e-03
      2.36640242e-03 3.16738989e-03 5.17993746e-03 4.87553608e-03
      -4.84806951e-04 -7.91270228e-04 7.66868703e-03 1.87761395e-03
      5.97755378e-03 -3.90243164e-04 2.24086596e-03 -4.18503536e-04
      -1.79433171e-02 -1.61448552e-03 -1.73154916e-03 -1.76276488e-03
      -1.51895070e-02 -9.48292017e-03 2.34752260e-02 8.49841163e-03
      1.04813436e-02 8.79795197e-03 4.70538717e-03 5.84144611e-03
      2.48623337e-03 -9.05740913e-03 -5.66796400e-03 -8.49053357e-03
      -1.13187423e-02 -2.10841596e-02 -3.29275280e-02 -3.13681029e-02
      -9.56527237e-03 7.33877998e-04 -2.90069543e-03 -1.73326547e-03
      -9.35170334e-04 -1.11924764e-03 -2.50846762e-02 -4.57058864e-04
      -2.87013128e-03 2.70021707e-03 -2.87279952e-03 5.90635929e-03
      2.00281516e-02 -1.78025700e-02 -1.62027925e-02 -8.29210971e-03
      -3.47988121e-03 -5.47227869e-03 -5.40342601e-03 -1.52701922e-02
      -1.44812814e-03 -2.64955772e-04 -1.12903588e-04 6.00785075e-04
      -1.92942086e-03 -2.71579307e-02 -2.32617818e-02 -1.78801492e-02
      -1.35134645e-02 -1.18828472e-02 -1.03980172e-02 -1.10818716e-02
      1.94711273e-03 4.01839986e-03 -2.81236134e-03 -1.66861876e-03
      -3.26363044e-03 4.30307724e-03 1.02942903e-02 -6.51255250e-03
      -3.17846634e-03 -9.01725434e-04 -1.07173098e-03 -1.12809910e-04
      6.71086693e-03 -3.95355746e-03 3.48596368e-03 -1.06130412e-03
      -1.40773109e-03 -5.73744159e-03 -8.54442420e-04 2.48330156e-03
      -6.58651395e-03 -4.23029903e-03 -1.98468217e-03 -4.76207118e-03
      -2.69157859e-03 -3.56275332e-03 4.34076367e-03 1.39991893e-03
      1.59486523e-03 1.02846534e-03 2.25511030e-03 4.20132797e-04
      -2.52032164e-03 -2.55424972e-03 -1.51980505e-03 -1.84960852e-04
      1.38860417e-03 5.68995456e-05 -4.40635625e-03 -1.97387580e-02
      9.31557547e-03 -2.46537529e-04 -4.46695462e-03 -2.57039233e-03
      -2.75311922e-03 -9.83623415e-03 -1.88606605e-03 -1.73878239e-03
      -1.28026796e-03 -2.15428276e-03 -5.84855850e-04 2.15500221e-03
      -7.17903906e-03 5.38270629e-04 -3.01003945e-03 -6.51609665e-03
      -8.21125135e-03 -4.69202455e-03 5.67180617e-03 1.60300266e-03
      1.50748980e-04 -1.43515493e-03 3.87208979e-03 5.15929237e-03
      5.45232510e-03 -8.55032727e-03 2.23091594e-03 4.18533199e-03
      -2.76082777e-03 1.85716304e-03 6.32990326e-04 1.01025810e-03
      9.75856732e-04 4.75834793e-04 7.77196954e-04 2.67590280e-03
      -5.29384241e-04 1.44918403e-03 -2.25124229e-02 -8.45091511e-03
      -9.28129908e-03 -1.19462535e-02 -3.76207172e-03 7.51032378e-04
      -1.41241271e-02 -1.98134547e-03 -1.48526730e-03 3.63957224e-04
      2.91756866e-03 5.96050406e-03 6.33771112e-03 -2.09087715e-03
      -9.10710834e-04 -2.87036732e-04 -6.35927171e-03 -8.55729543e-03
      -8.58626422e-03 -4.22423333e-03 -7.68851256e-03 -8.25269893e-03
      -6.14612456e-03 -6.28810230e-05 9.43142659e-05 3.51129379e-03
      -2.24264874e-03 7.54399411e-03 5.04205516e-03 3.75207560e-03
      3.32736271e-03 7.36594107e-03 9.60645732e-03 3.92162427e-03
      1.00427227e-04 1.16603565e-03 -3.24576860e-03 -6.80301804e-03
      -5.15988981e-03 -7.10843410e-03 -2.43409793e-03 -2.08763778e-03
      1.01238380e-04 -2.74410890e-03 -1.22251722e-03 1.20669208e-03
      1.23517262e-03 4.82159783e-04 2.70686066e-03 5.65867312e-03
      6.38535479e-03 4.16179141e-03 -1.55784637e-02 -1.29034306e-05
      1.94605778e-03 2.35137437e-03 -6.70840207e-04 -1.75486319e-04
      -3.73656454e-04 3.12915584e-03 -7.34903209e-04 3.34164035e-03
      -9.36839089e-04 -1.14346750e-03 4.11182089e-04 -5.11744386e-03
      1.54088542e-03 1.47754711e-03 1.93961826e-03 -1.73983106e-03
      -3.43451952e-03 -1.03032473e-03 -2.90058646e-03 1.93184603e-03
      4.88315802e-03 4.97993827e-03 8.35820474e-03 -2.82722246e-03
      -6.89224480e-03 2.35291175e-03 -4.07136424e-04 -1.04325241e-03
      -1.05576112e-03 9.27785132e-03 7.46781984e-03 1.09568471e-02
      6.24117441e-03 3.19615239e-03 -3.09993676e-03 -2.57196231e-03
      -6.41039060e-03 -1.66331809e-02 -5.00047533e-03 -6.89127436e-03
      -7.59274792e-03 -7.54081504e-03 -1.29275322e-02 2.32887876e-04
      1.19748861e-02 9.90322232e-03 5.42738987e-03 1.37669325e-04
      7.07184710e-03 -3.18704080e-03 -2.17279606e-02 -2.74589262e-03
      -5.19773318e-03 -1.73421495e-03 -9.65326268e-04 -3.99018032e-03
      -7.73823448e-03 -9.41186119e-03 -1.28295543e-02 -1.34445578e-02
      -1.02104023e-02 -8.80715717e-03 -1.07610244e-02 -3.21415067e-02
      -4.24600486e-03 -4.33051446e-03 -4.81163012e-03 -4.48087882e-03
      5.23168361e-03 -3.23692453e-03 -6.56517129e-03 -1.15635265e-02
      -6.74161408e-03 -7.81076681e-03 -7.01224571e-03 -1.01713846e-02
      -2.58384161e-02 -1.23621207e-02 -7.28365453e-03 -8.68939981e-03
      -9.66476183e-03 -5.26647223e-03 1.49793585e-03 -1.93134428e-03
      -2.09956756e-03 -5.49362507e-03 -3.60047072e-03 -2.96728394e-04
      2.06751446e-03 7.16407411e-03 1.34494074e-03 -1.10319140e-03
      -1.22687290e-03 -5.25570987e-03 -6.27648784e-03 -7.30298320e-03
      -1.08911078e-02 -1.02957850e-02 -5.37987426e-03 -1.62487163e-03
      -2.38872529e-03 -2.23771925e-03 2.38739449e-04 -3.68399359e-03
      -2.44506542e-03 1.02552457e-03 6.22989086e-04 3.14537948e-03
      6.41778763e-03 2.68989534e-04 1.59102070e-04 -2.47646403e-03
      -3.51504027e-03 -3.60029773e-03 -9.83944628e-03 -4.34058998e-03
      2.82754563e-03 -9.93733993e-04 -4.03590593e-03 -6.70361333e-05
      1.00328133e-03 -1.17357331e-05 5.16211614e-03 2.42312392e-03
      1.33445626e-03 2.15095351e-03 -6.89998385e-04 2.21413560e-03
      4.28466033e-03 5.64533379e-03 4.35719703e-04 1.70772919e-03
      -5.91722829e-03 -4.80728596e-03 -3.55853583e-03 -1.85779156e-03
      2.75733822e-04 2.08859122e-03 -4.79474635e-04 6.32334081e-03
      3.00286640e-03 6.52505411e-03 5.72982710e-03 7.38338917e-04
      1.18082913e-03 -2.02632113e-03 -2.74842884e-03 -5.20155719e-03
      -4.02110536e-03 -6.94455439e-03 -3.89202870e-03 -1.44268561e-04
      2.04777601e-03 3.10182641e-03 -3.50711076e-03 4.19356016e-04
      3.95712815e-03 6.87156292e-03 -7.44612375e-03 -9.27558355e-03
      2.32930691e-03 2.47801165e-03 -1.52087037e-03 3.98162426e-03
      4.39634966e-03 3.05983750e-03 7.22223835e-04 -6.88310061e-03
      5.37081331e-04 -3.99832567e-03 -1.85287581e-03 -3.90450982e-03
      -7.00269034e-03 5.11038676e-03 -6.81176782e-03 -5.68499090e-03
      -1.99023378e-03 -1.39117253e-03 -2.87408056e-03 4.85070748e-03
      -1.47903720e-02 -3.77779710e-03 -4.88083577e-03 2.00538570e-03
      6.17829990e-03 -4.40449128e-03 -1.58974882e-02 -6.98409462e-03
      -3.66120110e-03 -8.37401021e-04 5.11479378e-03 1.58635760e-03
      4.49852960e-04 -6.17366889e-03 -1.43491430e-04 1.41497701e-03
      4.27293882e-04 7.62659067e-04 9.56125499e-04 -1.44700613e-03
      -3.84012167e-03 -2.21656854e-04 2.71145580e-03 6.20507961e-03
      8.41936376e-03 -4.24836250e-03 5.43198688e-03 4.47705621e-04
      -2.31445441e-03 2.45416188e-03 3.65928630e-03 3.98072088e-03
      9.75182001e-03 1.10173216e-02 -1.35067350e-03 -7.01074395e-03
      -4.92711645e-03 -1.88562635e-03 -2.89348490e-03 1.02589913e-02
      5.27285412e-03 3.81354056e-03 6.51412131e-03 5.75193297e-03
      2.28016800e-03 2.76328321e-03 1.11136318e-03 -8.76858307e-04
      -3.37902317e-03 -8.47517885e-03 -4.14059311e-03 7.60482764e-03
      -1.31443953e-02 3.04869865e-03 -1.64267170e-04 1.54613095e-04
      -9.46746732e-04 -5.12153562e-03 -1.05817188e-02 -1.33631481e-02
      -1.08732702e-02 -7.32230116e-03 -1.02431858e-02 -1.20688174e-02
      -1.42877838e-02 -3.85710932e-02 -3.51985870e-03 -3.92493326e-03
      -3.27633647e-03 -6.71085482e-03 -6.20240299e-03 -3.37590044e-03
      -3.96961067e-03 -3.99159128e-03 1.65184538e-04 -1.35482301e-03
      -9.35757475e-04 -3.96863418e-03 -2.57426091e-02 -3.66350682e-03
      -5.17135253e-03 -2.93340767e-03 -7.26710213e-03 -1.45205678e-02
      -8.90823267e-03 1.62588595e-03 9.35921329e-04 7.45551195e-04
      -1.14138558e-04 3.70528060e-03 -4.21370351e-04 -8.83008447e-03
      -7.54591776e-04 -2.85492116e-03 -2.33840523e-03 -8.32154974e-03
      -2.07906179e-02 -1.04258200e-02 7.51055602e-04 -1.64675072e-03
      -2.35321373e-03 -6.01741578e-03 -5.61957061e-03 -9.43406578e-03
      -2.71959393e-03 5.96786151e-03 5.65803749e-03 1.24677154e-03
      -4.14760457e-03 -8.42291862e-03 -6.29554177e-03 -5.23237558e-03
      -2.27779220e-03 -1.95573037e-03 1.72170717e-03 3.82838841e-03
      6.51500793e-03 2.91357911e-03 -1.08501423e-04 -4.28519561e-04
      -7.63600692e-04 1.17422675e-03 -5.55142434e-03 -4.24764398e-03
      4.37711086e-03 8.25801282e-04 -1.09876262e-03 -9.90041415e-04
      -5.41549176e-04 2.46631913e-03 -2.53665540e-03 -1.92473794e-03
      2.09273840e-03 2.67253001e-03 5.15977060e-03 2.95775128e-03
      -1.86028439e-04 5.94058400e-03 -8.11167178e-04 1.52015081e-03
      2.02809577e-03 4.32846742e-03 -4.06722073e-03 -2.51617725e-03
      2.95399164e-04 8.41303030e-04 2.05174484e-03 -1.82598567e-04
      -9.14072676e-04 8.47186614e-03 2.67333211e-03 4.47956566e-03
      3.00420006e-03 2.45533162e-03 1.43067373e-04 6.51547080e-03
      7.14492577e-04 1.62117474e-03 2.36042170e-03 2.53780163e-04
      -1.92080636e-03 3.94146377e-03 9.76508763e-03 2.03644065e-03
      -3.31690744e-03 -6.73629716e-03 -1.81885320e-03 -4.08434728e-03
      -1.04317646e-02 3.17911938e-04 5.52157033e-03 -9.14455275e-04
      -1.49854273e-03 -4.40820260e-03 -5.61904861e-03 -2.25166557e-03
      8.23935680e-03 -3.48377880e-03 -2.05583521e-03 2.15212419e-03
      1.06439041e-03 4.03678836e-03 -1.33347616e-03 9.92134493e-03
      -8.88335926e-04 4.60622512e-04 -1.95141404e-03 -1.81584840e-03
      -8.87740403e-03 -7.86864385e-03 4.24493774e-04 1.08516763e-03
      -2.06415029e-03 -7.50573236e-04 -1.64535884e-02 -1.34564668e-03
      2.62726191e-03 4.87371255e-03 4.83275671e-03 4.10332484e-03
      2.91149598e-03 8.29171669e-03 6.62110047e-03 1.94998900e-03
      5.77878021e-03 2.83328351e-03 -3.54588404e-03 -1.15731843e-02
      1.06383217e-02 3.30695743e-03 4.92539257e-03 4.19299025e-03
      2.29123258e-03 2.24428857e-03 -1.96735421e-03 -4.47827671e-03
      -8.89901072e-03 -7.17095379e-03 2.23098276e-03 1.03642736e-02
      1.63070951e-02 1.19186174e-02 3.70188244e-03 2.27973098e-03
      1.52428355e-03 4.74170112e-04 8.77183338e-04 1.60510198e-03
      3.39768431e-03 4.39100945e-03 1.24238234e-03 -1.30383018e-03
      -9.40892787e-04 5.05958451e-04 5.70847746e-03 4.84516378e-03
      4.31106379e-03 3.40302847e-03 3.89975123e-03 9.44662606e-04
      8.09162389e-03 6.40791375e-03 7.16988044e-03 7.63793243e-03
      5.28165745e-03 1.14512891e-02 1.38577456e-02 2.76312307e-02
      6.75471034e-03 1.67726353e-03 1.11881841e-03 1.02917862e-03
      1.60677853e-04 -3.56157310e-03 -1.06839137e-02 -5.12942253e-03
      3.18448502e-03 -3.74829490e-03 -2.70564429e-04 1.27879325e-02
      8.99204239e-03 -2.86211562e-03 1.37388139e-04 2.11260444e-03
      -1.14512502e-03 -1.18567972e-02 -4.12122859e-03 -7.56197842e-03
      -1.97852543e-03 -1.91145437e-03 -1.09412498e-03 -2.46330164e-04
      2.65944218e-05 -3.64105310e-03 -1.42689573e-03 -1.48666638e-03
      -2.73815100e-03 -8.91758408e-03 -1.24708172e-02 -9.18251649e-03
      4.82878322e-03 9.12136585e-03 4.38508578e-03 3.66671267e-03
      1.24811707e-02 1.98819991e-02 1.83340982e-02 1.08269346e-03
      -1.52259984e-03 1.13920330e-04 1.23145180e-02 2.00957637e-02
      2.20360868e-02 2.03773286e-02 1.56950355e-02 1.22614857e-02
      9.10172239e-03 1.05873309e-02 3.66348238e-03 2.67426595e-02
      4.15965822e-03 2.20697955e-03 6.05462445e-03 1.68452936e-03
      6.36843173e-03 1.64895561e-02 5.93211129e-03 -2.64380919e-03
      -3.20163323e-03 -3.50055285e-03 2.40199268e-03 -9.27926693e-03
      6.13807235e-03 2.12139310e-03 5.26736537e-03 3.92726157e-03
      -9.32534505e-03 -1.40296798e-02 -9.49161034e-03 2.24381895e-03
      -1.51982484e-03 -1.05785602e-03 7.17252260e-04 -4.50710626e-03
      1.42916129e-03 -7.10011693e-03 -3.31989140e-03 -1.04894524e-03
      -6.08031498e-03 -1.59012096e-03 -1.15644177e-02 6.35410333e-03
      -2.70367833e-03 -6.82978192e-03 -5.32512553e-03 -2.12641177e-03
      -2.59809289e-03 -2.11868342e-03 -6.30090898e-03 -5.75686572e-03
      -4.34380630e-03 3.47611425e-03 2.26360047e-03 2.48716539e-03
      4.73625399e-03 6.69853203e-03 4.97039594e-03 4.62850602e-03
      -1.27005289e-04 3.16730188e-03 1.74975046e-03 3.75246443e-03
      -5.86019713e-04 1.93729848e-05 -9.70333070e-03 -3.28106922e-03
      2.06892169e-03 6.12801081e-03 -1.58272847e-03 -2.11680541e-03
      -3.39114078e-04 -3.08948779e-03 -3.72610241e-03 -8.37832969e-03
      4.21155291e-03 3.30112409e-03 2.24984833e-03 4.20485996e-03
      4.70883772e-03 3.38341342e-03 -5.71073440e-04 1.88089209e-03
      1.56456581e-03 1.23714519e-04 -1.07390842e-04 9.28080757e-04
      -1.84932986e-04 5.10107540e-03 1.44697656e-03 6.79554709e-04
      2.25495826e-03 4.78712493e-04 6.98830641e-04 -1.90386811e-04
      1.14548755e-04 2.89348955e-03 2.29552691e-03 6.96621195e-04
      8.81329551e-03 -1.20355107e-03 -1.02014840e-02 -5.03617863e-04
      -5.65382710e-04 -1.19970227e-03 1.57051836e-04 -1.03669404e-03
      2.13687518e-03 8.95290263e-03 -2.31359387e-03 1.01517979e-03
      1.98825309e-03 -1.20975263e-03 -2.78478675e-03 -1.22188567e-03
      2.93526636e-03 4.22112551e-03 1.62388769e-03 -2.27815332e-03
      -8.00191145e-03 -3.47147603e-03 -1.21871755e-03 -1.62185950e-03
      -3.27804737e-04 -7.62987940e-04 -8.01896618e-04 -1.63993367e-03
      -5.91042358e-03 2.39166990e-03 2.72899680e-03 4.77073248e-03
      3.92780639e-03 4.10648528e-03 8.74191988e-03 5.72026055e-03
      -2.64236471e-03 -6.65351842e-03 -1.00616198e-02 -1.64347347e-02
      -2.73624267e-02 -2.57302690e-02 -2.94356490e-03 -2.75168242e-03
      -3.71055212e-03 1.42118242e-03 -1.80591282e-03 -6.29742350e-03
      -1.27033815e-02 -1.47965131e-02 -1.78577825e-02 -8.39166250e-03
      -1.09602334e-02 -1.81149822e-02 -2.76909024e-02 -1.68009847e-02
      -1.27832610e-02 -1.22063663e-02 -1.58314947e-02 -8.38530250e-03
      3.14491685e-03 1.22109186e-02 2.31784862e-02 1.36057772e-02
      7.84634613e-03 1.57658979e-02 1.09336758e-02 1.64057799e-02
      -2.94125918e-03 -9.27116373e-04 -1.37539103e-03 -6.58262288e-03
      -8.18216242e-03 -1.70199387e-02 -2.65982207e-02 -1.84113160e-02
      -5.39101660e-03 -1.38429115e-02 -1.18859410e-02 -1.79908052e-02
      4.02310900e-02 1.49958357e-02 1.33763542e-02 1.08931595e-02
      1.67096537e-02 1.34926727e-02 8.44602473e-03 -7.43829785e-03
      4.22460586e-03 -2.51290668e-03 -4.98342142e-03 -5.26240980e-03
      -1.09648402e-03 -3.13654095e-02 -5.94962202e-03 -1.60021952e-03
      -3.32302786e-03 -5.38120372e-03 -1.66531224e-02 -5.09998063e-03
      8.07752926e-03 1.67225301e-02 9.83025413e-03 5.20365266e-03
      7.37755373e-03 9.43581481e-03 6.24968903e-03 3.09408089e-04
      2.36066268e-03 9.84153943e-04 3.39534180e-03 6.89705880e-03
      1.43218215e-03 1.75979838e-03 -1.33048173e-03 -2.31040479e-03
      2.29777987e-04 -9.78486147e-04 -3.79718468e-03 4.39295685e-03
      4.14203061e-03 4.13635233e-03 8.85471702e-03 2.31635943e-03
      -2.73901573e-03 -3.76033643e-03 -5.42161381e-03 2.26009684e-03
      3.47753102e-03 1.68322062e-03 3.09136417e-03 -2.01483699e-03
      7.97030516e-03 1.23476144e-03 2.76669487e-03 -1.89827383e-03
      -2.46471935e-03 -2.46235216e-03 -2.44465680e-03 -1.06940966e-03
      -3.82228335e-03 -2.68238853e-03 -6.77132164e-04 3.90886143e-03
      1.47770038e-02 -1.18974177e-03 6.15981501e-03 -3.88792530e-03
      -7.96032604e-03 -2.21670810e-02 -1.69266015e-02 -1.01242810e-02
      -8.61297827e-03 -1.22856058e-03 -1.73525559e-03 -2.04785829e-04
      2.16032386e-05 1.02867559e-02 2.01721042e-02 4.75135865e-03
      4.30091750e-03 3.59297940e-03 9.73455049e-03 1.03168087e-02
      1.48358550e-02 3.14440927e-04 -1.79477094e-03 -2.32224964e-04
      2.34906073e-03 1.88217300e-03 8.55423789e-03 -3.99185671e-03
      -5.35468897e-03 -3.12195253e-03 1.84379355e-03 1.28974777e-03
      8.53985362e-03 1.21399108e-02 6.86857756e-03 6.23568427e-03
      6.97417511e-03 8.53940565e-03 9.74435639e-03 1.31996609e-02
      1.85865653e-03 2.67718080e-03 7.63853604e-04 -9.58310207e-04
      -1.93838519e-03 -7.45085243e-04 -4.04662732e-03 -9.66899656e-03
      -5.10541815e-03 -1.28006935e-03 1.93173776e-03 -1.46800710e-03
      -1.25598935e-02 -1.80900097e-02 3.35163809e-03 -1.01341459e-03
      -5.37943747e-03 -3.57579032e-04 2.12578871e-03 1.09010879e-02
      8.06446187e-03 4.05046670e-03 -2.96502002e-03 -4.39468166e-03
      -1.31617661e-03 -3.93979996e-03 1.22729065e-02 1.26806507e-02
      7.03903753e-03 3.60391941e-03 -6.10277755e-03 -3.12723918e-03
      2.97660637e-03 1.02915345e-02 1.89587369e-03 1.76765525e-03
      -4.98658745e-03 6.51155889e-04 -1.43594863e-02 1.38891954e-03
      3.74797196e-03 -1.63970573e-03 3.33864172e-03 3.65761342e-03
      1.07123740e-02 1.00632263e-02 -3.78374476e-03 -6.06847880e-03
      -6.38429134e-04 1.46136119e-03 6.62609423e-03 -6.81222929e-03
      -1.45935984e-02 -6.54683681e-03 -3.39551689e-03 -1.63851806e-03
      6.29271846e-04 -2.10559205e-03 -9.82132551e-05 -6.88718306e-03
      -8.77344515e-03 -1.49673950e-02 -1.71119422e-02 -1.49040734e-02
      -1.12356022e-02 -3.82536091e-03 -6.16864860e-03 -4.62493999e-03
      -8.21312773e-04 -2.97051878e-03 -4.52693924e-03 -1.48287159e-03
      -1.66467114e-04 1.29371486e-03 -3.00066499e-03 -9.45375650e-04
      -7.78398709e-03 6.09504618e-03 3.21423612e-03 6.02966221e-03
      4.97150468e-03 2.91218585e-03 2.87434296e-03 3.56889423e-03
      1.76574558e-03 1.68033026e-03 -2.30861921e-03 -7.58930622e-03
      -1.43478659e-03 7.90079590e-03 1.27328085e-02 5.38227474e-03
      3.28882737e-03 2.26476230e-03 2.56406958e-04 2.40665558e-03
      1.42389548e-03 -6.94047485e-04 -3.36211803e-03 -4.68375674e-03
      -1.93100586e-03 5.44120849e-04 7.22963829e-04 5.70202386e-03
      -4.79876902e-03 4.75105643e-03 3.18222912e-03 3.91387707e-03
      3.33761971e-04 2.54834793e-03 4.54495801e-03 3.77230556e-03
      2.76915205e-04 -8.93057208e-04 1.05811538e-04 1.17995774e-06
      1.45536684e-03 3.67506151e-03 3.88630055e-04 -4.05799772e-04
      5.52433812e-05 -2.57604686e-03 -7.56168831e-03 -7.78366625e-03
      -1.34642739e-02 -3.05327401e-03 5.65234898e-03 8.30998458e-03
      3.79165146e-03 -1.48245308e-03 -1.91481446e-03 4.39284043e-03
      1.05559500e-02 9.47979838e-03 8.12268164e-03 -2.72194319e-03
      1.04421971e-03 7.46441586e-03 4.30047745e-03 2.09653750e-03
      -1.47298747e-03 5.13168234e-05 5.17425267e-03 -3.60000390e-03
      -3.90190398e-03 -1.97965768e-03 -7.59040646e-04 6.05183595e-04
      -3.58433579e-03 8.78906157e-03 -6.33451622e-03 1.47754059e-03
      8.36178660e-03 1.36134969e-02 1.69255193e-02 8.46156292e-03
      -1.45226251e-03 -3.05300881e-03 -2.75199604e-03 -5.68912772e-04
      2.10901047e-03 5.20571973e-03 1.06671117e-02 8.84426117e-04
      1.05036609e-02 1.42100221e-02 2.60687433e-03 7.44055165e-03
      -1.00779184e-03 -4.78478568e-03 9.52151325e-03 3.29980720e-03
      4.88924840e-03 8.05845112e-03 2.65305024e-03 -7.47358240e-03
      -2.26540095e-03 -7.23892218e-03 1.32813316e-03 3.97077929e-05
      -3.67519865e-03 2.20964034e-03 -3.10214106e-02 -1.14636645e-02
      -6.80419989e-03 -1.12147732e-02 -6.51549734e-03 -5.11571649e-04
      2.97164399e-04 2.53708637e-03 -3.69353540e-04 2.59262859e-03
      1.24237314e-03 -5.18241245e-03 -1.12623079e-02 1.85639411e-02
      1.13691036e-02 5.56016494e-05 -1.93671629e-04 5.57336304e-03
      3.87377082e-03 1.00652920e-02 5.48106525e-03 2.95958482e-03
      2.94232368e-03 8.85433110e-04 6.15067780e-04 -2.65050353e-03
      1.07855618e-03 2.42356048e-03 1.15001363e-04 -2.17173714e-03
      -6.60320651e-03 -4.22629644e-04 2.00203178e-03 -3.91165493e-04
      1.23690837e-03 6.85478852e-04 5.78932289e-04 1.22855476e-03
      3.56907054e-04 -1.58317634e-04 -1.26499950e-03 4.73109278e-04
      1.99403046e-04 -2.10647820e-03 -2.15201266e-03 -5.10741584e-03
      5.92239155e-03 4.87742433e-03 -1.28901447e-03 -9.84532945e-03
      -1.18653420e-02 -4.28844895e-03 5.04357181e-03 3.29182134e-03
      1.03908288e-03 3.04153468e-03 3.35788378e-03 3.42461793e-03
      -2.06166948e-03 8.44431634e-04 -3.57168214e-03 -4.43454925e-03
      -3.52801871e-03 7.85835367e-03 1.28208369e-03 -1.24340402e-02
      -1.81527517e-03 1.71031721e-03 -3.62778106e-03 3.97098105e-04
      7.11179664e-03 -1.51934021e-03 1.91789804e-04 -1.18226325e-03
      -4.89334669e-03 -1.82740553e-03 2.32434040e-03 -9.76342708e-04
      1.35549931e-02 -2.33532209e-03 -7.85711964e-05 -2.22113472e-03
      -2.51822383e-03 2.22845655e-03 3.61145881e-04 -8.66297912e-03
      -1.73402466e-02 -1.72042735e-02 -2.60054693e-02 -1.67987142e-02
      -2.33932287e-02 -1.50951231e-02 5.34077035e-03 -2.94976588e-03
      2.53749569e-03 -4.10838984e-03 2.67326576e-03 9.58763063e-03
      -6.86347997e-03 -1.27103627e-02 -1.14044724e-02 -1.20846983e-02
      -5.00138197e-03 -7.86982570e-03 -5.14409738e-03 -7.17027765e-03
      -4.52572340e-03 -3.05885100e-03 6.96724281e-03 2.36832327e-03
      1.66452657e-02 1.62567981e-02 9.73006338e-03 1.00397002e-02
      5.85215399e-03 8.53266567e-03 4.14190581e-03 1.53143210e-02
      6.06235862e-03 1.75148819e-03 -6.62080129e-04 2.53434130e-03
      9.67984262e-04 2.01796442e-02 1.50363019e-03 -3.73203587e-03
      -7.55692972e-03 -1.38521763e-02 -8.71933717e-03 -9.81218740e-03
      -1.40394522e-02 -3.93803697e-03 -4.99160611e-04 -2.83937366e-03
      -6.47658715e-03 -2.37480528e-03 3.72193474e-03 1.24543775e-02
      6.55414583e-03 9.36646666e-03 2.17463472e-03 7.78070325e-03
      -2.46088696e-03 -6.91748131e-03 -9.88015067e-03 -7.99680874e-03
      -3.97601957e-03 -1.18106036e-02 -3.81377153e-03 -1.52206852e-03
      -1.50054647e-02 -1.36011029e-02 -1.66798439e-02 -3.14462883e-03
      -7.00378977e-03 -3.90665093e-03 -7.04374397e-03 -1.12771719e-04
      -3.37719731e-03 -2.80720438e-03 -7.26896571e-04 5.69741568e-03
      1.55213932e-02 1.02825125e-03 2.07358226e-03 1.97001640e-03
      -2.65327771e-03 -1.23218272e-03 -3.29364114e-03 -8.22230428e-03
      7.93572143e-03 -3.26876435e-03 -1.98495900e-03 7.86610693e-03
      6.93300925e-03 2.98595671e-02 -3.41246254e-03 -1.75914494e-04
      1.20951480e-03 -1.87659811e-04 6.56433776e-03 9.14452481e-04
      -6.56313635e-03 3.10152699e-03 1.38533697e-03 7.09793239e-04
      2.82764970e-03 1.75242836e-03 1.27485488e-03 -1.11961563e-04
      -5.47117321e-03 -3.28208134e-03 1.67512568e-03 2.61459453e-03
      1.42592695e-02 9.58350860e-03 4.84784273e-03 5.41185844e-04
      -4.76680463e-03 -9.71248187e-03 -6.14735484e-03 -1.14016691e-02
      -2.43396009e-03 -2.35720607e-03 -2.36088876e-03 5.76873776e-04
      -2.06394237e-03 2.08699028e-03 9.29356739e-03 3.87663394e-03
      -7.92576745e-03 8.73553916e-04 -6.13451889e-03 -8.30346718e-03
      -8.72967951e-03 -9.91457235e-03 -9.32973810e-03 -7.57370191e-03
      -8.02697241e-03 -8.34748615e-03 6.86264876e-03 -5.40947542e-03
      3.94452736e-03 -2.54421262e-03 -4.68283007e-03 -2.59229215e-03
      -6.42596232e-03 1.71334296e-03 -3.53039335e-03 -2.68860883e-03
      4.14051203e-04 -1.45686336e-03 1.43751374e-03 -6.68291876e-04
      5.13314549e-03 8.71242303e-03 4.79017990e-03 4.81601898e-03
      6.99208258e-03 7.15363072e-03 1.08020892e-02 6.66888244e-03
      6.47943653e-03 5.22397039e-03 1.10448466e-03 7.53845694e-03
      -2.22389214e-03 -7.00948201e-03 -6.36767247e-04 -2.42990092e-03
      5.04696229e-03 -6.18306003e-05 1.65299268e-03 1.52758481e-02
      7.54209235e-03 2.42323452e-03 5.50067751e-03 1.54802937e-03
      1.07773151e-02 -4.90947168e-05 7.83548970e-03 -2.04915460e-03
      4.99016000e-03 8.33676290e-03 -6.19972590e-04 -2.77208909e-03
      2.21824623e-03 6.66168425e-03 -1.02546494e-02 -6.82184519e-03
      -8.15676618e-03 -8.53366975e-04 4.02473053e-03 3.49656795e-03
      -9.37432609e-03 -1.11787096e-02 -6.58172742e-03 -5.80108771e-03
      -9.10330843e-03 -9.44198761e-03 -4.55203373e-03 -3.94995371e-03
      -3.61184753e-03 -1.22303395e-02 -6.05672691e-03 -1.24687813e-02
      -9.65666398e-03 -2.01468181e-04 1.00609893e-03 -5.09090489e-04
      2.75003165e-03 4.60604019e-03 4.14937083e-03 3.19926790e-03
      2.77720857e-03 3.65725579e-03 3.72226862e-03 5.00067184e-03
      -1.35701557e-04 -2.56945076e-03 -1.39668817e-03 -1.68071932e-03
      -3.07330326e-03 -3.44840297e-03 -4.01300797e-03 9.56397504e-03
      -3.35128349e-03 -3.01142776e-04 3.82218440e-03 5.40359039e-03
      1.24588783e-03 8.26877356e-03 2.90633622e-03 3.11522838e-03
      5.19326469e-03 2.74162833e-03 2.47492059e-03 4.80350049e-04
      6.05002919e-04 3.62323620e-03 6.76157419e-03 8.54361523e-03
      1.57241174e-03 4.58039856e-03 1.31276972e-03 -6.03458192e-03
      -2.24859593e-03 1.02817416e-04 -1.98252336e-03 9.17323458e-04
      6.41640509e-04 -1.80654763e-03 -2.80911382e-03 1.62269047e-03
      -2.00030510e-03 -7.60615012e-03 -4.03848756e-03 5.43088187e-03
      -3.52943141e-04 9.99319460e-03 7.64811039e-03 6.25955733e-03
      -2.57980381e-03 1.51853106e-04 2.38497742e-03 -3.23770597e-04
      -3.78034078e-04 1.42624450e-03 -2.30180449e-04 1.93590752e-03
      1.34036329e-03 -1.85408178e-04 -2.85138638e-04 4.86017845e-04
      7.36091461e-04 1.54672842e-03 3.27467616e-03 2.07302463e-03
      8.85756593e-03 -1.09694840e-03 5.96631831e-03 9.10585746e-03
      5.68865286e-03 4.96292626e-03 8.38269293e-03 9.79939569e-03
      5.28366026e-03 -1.22509152e-03 -7.20693823e-03 -3.78323742e-03
      -8.84515641e-04 -2.23000976e-03 3.77061241e-03 2.40063062e-03
      1.82718807e-03 1.08907640e-03 3.19474202e-04 7.32055283e-04
      -6.73897215e-04 -1.84368459e-03 -3.06637282e-03 -4.64460393e-03
      -4.32044966e-03 3.25975055e-03 -2.24463153e-03 -1.06809279e-02
      -1.14930188e-03 6.05379324e-03 7.53333978e-03 -2.16344744e-03
      5.09828387e-05 1.99938030e-03 -4.61892458e-03 -4.39632451e-03
      -6.99892221e-03 -5.89416968e-03 1.01439422e-02 -3.89721966e-03
      -1.07764313e-03 -3.34450131e-04 -3.96867050e-03 3.18235974e-03
      -4.23987955e-03 -6.96823513e-03 3.16522201e-04 4.36048053e-04
      3.73475137e-03 2.40599224e-03 1.16190994e-02 1.10999597e-02
      3.33701959e-03 -3.36789037e-03 -8.19448568e-03 -7.69380620e-03
      -9.51390993e-03 -9.46419220e-03 1.21348752e-02 1.40892831e-03
      -2.59943237e-03 -5.69282193e-03 -2.66141054e-04 1.06822746e-03
      -3.60338320e-03 -7.17090908e-03 -4.64823190e-03 -5.24762645e-03
      -5.22886030e-03 -5.93293132e-03 -1.07578328e-03 9.46090184e-03
      1.30579481e-02 9.79168992e-03 1.08243490e-03 -1.23953652e-02
      -1.17557449e-02 -2.54063681e-02 -2.23951209e-02 -1.05937785e-02
      -3.34687298e-03 1.41116220e-03 4.74306056e-03 5.61587885e-03
      4.29945812e-03 9.33501590e-03 1.94254005e-03 -3.15840502e-04
      -3.81581066e-03 -2.18560803e-04 2.88052554e-03 -1.29467295e-03
      2.53826438e-04 -2.09075655e-03 -1.02079893e-03 1.34855509e-03
      4.49524261e-03 1.22326417e-02 4.58378671e-03 5.05274348e-03
      4.15624492e-03 4.27420484e-04 -7.78344553e-03 -1.04259951e-02
      -9.60990228e-03 -7.72858318e-03 1.59527808e-02 9.96818859e-03
      1.82427722e-03 -7.02143274e-03 1.32932076e-02 6.40291430e-04
      -3.36314808e-03 -8.26420612e-04 -2.32644402e-03 8.65672808e-03
      1.18137440e-02 1.23043200e-02 6.12227665e-03 2.55858130e-03
      3.24057159e-03 8.70236941e-03 6.37228484e-04 3.44273145e-03
      1.35077024e-02 1.28218355e-02 1.75651982e-02 2.57140771e-02
      3.65109672e-03 9.27800871e-03 1.36353998e-02 1.56231662e-02
      1.00846114e-02 8.72403570e-03 1.02886008e-02 7.92438909e-03
      1.68956872e-02 2.36365874e-03 -3.76123353e-03 -4.61650314e-03
      -9.47954319e-03 -1.09883640e-02 -1.46015678e-02 -9.43348650e-03
      -4.72453889e-03 -1.12826414e-02 -6.29958743e-03 5.37087535e-03
      3.92745016e-03 2.03877687e-02 4.62231180e-03 -2.94918776e-03
      -6.39147405e-03 -9.15711094e-03 -1.87321212e-02 -2.88236532e-02
      -6.10894989e-03 -9.12003964e-03 -4.85379109e-03 4.59820125e-03
      1.27193509e-02 1.34068420e-02 -1.05755851e-02 -1.02240313e-02
      -1.14706131e-02 -1.34359393e-02 -1.18362820e-02 -9.24620219e-03
      -9.73724481e-03 -2.62522395e-03 -6.32260600e-03 -2.18784320e-04
      -1.51522004e-03 -7.71949592e-04 2.37283367e-03 5.49921812e-03
      4.54212353e-03 3.72536527e-03 7.82593619e-03 2.11258209e-03
      4.25880682e-03 9.91100632e-03 -2.87089963e-03 -2.86921021e-03
      6.41991897e-03 -2.03691167e-03 4.79176780e-03 -1.42076416e-02
      -1.11555529e-03 -3.54001205e-03 1.25615671e-03 -1.01433056e-04
      -1.98862189e-03 -4.23277868e-03 8.61260016e-03 7.39680231e-03
      6.95841154e-03 2.67144758e-03 -5.49267628e-04 -4.78439778e-03
      3.91864032e-03 7.80585594e-03 1.15517725e-03 1.15643360e-03
      -7.27190357e-03 -9.35033709e-03 -8.99631903e-03 -3.02125001e-03
      -2.68396246e-03 3.00319213e-03 3.58925178e-03 -1.92668184e-03
      3.45754161e-05 2.18087388e-03 1.96486851e-03 -7.07717962e-04
      -2.85783876e-03 -2.02495066e-04 1.67073915e-03 7.21734203e-03
      1.24819912e-02 1.27297379e-02 2.52698991e-03 -8.16661573e-04
      5.19890152e-03 2.32574739e-03 1.82846515e-03 -2.29106215e-03
      5.58984873e-04 -5.38345776e-04 -6.30544033e-03 -1.19989589e-02
      1.26612438e-02 2.16683326e-03 -1.76602206e-03 -1.15592824e-03
      9.24580017e-05 1.36721384e-04 3.76640819e-03 7.30698113e-04
      -9.65539739e-03 -4.82257688e-03 -1.90913689e-03 -2.35113804e-03
      -8.26381799e-03 -5.02390973e-03 -1.18600465e-02 1.09441450e-03
      5.32712787e-03 1.19847534e-02 1.10593103e-02 7.55777536e-03
      8.58518854e-03 1.62352622e-02 6.59630541e-03 7.59444851e-03
      1.30043905e-02 1.25711383e-02 -8.38469155e-03 -8.35116673e-03
      -4.19630529e-03 1.67435850e-03 -8.09794437e-05 3.55745526e-03
      -1.37066700e-05 -2.67810700e-03 -9.43181291e-03 -3.62351025e-03
      -8.46921094e-03 -2.36610882e-03 -4.81909560e-03 -1.01119326e-03
      7.09463423e-03 -1.29463268e-03 3.00660351e-04 1.67047267e-03
      4.26516228e-04 -7.34652043e-04 -5.56950783e-03 -1.06775658e-02
      -2.35420559e-03 2.47774506e-03 3.23357759e-03 2.91399681e-03
      -1.92947488e-03 2.63587642e-03 -2.11567487e-04 -3.14530404e-03
      -7.65275024e-03 -1.06534222e-02 -4.64502256e-03 -2.06558499e-02
      6.37384364e-03 -5.80355874e-04 -3.26965726e-03 -2.76169507e-03
      1.33039616e-03 3.80151789e-03 2.60798051e-03 4.09051729e-03
      2.07292777e-03 2.80841347e-03 6.75947114e-04 2.48810253e-03
      1.87428319e-03 -5.02678379e-03 -5.36888954e-04 -1.48099533e-03
      3.45101277e-03 9.25319362e-03 7.44369719e-03 1.32181346e-02
      5.79287717e-03 3.65057425e-03 3.38761578e-03 1.28311000e-03
      4.55047516e-03 1.05284424e-02 3.76923080e-03 1.49747329e-02
      5.11692418e-03 1.15471743e-02 1.42388325e-02 1.11185480e-02
      2.31723152e-02 1.22656096e-02 7.45363720e-03 -1.60427415e-03
      -2.41503026e-03 3.77748953e-03 8.69767647e-03 1.68623030e-02
      9.22178756e-03 2.78489315e-03 4.87216050e-03 -1.19261758e-03
      9.45023494e-04 1.17424019e-02 -7.41771830e-04 -1.14801934e-03
      -8.94892868e-03 -2.19101626e-02 -1.21153593e-02 -3.61101748e-03
      7.42641930e-03 -1.65595440e-03 -6.02636021e-04 2.36034696e-03
      5.63544966e-03 9.20975115e-03 8.31368007e-03 7.66487373e-03
      2.25832383e-03 4.93496051e-03 3.83523293e-03 4.66941111e-03
      -1.57998875e-02 -2.00810656e-02 -6.52204221e-03 -5.81961405e-03
      -6.63100183e-03 -9.02142283e-03 -1.09746763e-02 2.16648565e-03
      6.54909061e-03 6.40021171e-03 -6.11470081e-03 -1.18808616e-02
      -1.36459435e-04 1.37238549e-02 -9.88351461e-03 -3.74894892e-03
      -6.61986927e-03 -4.31489246e-03 -3.81790800e-03 -4.87343641e-03
      -7.28188222e-03 -2.07187352e-03 -1.02900271e-03 -3.44751473e-03
      1.05273130e-03 3.29389982e-03 -1.25157554e-02 -1.16440130e-03
      3.60685773e-03 1.18279841e-03 3.24388407e-03 -1.76606292e-03
      -1.11964054e-03 -7.69151701e-03 -5.00362646e-03 5.79636951e-04
      -2.75792176e-04 -6.96924934e-03 -7.76341278e-03 -1.41149806e-02
      -1.98887917e-03 2.24792375e-03 3.43146175e-03 6.06871094e-04
      1.85825664e-03 8.50193016e-03 5.85879199e-03 2.20036507e-03
      1.11627963e-03 8.04077499e-05 2.62167072e-04 1.21923396e-03
      2.10151775e-03 2.82728905e-03 1.00093009e-03 1.58454379e-04
      4.07436950e-04 7.60074647e-04 6.76708994e-04 8.33377894e-03
      9.32757929e-03 6.09020609e-03 -5.08480100e-03 -8.64160899e-03
      -8.26981291e-03 1.42027310e-03 -1.00543834e-02 9.24533792e-03
      6.19376078e-03 -4.36354149e-03 -4.61548474e-03 -7.34707154e-03
      -5.81829750e-04 1.73817144e-03 -4.61730291e-04 -4.83160547e-04
      -4.15661576e-04 -2.22444814e-05 3.05932551e-03 -3.12863127e-03
      2.78111827e-03 2.79936497e-03 -3.62630351e-04 5.96683333e-03
      -1.18591939e-03 -1.49129005e-02 -3.42972635e-05 -9.86913778e-03
      -5.01292618e-03 8.12963117e-05 2.90624099e-03 3.29171866e-03
      -1.97093710e-02 -8.24777689e-03 -8.64949357e-03 -8.91422667e-03
      -1.17894607e-02 -1.46354688e-02 -5.75265707e-03 -2.62942305e-03
      7.71338167e-03 6.56398572e-03 -2.35206657e-03 -1.38684540e-04
      -8.14671721e-03 1.99740399e-02 1.64486952e-02 5.73847583e-03
      5.64607279e-03 -8.57887417e-03 -5.41254878e-03 1.05301160e-02
      -8.62817559e-03 -1.75348576e-03 4.41405084e-03 3.18085542e-04
      5.14748448e-04 1.77456776e-03 1.45705398e-02 3.05184978e-03
      2.20171851e-03 -2.04932323e-04 -7.90877559e-04 -2.32731481e-03
      1.26741812e-04 -1.62618570e-02 -1.44138318e-02 -1.37243560e-02
      -6.72540069e-03 1.09352907e-02 6.04808563e-04 -7.74101028e-03
      -1.98645005e-03 5.51936449e-03 2.48978334e-03 -1.04454102e-03
      -7.05697574e-03 5.30415028e-03 -8.24750680e-03 -6.67686062e-03
      -5.33625344e-03 -5.26849087e-03 -2.31474615e-03 1.01276729e-02
      1.44756800e-02 1.29958065e-02 1.09682661e-02 8.65073502e-03
      1.10726627e-02 -5.32506034e-04 5.83053054e-03 1.30167808e-02
      6.64801942e-03 2.37229490e-03 4.90891607e-03 4.52212756e-03
      5.33799315e-03 2.90879328e-02 7.74386851e-03 8.40803515e-03
      8.81547760e-03 4.06083697e-03 1.58106573e-02 7.00795604e-03
      -1.24714663e-02 5.21815196e-03 1.31121222e-02 5.82847325e-03
      1.17926663e-02 9.92571376e-03 3.56803229e-03 5.17202541e-03
      1.24372775e-03 5.78029081e-04 -8.34536832e-03 1.25334598e-02
      9.53982584e-03 1.27097880e-02 1.71585996e-02 1.12264715e-02
      4.98645892e-03 4.74588433e-03 9.05164331e-03 6.43689698e-03
      -5.38658164e-03 -3.86086572e-03 -1.86059084e-02 2.65643327e-03
      -3.85432923e-03 -2.78735743e-03 4.82474780e-03 1.08669782e-02
      9.03860200e-03 8.85320362e-03 4.74939682e-03 1.10004116e-02
      -3.35699730e-02 -4.55494272e-03 1.47211633e-03 -9.85065941e-03
      -5.74558042e-03 -4.27005347e-03 -3.69703304e-03 -2.02297606e-03
      -5.04072895e-03 -4.79034288e-03 -9.23016202e-03 -6.26774365e-03
      -4.86493018e-03 1.23036839e-02 4.82493266e-03 4.53072740e-03
      -1.11934217e-03 -1.00119179e-02 -6.43584831e-03 1.61328893e-02
      1.30559085e-02 3.60611011e-03 7.60955550e-03 6.40130369e-03
      -6.81821955e-03 -8.60781316e-03 7.59115256e-03 7.68228946e-03
      1.04364590e-03 -3.97766533e-04 7.25534454e-04 -7.37072295e-03
      -1.48788672e-02 -1.19704111e-02 -9.49374493e-03 -1.37594594e-02
      -1.59666166e-02 -1.01234419e-02 -4.48234938e-03 4.38492047e-03
      5.53870481e-03 -2.11524172e-03 4.34790185e-04 -2.23372062e-03
      -7.13042729e-03 -1.11839129e-03 -1.14521282e-02 -9.13853571e-03
      1.21930125e-03 5.26123113e-05 1.04650762e-02 6.79936539e-03
      -2.40763207e-03 2.97455350e-03 2.67304410e-03 2.03787873e-04
      1.64389634e-03 4.08977270e-03 -5.29425777e-03 -6.74029998e-03
      -6.81049330e-03 -1.85979484e-03 -9.72363108e-04 2.77451659e-03
      6.67991722e-03 7.21775927e-03 9.57253482e-03 2.13057362e-03
      2.51132948e-03 3.83215258e-03 -4.92044957e-03 5.81137184e-03
      4.99804085e-03 1.88052247e-03 -2.58931977e-04 1.20268506e-03
      1.25934847e-03 3.78341810e-03 -1.05230063e-02 -7.38846080e-04
      -2.96806940e-03 -1.87573233e-03 -1.19667973e-04 -1.01445382e-03
      2.01694574e-03 -6.65936386e-03 1.18200621e-02 4.91002668e-03
      -3.97333922e-03 -4.57420526e-03 -5.38567128e-03 -8.03593639e-03
      -2.31245742e-03 -8.62616766e-03 1.41304231e-03 1.65127851e-02
      2.19254903e-02 2.34516710e-02 1.32859207e-03 2.57782831e-05
      -3.81655945e-03 -1.47344125e-03 -4.37308941e-03 -1.28866266e-03
      -1.17632449e-02 -1.56292308e-03 -2.46417336e-03 -1.45956164e-03
      -7.99863972e-03 -1.43464375e-02 -1.36979604e-02 -2.21734997e-02
      -9.68606491e-03 -1.71218906e-03 4.24775202e-03 5.04561001e-03
      2.43325415e-03 2.35417881e-03 9.82783083e-03 3.33302375e-03
      3.17480811e-03 1.09803665e-03 -1.40985511e-02 -6.08320395e-03
      -9.62102879e-03 -5.36629604e-03 -2.65328400e-03 -1.52327295e-03
      -2.39074347e-03 3.70553997e-03 -1.47326791e-03 -6.80415845e-03
      -1.12146675e-03 2.78372178e-03 3.68903810e-03 3.87867127e-04
      8.99756607e-03 -8.87107308e-05 -1.97089650e-03 6.11824961e-03
      1.20445772e-03 2.01449660e-03 -9.81813530e-04 -6.10631471e-03
      6.20761793e-03 7.30344839e-03 1.57390703e-02 1.26777329e-02
      7.92957842e-03 6.08535204e-03 1.70534861e-03 2.14220583e-03
      3.30222596e-04 3.71184992e-03 4.26135928e-04 1.23034697e-03
      4.77904826e-03 -5.55165578e-03 -7.67360302e-03 -6.46295073e-03
      -7.35971797e-03 -8.18519294e-03 5.26466547e-03 -7.64804427e-05
      -2.52807071e-03 -9.67462373e-04 1.79108442e-03 5.21111162e-03
      1.56413894e-02 2.82354117e-03 -1.18421502e-02 -1.11649465e-02
      -1.14649013e-02 -5.02889557e-03 -1.62076075e-02 -1.55754881e-02
      -1.07697686e-02 -7.03749293e-03 -3.63235432e-03 -1.96634722e-03
      3.64213018e-03 -7.07326038e-03 -1.83009524e-02 -9.65073146e-03
      -1.99339120e-03 -1.23954369e-02 -6.14026003e-03 -6.09280635e-03
      -4.76726610e-03 3.70342564e-03 -9.29174293e-03 -9.56793223e-03
      -2.09709257e-03 3.09367571e-03 2.25928263e-03 -1.57702006e-02
      -6.21372892e-04 -3.24544567e-03 -4.05160198e-03 5.16252709e-04
      7.49777071e-03 1.34025021e-02 -1.10479370e-02 -1.02586867e-02
      -8.93324241e-03 -6.17194222e-03 2.24418379e-03 -2.96199555e-03
      -2.90083792e-03 1.93375559e-03 3.15703568e-03 3.71103291e-03
      2.74137128e-03 -4.78128530e-03 -4.27638786e-03 -9.26046167e-03
      -3.50059546e-03 -1.04166428e-02 -4.41188738e-03 -4.44740197e-03
      -2.05576398e-05 -1.35044288e-02 -1.05011109e-02 -9.35650524e-03
      -9.45179909e-03 -7.55330408e-03 -6.43953588e-03 1.41046441e-03
      4.57569957e-04 -1.90534219e-02 -1.61703322e-02 -4.09400091e-03
      3.80780757e-03 -7.85247306e-04 1.08777471e-02 -2.17727688e-03
      -1.54859488e-04 1.36479241e-04 6.89510431e-04 -5.14464919e-03
      -3.05460626e-03 -5.55756362e-03 -3.23497085e-03 -3.78533779e-03
      -2.89267045e-03 -4.61489893e-03 -1.02131395e-03 -1.07042980e-03
      -4.88246325e-04 2.98973609e-04 -5.55216509e-04 -2.58614402e-03
      -5.34322206e-03 -4.16611601e-03 -2.02813675e-03 2.44267355e-03
      5.67320222e-03 5.94837684e-03 1.21651571e-02 5.47557883e-03
      9.13135998e-04 3.91927175e-03 3.35185230e-03 3.02582770e-03
      4.05115401e-03 1.13397921e-02 5.13266120e-03 1.71463890e-03
      4.15124989e-04 -8.97166610e-04 -4.75648063e-04 1.27424009e-03
      1.73820253e-03 -4.75548394e-03 4.99037618e-04 1.41947152e-04
      -5.31840022e-04 -1.05445320e-03 -1.81700988e-03 -1.04756616e-02
      1.60426146e-03 -1.84675085e-03 -6.04000874e-03 -1.16074109e-03
      -8.21114331e-03 3.25141451e-03 4.59439434e-05 5.97032951e-03
      5.85643295e-03 6.75058458e-04 1.24316067e-02 5.68183931e-03
      -3.07394261e-03 -1.77328335e-03 5.48626576e-03 -2.12091851e-04
      -2.23712251e-03 -3.31236725e-03 -5.46902698e-03 5.07278508e-03
      1.14748161e-03 1.97843928e-03 1.88303576e-03 5.06627141e-03
      8.14366341e-03 -3.62231676e-03 -1.04827238e-02 -5.06303879e-03
      -3.14375968e-03 7.42358575e-03 3.38097359e-03 1.31528238e-02
      2.74451007e-03 -5.89888869e-03 -6.26961654e-03 -4.50156024e-03
      1.21788969e-02 7.08294380e-03 1.93696786e-02 -3.26180761e-03
      4.45517566e-04 8.31505377e-03 6.18757680e-03 8.65107495e-03
      2.85045593e-03 3.82094942e-02 3.11693898e-03 6.70840126e-03
      8.17898009e-03 2.70156097e-03 -8.08231346e-03 -9.54544358e-03
      6.42113760e-03 1.03620905e-02 8.07727780e-03 9.53977741e-03
      1.17242169e-02 -2.30613528e-04 -1.77687092e-03 -4.46993858e-03
      -1.34302909e-03 -2.97217444e-03 -3.76893347e-03 -4.98751923e-03
      -9.27402359e-03 -9.58646461e-03 -1.28939813e-02 -3.11617134e-03
      6.63249334e-03 2.26158295e-02 2.89879292e-02 -7.82032683e-03
      -3.98124196e-03 -7.74437620e-04 -2.93475576e-03 -3.53466859e-03
      -1.92568416e-03 4.31202352e-03 1.05240964e-03 4.43658931e-03
      3.18017812e-03 9.12701711e-04 3.79007845e-03 4.59763035e-03
      2.64692698e-02 1.77004226e-02 2.15242226e-02 2.15100534e-02
      7.51280645e-03 5.16319508e-03 -3.67163750e-03 7.25157443e-04
      8.16597661e-04 9.43095237e-03 7.06022111e-05 4.39230679e-03
      -3.89692141e-04 1.04457429e-02 1.04042585e-03 4.56449488e-04
      4.28229151e-03 4.23868932e-03 7.86040444e-03 7.47044990e-03
      -6.98717602e-04 -6.16993383e-03 6.93770358e-03 1.31998700e-03
      4.39235661e-03 4.56647598e-04 -4.73079924e-03 3.50508071e-03
      -2.90168496e-03 -1.19453492e-02 -1.57164894e-02 4.00348217e-04
      -1.35364989e-02 8.95493198e-03 1.07686352e-02 8.87528528e-03
      1.14364373e-02 6.44014683e-03 1.01873027e-02 1.00639230e-02
      2.92543741e-03 -1.50506543e-02 -6.53660670e-03 2.05021189e-03
      -1.53041165e-03 -1.00163938e-02 -8.06355942e-03 9.22444742e-04
      9.52053815e-04 6.92838395e-04 1.97854871e-03 1.11552654e-03
      2.01175828e-03 4.50611860e-03 5.43014426e-03 4.70753433e-03
      1.43897021e-03 -7.73449009e-03 9.11598653e-03 1.16273074e-03
      -1.45000592e-03 -5.01522282e-03 1.44997588e-03 -1.91912055e-03
      -3.33768036e-03 -1.03742871e-02 9.74731171e-04 4.36406612e-04
      2.92522786e-03 2.66039930e-03 3.61688551e-03 9.90179740e-03
      -1.78665665e-04 5.20340726e-03 7.02505978e-03 3.20712826e-03
      4.14738432e-03 1.29199699e-02 2.11802442e-02 1.20280823e-02
      1.59630924e-02 7.74115277e-03 1.86851574e-03 8.52733012e-03
      3.44388047e-03 -8.90768878e-03 8.99969134e-03 -6.81467773e-03
      -2.48042541e-03 -2.41883169e-03 -6.68601738e-03 -3.94523749e-03
      8.91438592e-03 -4.55961004e-03 -2.48105987e-03 -1.60794589e-03
      5.89523464e-03 -1.81479182e-03 -4.68506292e-03 -2.73376680e-03
      4.45102667e-03 8.26053973e-03 1.26920156e-02 7.04840897e-03
      -4.69676172e-03 2.14615269e-04 -1.98315619e-03 -4.14388720e-03
      7.61197938e-04 -1.89126702e-03 -8.17870256e-03 -3.47303547e-04
      -1.86987885e-03 -1.51398813e-03 3.31240916e-03 -7.43417884e-04
      1.33858472e-02 -2.17536814e-03 -7.43485580e-04 -2.21774238e-03
      -3.98852071e-03 -1.09817917e-02 8.14246305e-04 4.80114575e-03
      9.99083277e-03 3.33873183e-03 3.52604035e-03 4.10568481e-03
      1.72136608e-03 -2.54069548e-03 -5.12853079e-03 -1.23840920e-03
      -3.52255884e-03 1.71806696e-05 -3.04760016e-03 -4.03304445e-03
      3.92370578e-03 -6.31951215e-03 -8.18390027e-03 1.51069753e-03
      1.13271715e-04 -6.40909770e-04 2.88182008e-03 -3.26054497e-03
      7.63050606e-03 6.40468253e-03 1.16375135e-02 1.15902768e-02
      -2.68510799e-03 2.13156338e-03 2.28979439e-03 1.68473646e-03
      -2.66644475e-03 -1.72458694e-03 -2.03128997e-03 -5.32947481e-03
      -5.25370752e-03 -1.63031765e-03 4.22843092e-04 -5.99800190e-03
      -5.92015870e-03 -5.52325649e-03 -1.31348018e-02 -1.00922436e-02
      -3.43497633e-03 -2.78791226e-03 6.44230982e-04 -5.13693411e-03
      -9.11835674e-03 -9.21035931e-03 3.43434350e-03 8.24008603e-03
      1.09086558e-03 2.83343927e-03 2.02580332e-03 2.35695671e-03
      3.62037937e-03 1.19305518e-03 4.93101636e-03 6.73155393e-03
      1.17888832e-02 7.94354267e-03 7.56714493e-03 4.94188117e-03
      5.73187508e-03 4.62427316e-03 -1.44550519e-03 5.27829304e-03
      4.37099906e-03 -4.63684835e-03 3.27781396e-04 3.57376947e-03
      -1.47739041e-03 5.63533744e-03 -2.79488368e-03 -7.97207467e-03
      -7.98918214e-03 -4.61320905e-03 -5.80287445e-03 -1.20541994e-02
      -1.13398721e-02 -1.58083998e-02 1.20785576e-03 -9.43512714e-04
      5.20075962e-04 1.19268626e-03 2.92937108e-03 -5.66284731e-03
      1.33090783e-02 4.51408513e-03 4.56229364e-03 6.01178384e-04
      5.30417310e-03 -5.79229183e-03 3.01519665e-03 -4.70942352e-03
      -9.56114265e-04 3.04163317e-04 -2.08734581e-03 -8.87137558e-03
      -2.08795554e-05 1.52251509e-03 -6.24098303e-03 -5.29891811e-03
      -1.01570925e-02 -1.18822372e-02 -8.80787522e-03 -7.99745601e-03
      -3.08041740e-03 -3.20143579e-03 -9.87083372e-03 -6.90522371e-03
      -1.21743474e-02 -1.93433724e-02 -3.67895849e-02 -1.18349055e-02
      -3.62633914e-03 -1.55986398e-02 -8.21532216e-03 2.47610686e-03
      5.02790138e-03 3.59327043e-03 -2.44503818e-03 -5.83127316e-04
      4.92446125e-04 -6.82159001e-03 -1.13994826e-03 -1.40558649e-02
      -1.06771421e-02 -5.15243458e-03 -2.81645684e-03 -4.92127240e-03
      -3.08629987e-03 3.22079584e-02 1.10972067e-02 -1.31134863e-03
      1.57494645e-03 4.34726896e-03 -5.95846819e-03 -6.81910198e-03
      -2.54855375e-04 -2.40317648e-04 -6.15213707e-04 4.66807419e-03
      1.47780101e-03 3.13539687e-03 1.41832167e-02 7.22847355e-04
      -1.91870972e-03 -5.57497027e-04 9.75572329e-04 1.87885005e-03
      1.27612241e-02 -1.21702710e-02 -3.06810532e-03 -6.50866795e-03
      -6.59224298e-03 1.39658200e-03 2.21501826e-03 5.93300397e-03
      9.49120708e-03 1.10622682e-02 1.22424513e-02 2.94968626e-03
      1.32141570e-02 1.13979599e-03 1.04194283e-02 1.40213268e-02
      4.08858852e-03 5.32397022e-03 4.13582474e-03 2.92956538e-04
      2.73059704e-03 3.47527862e-03 2.33828719e-03 1.93753815e-03
      -3.05940723e-03 1.93324999e-03 -1.34612538e-03 -8.14728998e-03
      -6.32476620e-03 1.87275407e-03 -1.89289008e-03 -2.14257836e-03
      -5.45490067e-03 -1.08024385e-03 7.58109521e-03 5.02169412e-03
      9.43096913e-03 4.87518357e-03 4.18687053e-03 -2.21565529e-03
      5.30207949e-03 1.62350796e-02 1.58559326e-02 3.61066428e-03
      1.33588526e-03 -3.30668106e-03 -1.03720045e-02 -4.80033038e-03
      -1.47478888e-04 -1.03771407e-03 -5.17835200e-04 -4.05809260e-04
      2.70990119e-03 4.95462073e-03 -7.93212821e-05 3.34597105e-04
      3.46118491e-03 -3.28767404e-04 -3.04574333e-03 -9.35193617e-03
      9.45972465e-03 8.50988179e-03 1.02007249e-02 6.81695994e-03
      9.50091146e-03 3.54282092e-03 7.17067486e-03 4.05566581e-03
      2.12135981e-03 9.98197473e-04 -9.27532383e-04 -5.06195333e-03
      -9.34821740e-03 -3.39034968e-03 -9.90206958e-04 -3.97013719e-05
      -1.17352221e-03 -3.09730967e-04 -1.58515410e-03 -2.21802061e-03
      -1.39553833e-03 -3.59612284e-04 5.77887869e-04 1.25675392e-03
      -2.81649129e-03 -3.74569627e-03 -5.14154183e-03 1.01539660e-02
      3.33183655e-03 5.71592664e-03 3.83669068e-03 1.07844034e-02
      7.00348988e-03 1.06481221e-02 5.97396819e-03 1.34888096e-02
      1.15529085e-02 1.20364493e-02 1.41263446e-02 1.03690813e-03
      3.11781163e-03 -8.92603886e-04 -1.46755169e-03 2.61626346e-03
      4.09418950e-03 2.27714647e-02 1.58888362e-02 7.87271280e-03
      9.05706454e-03 8.72644316e-03 4.19308711e-03 1.91346407e-02
      6.98622270e-03 2.23848969e-03 6.11666730e-03 2.07801873e-04
      4.11227299e-03 -3.89517797e-03 -1.45242242e-02 -8.69890035e-04
      1.91047613e-03 9.08985792e-04 2.03680946e-03 1.25845028e-02
      -6.71386067e-03 -1.87502168e-02 -1.31330136e-02 2.00871797e-03
      2.34572534e-02 2.75489651e-02 2.01609619e-02 1.40937138e-02
      2.17513251e-03 6.72758371e-03 6.55132718e-03 1.51717439e-02
      2.18276624e-02 2.79416121e-03 2.42721359e-03 -1.62924570e-03
      -5.13122091e-03 -3.61795817e-03 -8.97360686e-03 -8.42830166e-03
      -1.58742536e-03 1.20384805e-02 5.14444523e-03 7.79272523e-03
      1.59358571e-03 1.07210912e-02 1.97258089e-02 1.76301282e-02
      6.17280230e-03 -3.95264616e-03 1.50571414e-03 4.89264773e-03
      -3.42652714e-03 -1.67368129e-02 -1.23250159e-02 -1.22108068e-02
      -1.37064848e-02 -1.39869452e-02 -3.46029107e-03 7.38615729e-03
      4.85475967e-03 7.34889461e-03 -3.24770017e-03 -4.87678079e-03
      -9.23296716e-03 -8.52409564e-03 2.67415354e-03 1.06277289e-02
      6.49160985e-03 3.98202753e-03 5.02987811e-03 -2.22652243e-03
      1.70866169e-05 1.11519648e-02 1.51260197e-02 1.28299687e-02
      9.48791113e-03 6.91788225e-03 2.80792615e-03 3.60459625e-03
      3.02449153e-05 6.83446974e-03 5.46276616e-03 4.49708663e-03
      9.05325264e-03 6.70449156e-03 -3.50590504e-04 1.66950771e-03
      -5.56388870e-03 -1.91178522e-03 -3.17887898e-04 -3.02015757e-03
      5.99811738e-03 1.99111048e-02 1.38994595e-02 8.43316503e-03
      5.88274421e-03 1.61371883e-02 5.11832070e-03 3.55367595e-03
      6.79674419e-03 2.48493371e-03 4.46261372e-03 4.26590536e-03
      3.05682444e-03 -4.46565868e-03 4.01894184e-04 4.06694628e-04
      -4.69975232e-04 -1.84996938e-03 -5.39922854e-03 1.26662591e-04
      -2.96114082e-03 3.06742731e-04 2.72848527e-03 2.85844877e-03
      6.01025252e-03 1.43370451e-02 8.31602886e-03 7.45237991e-03
      4.15153336e-03 4.00969014e-03 1.75227283e-03 3.59645858e-03
      -1.07367076e-02 1.66870747e-03 1.83731259e-03 7.45255360e-03
      -4.83277300e-03 -6.02200301e-03 -5.70461107e-03 -2.47695995e-03
      4.33837529e-03 -4.54500609e-04 7.93465995e-04 -1.50136938e-02
      -2.62984615e-02 -1.03432238e-02 -8.89290217e-03 -1.02663301e-02
      -1.04407491e-02 -3.02354863e-04 -4.38727997e-03 1.17940886e-03
      -2.33282894e-03 -6.68880995e-04 -2.09733145e-03 -6.19375787e-04
      9.59963130e-04 5.92209632e-03 -4.80194052e-04 -2.43471866e-03
      -8.59532878e-03 -1.22273201e-02 -5.87291922e-03 -2.98381760e-03
      3.20179109e-03 -4.55677276e-03 4.39501787e-03 1.65516767e-03
      6.87984657e-03 3.21642589e-03 -1.05430130e-02 3.44928913e-03
      2.00341595e-03 -3.99902841e-04 2.07551662e-03 4.70261672e-04
      3.88103724e-03 -5.28483931e-03 9.60897282e-03 7.77909299e-05
      2.39217374e-03 -4.52307286e-03 -7.49143260e-03 3.16343532e-04
      -1.15421200e-02 -1.66029425e-03 -1.82178931e-03 6.61097351e-04
      4.42803558e-03 9.24274419e-03 5.71194012e-03 8.42242315e-03
      8.88233725e-03 1.02402763e-02 1.54097928e-02 1.24228420e-02
      6.09342521e-03 4.47573652e-03 -2.70383572e-03 2.53387098e-03
      7.30047515e-03 5.28867310e-03 5.96184377e-03 6.80077309e-03
      6.80289511e-03 1.54493726e-03 2.66052550e-03 7.42128072e-03
      6.08975813e-03 9.84871760e-03 3.18228221e-03 -5.11328643e-03
      -2.85921199e-03 -1.60404202e-03 1.17634379e-04 3.09060188e-03
      5.40982699e-03 -1.58860181e-02 -1.61171413e-03 -2.54379888e-03
      -4.56889067e-03 -3.31951771e-03 -1.12250904e-02 -5.39776636e-03
      -7.23706209e-04 2.25530961e-03 -1.14312826e-03 -1.38713152e-03
      -9.56548785e-04 1.72486773e-03 3.95526551e-03 8.54513608e-03
      4.10648389e-03 6.20251941e-03 3.68643017e-03 2.08914466e-03
      6.60171034e-03 4.89017460e-03 2.56033824e-03 1.85421540e-03
      6.47413218e-03 4.09902306e-03 3.05906113e-04 -1.45147992e-02
      6.44353335e-04 -7.98795663e-04 -3.39999888e-03 4.41020471e-04
      -2.77904514e-03 -1.13063259e-02 -5.58788143e-03 -1.34332117e-03
      1.83498138e-04 7.28082494e-04 7.79467635e-04 -1.61752419e-03
      -3.17839091e-03 7.48993549e-03 3.44088231e-03 4.23640339e-03
      6.74989866e-03 1.17721697e-02 1.19098499e-02 6.48972671e-03
      -5.81516093e-03 3.21377511e-03 1.84994191e-03 1.71764032e-03
      3.56835336e-03 -1.09601151e-02 -9.24209889e-04 1.59636978e-03
      -1.32424524e-03 2.77506839e-03 6.52061636e-03 1.48045775e-02
      6.26236992e-03 6.71103736e-03 -2.03305809e-03 -9.18904610e-04
      -2.60303169e-03 8.76306463e-03 -2.55472139e-02 -4.48202761e-03
      -6.41846517e-03 -1.08123978e-03 -2.95403041e-03 8.63002986e-03
      1.60188023e-02 1.80281245e-03 -2.00108462e-03 -1.37045747e-03
      4.46748314e-03 9.03022825e-04 4.41496074e-03 -9.78602841e-03
      -3.81352357e-03 -6.95967395e-03 -1.06826061e-02 -1.93325095e-02
      -2.33166814e-02 -2.02953257e-02 -9.26191453e-03 -9.91268549e-03
      -9.13207978e-03 -6.87737856e-03 -8.87815375e-03 -8.79412983e-03
      1.58566597e-03 6.05585892e-03 4.66818688e-03 -1.33206788e-03
      -4.22670599e-03 -2.58791470e-03 4.60237125e-03 -6.00290671e-03
      -1.05460621e-02 -1.11512784e-02 -6.96077151e-03 -7.62571534e-03
      8.71317834e-03 -3.03797703e-02 -1.03123970e-02 -2.79520825e-03
      -1.42093282e-02 -1.49040380e-02 -1.27837788e-02 -3.83741193e-04
      4.14106250e-03 -1.83261395e-03 -2.45787459e-03 2.09490326e-03
      4.71610250e-03 1.09801879e-02 1.68851446e-02 9.43579711e-03
      4.26059728e-03 6.73925970e-03 6.44279737e-03 8.34369101e-03
      9.28856153e-03 6.74323319e-03 6.18538912e-03 5.44933463e-03
      -8.63379275e-04 -7.40330783e-04 2.96812248e-03 -7.12422747e-03
      -7.04423944e-03 4.36068221e-04 2.16885912e-03 2.26792926e-03
      7.68336374e-03 5.16304746e-03 8.96618422e-03 7.94485491e-03
      5.12428815e-03 3.62251507e-04 1.04210398e-03 1.34396898e-02
      3.37156584e-03 1.21742440e-02 2.69420492e-03 5.52314043e-04
      5.62823564e-03 -2.09605484e-03 -2.75158253e-03 -1.72334514e-03
      -2.24672956e-03 -3.56782344e-03 -3.10064340e-03 -5.07979142e-03
      -3.49630904e-03 -9.31765418e-03 -4.63393657e-03 -1.48749270e-03
      -3.70257092e-03 -2.53418670e-03 -2.49993824e-03 -3.70787829e-03
      7.48751278e-04 -6.07860275e-03 -5.23391273e-03 9.40845069e-03
      4.99922875e-03 1.22257676e-02 -2.47552549e-03 3.32228770e-03
      2.14416045e-03 -1.08779490e-03 -6.45782566e-04 6.10709842e-03
      -1.49504188e-03 -2.16680765e-03 -9.30391019e-04 -3.67777376e-03
      -1.74854638e-03 -5.91376889e-03 -4.22061514e-03 -1.69148538e-02
      -3.78962792e-03 -4.78177937e-03 -6.56591821e-03 -2.58251303e-03
      -6.08083652e-03 -3.98179237e-03 8.56389466e-04 7.74389133e-03
      2.82413280e-03 8.33785813e-03 4.43950715e-03 7.11612217e-03
      6.15599426e-03 1.79303400e-02 1.22961458e-02 9.65619925e-03
      7.74129946e-03 6.59601437e-03 1.81414653e-02 1.04940571e-02
      3.90283973e-03 3.76643176e-04 2.12363550e-03 3.41842370e-03
      4.86279745e-03 6.02757977e-03 1.03481757e-02 1.20947128e-02
      7.86596444e-03 -2.17543289e-04 8.54347076e-04 -8.70609423e-04
      -1.69211102e-03 -7.86055904e-03 2.86974502e-03 1.76433695e-03
      1.12466617e-02 3.99689050e-03 3.83142987e-03 7.10002147e-03
      6.93772919e-03 1.29070766e-02 1.51068093e-02 1.35427406e-02
      8.90790951e-03 6.73231622e-03 3.54175502e-03 1.70992606e-03
      -4.42610326e-04 9.52484831e-03 1.17336633e-02 1.14313466e-03
      1.08976476e-02 1.27497157e-02 6.76951278e-03 8.07088148e-03
      4.38763853e-03 -3.33388597e-02 -1.46803549e-02 -8.64005368e-03
      -4.83777374e-03 -5.47318021e-03 1.91653741e-03 -2.93652574e-03
      -8.57203454e-03 1.38697971e-03 3.61168804e-03 1.24866394e-02
      1.34933321e-02 1.67533401e-02 1.75293479e-02 1.23507306e-02
      1.06664598e-02 1.02028754e-02 3.76968551e-03 1.03571161e-03
      -1.08773746e-02 -1.67943556e-02 -4.39494709e-03 -5.37457503e-03
      -1.14597962e-03 -1.18455151e-03 -7.68611813e-03 -3.59815196e-03
      2.03452725e-02 5.98706771e-03 4.70215746e-05 -1.38651079e-03
      -7.81844929e-03 -1.27567379e-02 9.37991776e-03 2.46719061e-03
      1.10991318e-02 9.58614331e-03 1.47226760e-02 1.40008843e-02
      7.68954400e-03 2.35801423e-03 1.88347313e-03 4.53766342e-03
      2.53704702e-03 1.24308385e-03 -3.61985550e-03 -1.07572153e-02
      -2.53103761e-04 -1.75907579e-03 8.96670623e-04 3.74800549e-03
      -6.25018321e-04 -8.43085535e-03 -1.10930474e-02 3.70911020e-03
      5.50028915e-03 4.29393351e-03 -1.98842841e-03 -3.93303297e-03
      5.95897855e-03 7.56773679e-03 3.45817930e-03 8.71514343e-03
      7.93663319e-03 7.04896078e-03 2.51599234e-02 1.43808201e-02
      8.36616568e-03 1.09107560e-02 4.06069960e-03 6.44093240e-03
      -1.26490463e-03 3.17765167e-04 -1.76411460e-03 -6.07843092e-03
      -3.89476703e-03 -3.08617996e-03 -8.95500463e-03 -1.60662159e-02
      2.83395243e-03 5.49323438e-03 1.15225827e-02 9.64562595e-03
      1.78912375e-02 1.05459359e-03 -8.16554017e-03 2.01369682e-03
      -1.16150151e-03 -9.01344419e-03 -1.05566029e-02 2.60744273e-04
      -1.14259706e-03 -1.47004938e-03 1.96085777e-03 2.27637286e-03
      -2.07518018e-03 5.48507646e-03 3.36493342e-03 7.40227429e-03
      4.30179434e-03 -2.22306652e-03 1.24115276e-03 5.78206358e-03
      1.02775998e-03 6.33149967e-03 -3.33291385e-03 -1.76305091e-03
      6.01451611e-03 4.05454542e-03 1.26102772e-02 -5.39207971e-03
      -1.71417259e-02 -7.35712703e-03 -3.11582419e-03 -6.61273440e-03
      -6.15172926e-03 -1.13006597e-02 -1.49397447e-03 -7.62810232e-04
      4.22181329e-03 5.20738447e-03 5.27532678e-03 1.85661565e-03
      -3.14991246e-03 1.58862676e-02 9.64188296e-03 9.93556902e-03
      9.87638626e-03 7.00211059e-03 6.02464145e-03 3.30669945e-03
      3.61011806e-03 4.06959839e-03 -1.25863706e-03 -1.49512093e-03
      -2.28117942e-03 -8.99786223e-03 -1.46978395e-02 -3.33321933e-03
      -5.12638711e-04 2.09988072e-03 3.63073486e-05 -5.05950395e-03
      -9.80044249e-03 -4.98891063e-03 7.93320686e-03 8.81331693e-03
      6.38300367e-03 1.27185760e-02 1.16358697e-02 7.15974811e-03
      9.13168862e-03 3.78800370e-03 -6.56257104e-03 -1.01118768e-02
      -4.21067793e-03 -1.83108766e-02 -9.87142790e-03 -6.22254889e-03
      -6.27875794e-04 -2.52893893e-03 -5.48634073e-03 -5.87047404e-03
      1.28272139e-02 1.98316434e-03 -5.47256612e-04 7.27037434e-04
      3.44341807e-03 7.82222860e-03 6.93238573e-03 5.61095774e-03
      4.17434517e-03 4.79151355e-03 5.12930611e-03 8.98384862e-03
      1.29147712e-02 -5.13452291e-03 3.29871057e-03 -3.29154049e-04
      -9.93562583e-03 1.66058727e-03 -1.26301975e-03 -2.53184955e-03
      1.15005523e-02 4.37279511e-03 2.08087917e-03 1.32310751e-03
      2.30392581e-03 1.13353347e-02 5.72029967e-03 4.95381188e-04
      -1.31095143e-03 -4.31545265e-03 1.27738505e-03 -1.61704200e-03
      -2.86655989e-03 -5.52231586e-03 -4.59116604e-03 -1.37403689e-03
      -4.98723891e-03 -2.61688931e-03 -2.48878263e-03 -6.62773848e-03
      2.11572461e-03 7.86975957e-03 4.62687574e-03 1.98367541e-03
      3.07392352e-03 2.18392583e-03 -3.11743910e-03 2.31695385e-03
      -1.30696350e-03 -8.42046225e-04 4.48403880e-03 -1.73690321e-03
      -1.36001538e-02 2.69778742e-04 -3.22960527e-03 -9.85087641e-03
      -5.00792265e-03 -7.93940388e-03 -1.06336325e-02 -8.75553675e-03
      -1.85969577e-03 -4.73841373e-03 -3.39068752e-03 -2.31708609e-03
      2.54875724e-03 -1.28508843e-02 7.14593148e-03 1.06535982e-02
      -1.48505278e-04 3.82131455e-03 1.34511655e-02 1.08662732e-02
      -5.26309712e-03 2.76560988e-03 -4.51433100e-03 -1.02979317e-03
      -3.88983684e-03 -4.10251599e-03 -9.15215071e-03 8.37191381e-03
      5.55643113e-03 2.12654844e-03 1.13943312e-03 1.30744195e-02
      3.38864746e-03 3.02876136e-03 -1.40341552e-04 3.10724298e-03
      1.82792626e-03 3.60739836e-03 -5.33578626e-04 6.49722118e-04
      -4.95644147e-03 -1.72219728e-03 -5.78538328e-03 -6.00846624e-03
      1.77150569e-03 -6.38564629e-03 -2.01588124e-03 -8.43466783e-04
      -9.11454670e-03 -8.66300613e-03 -1.47573547e-02 -1.43973930e-02
      -8.83623306e-03 -4.97931568e-03 -1.92855159e-03 1.79934909e-03
      3.10521037e-03 -3.36703798e-03 3.77836295e-05 -1.29349399e-02
      -1.69071518e-02 -3.58445430e-03 -2.91213044e-03 -3.05079669e-03
      4.57578525e-03 -3.16491686e-02 -1.42411636e-02 -1.03742415e-02
      -1.47311287e-02 -1.05760796e-02 -1.08690569e-02 7.29523972e-03
      1.35139264e-02 3.19494843e-03 1.21907645e-03 3.70302214e-03
      5.20019978e-03 9.42181051e-03 6.15779916e-03 4.23887512e-03
      2.52598687e-03 -3.08606803e-04 7.43010500e-03 1.17727155e-02
      2.31736209e-02 9.66715626e-03 7.59135280e-03 4.62165521e-03
      2.05764314e-03 5.44987153e-03 2.75760773e-03 1.55463712e-02
      7.75814522e-03 3.27970181e-03 6.54595485e-03 9.07687121e-04
      1.09249838e-02 2.24584844e-02 1.15075018e-02 6.95907697e-03
      4.07427456e-03 4.09618398e-04 -1.74319779e-04 -1.73555333e-02
      1.05428975e-02 4.34141280e-03 4.11460083e-03 8.29470810e-03
      6.11878326e-03 8.62031942e-04 -7.93460105e-03 -1.14009287e-02
      -3.24499467e-03 -3.41299339e-03 -2.70506856e-03 -6.58082403e-03
      -4.74695209e-03 -2.07040180e-02 -4.30328725e-03 -3.06180026e-03
      -6.43908232e-03 -6.65445672e-03 -9.60105006e-03 -1.28091779e-02
      -5.63886110e-03 1.22844137e-03 2.90366751e-03 2.12923856e-03
      3.53838108e-03 1.24514168e-02 6.34659035e-03 2.70525250e-03
      6.68941950e-03 1.28378645e-02 7.46383751e-03 6.22879947e-03
      -2.72744772e-04 -1.04667004e-02 -6.09874213e-03 -1.97278894e-03
      -6.44511776e-03 -4.48959367e-03 -9.59378760e-03 -2.30728295e-02
      -4.90723411e-03 -5.37235709e-03 -4.29899199e-03 -1.99721125e-03
      1.18403812e-03 -1.28266809e-03 2.53928220e-03 1.24575114e-02
      1.18387565e-02 2.84483354e-03 9.62598994e-03 3.05820117e-03
      3.53593659e-03 4.15339414e-03 -1.29942794e-03 -1.76062889e-03
      -1.43378391e-04 -2.12769266e-02 -7.20084645e-03 -9.54112783e-03
      -3.57677741e-03 -1.33365660e-03 -4.30822140e-03 -2.36694631e-03
      -3.04163573e-03 1.09184589e-02 1.02022002e-02 1.04954010e-02
      2.12303177e-02 2.69499309e-02 2.74585858e-02 -9.37642902e-03
      8.70639086e-03 1.03152236e-02 4.89601679e-03 3.03296372e-03
      8.88891425e-03 2.98733963e-03 5.79732424e-03 -2.46127811e-03
      -3.27470643e-03 -8.46517552e-03 -1.23876585e-02 3.09758889e-03
      -9.03113652e-03 -1.79772638e-02 -6.65288372e-03 1.36750191e-03
      1.13423716e-03 1.09692616e-03 1.75364537e-03 2.67980509e-02
      1.27017358e-02 2.00461410e-02 2.74116900e-02 4.61333394e-02
      1.87285221e-03 -6.32556230e-02 -2.82330029e-02 -7.23997504e-03
      -3.74911213e-03 -5.25944680e-03 -1.01920520e-03 -3.82086681e-03
      -1.01966728e-02 -7.06498232e-03 -8.24371912e-03 -3.64258001e-03
      -8.82997643e-03 -1.81624070e-02 -1.10230604e-02 -3.36993597e-02
      -1.67853087e-02 -1.30456761e-02 -9.21687018e-03 -7.04064732e-03
      -1.14250537e-02 -1.72115061e-02 -8.34610371e-04 2.28798995e-03
      6.13938738e-03 4.50750953e-03 -1.83233898e-03 -4.05813847e-03
      3.58412713e-02 2.13525482e-02 6.55387715e-03 -1.73648668e-03
      7.06616906e-04 -9.81788337e-03 -6.26560720e-03 -5.75356046e-03
      -6.54940866e-03 -7.29780737e-03 -2.04056334e-02 -3.22826579e-02
      -3.51005346e-02 -1.94365624e-02 -6.18245685e-03 -4.20172513e-03
      -2.08963547e-03 -4.83891321e-03 -7.14881858e-03 -1.52049661e-02
      -3.56257730e-03 -3.50386230e-03 2.08656676e-03 8.19806289e-03
      1.42813316e-02 -5.40552288e-03 -3.55272107e-02 5.23528643e-03
      1.00627476e-02 6.57820515e-03 4.51882882e-03 5.56865940e-03
      4.93225828e-03 -1.36936211e-03 1.04680134e-03 -1.73176336e-03
      -7.02345744e-03 -1.80615801e-02 -2.02258229e-02 8.68241768e-03
      5.63279772e-03 -1.25678815e-03 -3.94681096e-03 -8.20301531e-04
      -2.03707977e-03 -9.83363367e-04 4.15113894e-03 3.09011224e-03
      6.55751675e-03 2.79265083e-03 -1.98351336e-03 -2.50657722e-02
      1.89412422e-02 4.15419936e-02 3.13479640e-02 2.43868250e-02
      1.29759274e-02 6.12767786e-03 5.24079707e-03 -2.59035057e-03
      -4.91895108e-03 -7.79894134e-03 -8.35484639e-03 -1.18263010e-02
      -2.10649781e-02 -2.39235573e-02 -1.51508227e-02 -6.09357143e-03
      -8.78417213e-03 -7.35417427e-03 -3.49683571e-03 1.40352575e-02
      6.58532931e-03 4.82228165e-03 1.14792651e-02 1.99805554e-02
      1.05341589e-02 1.01085873e-02 1.08945416e-02 1.29243510e-03
      1.59939509e-02 1.81336794e-02 1.90026648e-02 1.12305162e-02
      8.98580998e-03 -2.66470783e-03 -4.69373586e-03 -2.08352949e-03
      -4.70095500e-03 2.51317490e-03 -4.65984689e-03 3.95361893e-03
      1.49453189e-02 4.73487610e-03 -4.68694000e-03 -7.05268979e-03
      -7.94544816e-03 -2.91621382e-03 -3.51393688e-03 -8.26847553e-03
      -6.65642088e-03 -2.95003440e-04 3.95542535e-04 -1.07573401e-02
      4.18418844e-04 8.71197227e-03 4.54205135e-03 2.54484330e-04
      1.25062549e-02 -3.05091753e-03 -1.75660085e-02 -1.34076281e-02
      -8.92536435e-03 -6.25452772e-03 -1.51424028e-04 4.42027440e-03
      1.10664284e-02 1.08076781e-02 5.26592787e-03 2.79432605e-03
      5.75591996e-03 5.35407756e-03 5.51603036e-03 -2.19462370e-03
      -3.81963298e-04 7.16900779e-03 -5.45527670e-04 6.93331333e-03
      1.07557122e-02 -2.92108580e-03 -1.48811508e-02 -7.01718684e-03
      -7.13335117e-03 -2.71667913e-03 -7.00509688e-03 -3.31717660e-03
      1.86276883e-02 2.61767325e-03 2.12310860e-03 -3.67930019e-03
      2.09790701e-03 5.78117324e-03 8.84594023e-03 9.52412561e-03
      3.29883210e-03 -3.28543875e-03 -7.04614155e-04 5.94731944e-04
      5.20839542e-03 -1.70983337e-02 -1.21490350e-02 -6.94030197e-03
      -1.58394920e-03 -3.14325467e-03 1.98529800e-03 1.96101074e-03
      -1.22477344e-04 -5.44535753e-04 7.52309395e-04 4.90099238e-03
      2.31357687e-03 5.12987329e-03 -1.44061316e-02 -7.27238692e-03
      -8.10803007e-03 -9.14017856e-03 -8.05522781e-03 -1.00196982e-02
      6.19942264e-04 3.69689520e-03 -9.10567644e-04 -2.97664455e-03
      -3.77080496e-03 -2.53112265e-03 -9.89343598e-03 3.70301981e-03
      6.97844103e-03 -3.94206401e-03 2.34120642e-03 -6.16385951e-04
      -3.84946866e-03 -3.19188135e-03 -8.63084197e-03 -8.20150413e-03
      -1.64345116e-03 -6.50205649e-03 -2.38512713e-03 -1.40186697e-02
      3.59326696e-05 3.87037359e-03 1.23077177e-03 4.07490879e-03
      4.63863323e-03 7.10089365e-03 -1.78788044e-02 -4.46850993e-03
      -3.43168713e-03 4.19097580e-03 3.04591516e-03 -6.13111770e-05
      6.83723856e-03 5.78816980e-03 4.33469284e-03 1.59257883e-03
      -3.26297083e-03 -3.85928294e-03 -6.42194273e-03 -8.99493974e-03
      5.80160972e-03 4.59725223e-03 -3.21572553e-03 -6.33688644e-03
      -7.95242749e-03 -1.63311500e-03 4.14378755e-03 3.81000619e-03
      -4.93653526e-04 3.16379266e-03 -1.40262779e-03 1.33596417e-02
      2.14644764e-02 4.06110426e-03 -9.77628166e-04 -1.14430184e-03
      -2.65282695e-03 4.48937342e-03 3.39757605e-03 -2.69623403e-03
      5.79804822e-04 -2.73148669e-03 1.01974921e-03 -7.74554865e-05
      -3.10483365e-03 1.92003399e-02 1.23403724e-02 -1.80668826e-03
      1.90229272e-03 1.36645685e-04 -2.43256846e-03 1.95681176e-04
      -1.32264076e-02 -3.52181681e-03 -3.10865999e-03 -6.40231557e-03
      -1.81921106e-03 1.34835634e-02 1.43251317e-02 -2.01343019e-02
      -1.35567384e-02 -1.14978254e-02 -3.62148811e-03 -5.34891896e-03
      -6.89926930e-03 -1.99421830e-02 -2.39366549e-03 1.43523284e-04
      -4.26658336e-03 -7.78088626e-03 -5.90846036e-03 1.53058385e-02
      1.21276276e-02 6.54220022e-03 4.87758871e-03 8.39547627e-03
      1.73179863e-03 1.31585142e-02 -1.74267683e-02 9.15540289e-03
      5.52107766e-03 6.47478271e-03 5.31528005e-03 6.91446569e-03
      1.59390066e-02 6.87214267e-03 2.86509888e-03 2.96732690e-03
      1.66558684e-03 1.06782466e-02 -4.34690481e-03 1.53438356e-02
      3.89929372e-03 6.34446787e-03 6.94739120e-03 9.73848626e-03
      1.76849123e-02 2.67415550e-02 8.97661038e-03 6.80697616e-04
      -1.73505268e-03 -8.21263064e-03 -1.14407120e-02 -1.57739203e-02
      2.51558609e-03 -3.36182467e-03 1.94830133e-03 2.29255296e-03
      1.81331462e-03 -4.56527341e-05 -8.10598675e-03 -5.39686764e-03
      -2.74319341e-03 -2.36618333e-03 1.93594850e-03 1.79686619e-03
      3.34227458e-03 -2.95390491e-03 1.02040695e-03 -1.66262477e-03
      -1.06220914e-03 -1.09929894e-03 -6.84663374e-03 -3.61419073e-03
      4.65508521e-04 -4.45752032e-03 5.61797715e-05 4.93696239e-03
      1.67309605e-02 2.52988767e-02 -6.62015798e-03 7.77909439e-03
      -4.28324658e-03 -1.33130245e-03 9.93008632e-03 6.46256329e-03
      -2.68821954e-03 -7.36711966e-03 -3.81613453e-03 -4.03950410e-03
      -6.28795894e-03 -7.18373514e-04 -2.54250225e-03 -8.63875169e-03
      -4.76231473e-03 -4.71975142e-03 -5.29682788e-04 -6.04165113e-03
      -4.24831128e-03 7.20261689e-03 1.74396373e-02 -9.59284045e-03
      -5.89567143e-03 -9.04398784e-03 -1.13051245e-02 -5.45622967e-03
      -2.48257141e-03 -5.45268133e-03 -1.44543946e-02 -5.45333698e-03
      -1.19199315e-02 -4.73508192e-03 1.07117661e-03 5.71830524e-03
      -5.74635982e-04 -6.59196777e-03 8.34289531e-05 -1.63426332e-03
      3.67772439e-03 1.92792192e-02 2.24194638e-02 5.43469517e-03
      -8.23552313e-04 2.76422547e-03 -1.63016189e-02 -1.82135787e-03
      3.65012116e-03 6.43712748e-03 9.46271420e-03 6.95653213e-03
      7.43747968e-03 7.37298746e-03 -2.63376869e-02 -1.31202238e-02
      -5.39390510e-03 -8.20636004e-03 -6.43037260e-03 -1.14622694e-02
      -2.22818702e-02 -2.11746562e-02 -1.22460444e-02 -4.56524733e-03
      -1.04216393e-03 -4.12378053e-04 1.93195848e-03 1.29936356e-02
      1.35152647e-02 1.76193845e-02 2.42632162e-02 4.23730537e-02
      1.62398145e-02 -3.40888165e-02 -3.05200797e-02 -1.81012340e-02
      -1.18025923e-02 -9.31473728e-03 -1.18464222e-02 -8.65062047e-03
      3.25593632e-03 -5.81852975e-04 -1.05400127e-03 -2.22654198e-03
      -5.15447324e-03 -1.77739486e-02 -1.21689644e-02 -2.70607993e-02
      -1.98957026e-02 -1.20899854e-02 -1.04624256e-02 -1.17509775e-02
      -1.03200916e-02 -2.66576800e-02 -8.05890094e-03 -3.30371107e-03
      -2.63563846e-03 -5.46653243e-03 -8.45201965e-03 2.05929503e-02
      2.73078177e-02 2.36040317e-02 1.67466737e-02 9.55651980e-03
      7.24698359e-04 -2.52673728e-03 -2.83293035e-02 -1.37383621e-02
      -7.96058215e-03 -1.42650921e-02 -1.02975778e-02 -7.24604726e-03
      -1.46875894e-02 -7.78620364e-04 2.66940217e-03 9.46723856e-04
      -4.42673126e-03 -2.64061918e-03 -4.38261870e-03 1.73221007e-02
      5.58998156e-03 4.73567657e-03 2.57491227e-03 4.74632205e-03
      2.03324035e-02 2.13983115e-02 6.30199164e-03 7.22257793e-03
      1.46524821e-04 -6.79439923e-04 -2.11584568e-03 -5.35827642e-03
      -1.90135033e-03 1.93403638e-03 -6.69368589e-03 -1.22868968e-02
      -1.13020549e-02 -2.08095517e-02 -5.69607271e-03 7.81664718e-03
      -6.93143986e-04 8.18696164e-04 -9.67709627e-03 -6.30742125e-03
      -9.81564075e-03 -1.88384298e-02 -6.69803005e-03 -5.71348798e-03
      -6.98151346e-03 -5.80781000e-03 -5.53893391e-03 -2.16659103e-02
      2.16691429e-03 1.12003936e-02 8.71508848e-03 6.73758984e-03
      -8.89105664e-04 -1.84988172e-03 -2.56613735e-03 -2.19381694e-03
      4.95588453e-03 1.65606558e-03 6.80204656e-04 6.35128841e-03
      1.43830040e-02 -5.94891515e-03 -7.97393266e-03 -5.81081491e-03
      -5.43816853e-03 -6.71388069e-03 -7.75278034e-03 -9.13100317e-03
      -7.75180571e-03 -5.00803767e-03 -8.59793741e-03 -8.79070908e-03
      -2.43310744e-04 2.03784578e-03 -9.18836612e-03 -3.15455976e-03
      2.50895992e-02 1.03343837e-02 3.61887552e-03 1.49377184e-02
      -9.01019841e-04 -5.54138143e-03 -8.66039563e-03 4.31589456e-03
      3.21240467e-03 9.26712714e-03 1.70827247e-02 3.55607946e-03
      -1.25219231e-03 2.85572978e-03 3.91621236e-03 2.77438387e-03
      2.87694205e-03 -6.00029062e-03 -4.96453233e-03 -5.35430573e-03
      -1.30922152e-02 -9.82146803e-03 -9.76372045e-03 1.05640069e-02
      1.04605630e-02 -2.33250903e-03 3.28070391e-03 -2.88908486e-03
      -7.02675246e-03 -3.83604760e-03 -5.27133886e-03 9.26594657e-05
