<?xml version="1.0"?>
<opencv_storage>
<my_svm type_id="opencv-ml-svm">
  <svm_type>C_SVC</svm_type>
  <kernel><type>LINEAR</type></kernel>
  <C>1.</C>
  <term_criteria><epsilon>1.1920928955078125e-07</epsilon>
    <iterations>1000</iterations></term_criteria>
  <var_all>8866</var_all>
  <var_count>8866</var_count>
  <class_count>7</class_count>
  <class_labels type_id="opencv-matrix">
    <rows>1</rows>
    <cols>7</cols>
    <dt>i</dt>
    <data>
      0 1 3 4 5 6 7</data></class_labels>
  <sv_total>21</sv_total>
  <support_vectors>
    <_>
      -1.67730745e-04 6.24654640e-04 -1.07468397e-04 -5.25814190e-04
      -2.52113049e-03 -3.36920563e-03 -3.89827276e-03 -2.59938301e-03
      -1.69226597e-03 -8.24525312e-04 -4.21311066e-04 -1.96850102e-04
      3.01603600e-03 -2.24020379e-03 -1.87682701e-04 -4.84594464e-04
      -5.46378957e-04 -1.24640286e-03 -2.27775751e-03 -6.76279480e-04
      -1.64021086e-03 -7.89627666e-04 -4.41924494e-04 -4.27929481e-04
      5.71692071e-04 4.32014698e-03 9.60462436e-04 8.45981631e-05
      -5.89466421e-04 -9.57045588e-04 -2.35722447e-03 -5.66598261e-04
      4.17863019e-03 2.64265807e-03 1.70552626e-03 1.53617095e-03
      6.63832412e-04 7.56627182e-04 1.82463415e-03 7.64924474e-03
      2.36929953e-03 1.81421963e-03 1.54783099e-03 1.04106928e-03
      1.52791780e-03 3.56548931e-03 2.84318952e-03 1.05910213e-03
      7.64946046e-04 -1.79771421e-04 -8.40616049e-05 1.24590739e-03
      4.36140178e-03 1.89000089e-03 2.23882101e-03 2.07773247e-03
      1.96394161e-03 1.09052879e-03 -1.22717198e-03 -5.53510664e-03
      -3.80488276e-03 -2.73001054e-03 -1.96475699e-03 -9.28691807e-05
      1.68299768e-03 -7.01256562e-03 -3.20795178e-03 -2.18637357e-03
      -1.23484666e-03 -1.26716244e-04 1.07589597e-03 3.86863295e-03
      6.21166022e-04 -4.72433341e-04 4.15424322e-04 5.84772322e-04
      3.04314704e-03 4.54386044e-03 -3.07267415e-04 1.33153546e-04
      1.80250718e-04 5.68320938e-05 -1.07938983e-03 -2.91112484e-03
      -3.27178347e-03 -6.67677377e-05 6.30727436e-06 1.76257116e-03
      3.28688277e-03 5.08998055e-03 7.57487211e-03 6.92520384e-03
      9.02939937e-04 -7.78367743e-04 -9.53947718e-04 -1.45459187e-03
      -4.29620780e-03 1.03236490e-03 6.03540917e-04 1.50465558e-03
      1.16267370e-03 1.20773760e-03 9.63544240e-04 4.51379362e-03
      8.12841393e-03 4.09103464e-03 1.73378468e-03 1.50255125e-03
      -1.59901730e-03 -3.01640644e-03 -5.72839007e-03 -3.33850621e-03
      -1.51129533e-03 -9.76629322e-04 -1.34424889e-03 -2.54991697e-03
      4.24855808e-03 -2.99170590e-03 5.91978489e-04 3.45708919e-04
      2.22429837e-04 -1.12527935e-03 -6.08107890e-04 -3.31477961e-03
      -4.77649132e-03 -2.48564105e-03 -1.77265075e-03 -1.52958510e-03
      -4.50027903e-04 3.10225645e-03 -7.80060887e-03 -2.95473007e-03
      -5.34170633e-03 -9.26099159e-03 -1.01924324e-02 -3.54789291e-03
      -9.07057023e-04 -9.48350469e-04 -4.44992416e-04 4.16027215e-05
      -9.72613998e-05 -2.18676939e-03 -1.81310775e-03 6.34484226e-03
      3.30819678e-03 7.82806077e-04 -7.53423839e-04 -1.90939370e-03
      -2.27064686e-03 8.37791129e-04 1.16210990e-03 2.00865601e-04
      1.09506666e-03 1.54679245e-03 2.12731515e-03 2.73064640e-03
      -3.91138112e-03 -3.67441517e-03 -1.84282823e-03 -2.18792306e-03
      -5.47657115e-03 -1.94654171e-03 5.88417193e-03 4.91943164e-03
      3.37874540e-03 1.24252960e-03 3.62065213e-04 1.40237203e-03
      5.43558854e-04 3.74471629e-03 9.82479891e-04 9.73708753e-04
      6.86740968e-04 -6.03071348e-05 -2.07443233e-03 -4.35635308e-03
      -2.15967093e-03 -1.67702383e-03 -6.78617042e-04 -1.59510644e-03
      -1.72724179e-03 -3.48458323e-03 5.85613027e-03 2.81891297e-03
      3.79020721e-03 5.22179436e-03 6.49440801e-03 5.75898681e-03
      -2.02643499e-03 -7.01658800e-03 1.75663954e-04 7.42290961e-03
      5.99704636e-03 3.64566897e-03 -6.00405212e-04 -6.97790645e-03
      -3.59731424e-03 -2.64288066e-03 -1.90132891e-03 -7.63313146e-04
      -1.71020615e-03 -1.51777721e-03 1.54287365e-04 -2.75058293e-04
      9.32897790e-04 6.92134141e-04 1.28412445e-03 1.24409900e-03
      -1.05612085e-03 -2.26818211e-03 6.91082023e-05 -1.49040530e-03
      -1.10811612e-03 -2.85045663e-03 -3.58713279e-03 -6.69678673e-03
      -7.93572050e-03 -1.33511033e-02 -1.16500678e-02 -8.85090046e-03
      -1.87454617e-03 -1.61158908e-02 -5.44891926e-03 -4.31816699e-03
      -3.66281206e-03 -3.21973674e-03 -2.23290455e-03 2.01953552e-03
      -4.74592042e-07 -1.83509255e-03 1.23133459e-05 2.36481079e-03
      1.85040990e-03 1.23603141e-03 5.55563493e-05 -4.05528815e-03
      -4.96301427e-03 -1.25132559e-03 5.82847919e-04 5.40487701e-04
      4.33508540e-03 2.21349322e-03 1.43486320e-03 2.08372041e-03
      1.63677265e-03 2.77303578e-03 4.44925204e-03 1.08227627e-02
      2.10812921e-03 1.24009594e-03 1.67780858e-03 9.37878038e-04
      3.01327324e-03 4.60906373e-03 2.19271937e-03 7.82476622e-04
      7.44513003e-04 7.76043998e-06 3.49831767e-04 4.95959539e-03
      3.33979796e-03 6.87885890e-03 8.01220816e-03 5.61395986e-03
      2.93221604e-03 4.51280642e-03 1.77245587e-03 -1.84210076e-03
      -9.80209094e-04 4.09300439e-04 -4.02933860e-04 2.82296154e-04
      1.35181984e-03 -5.90285868e-04 -5.03968738e-04 1.11090811e-03
      1.12692895e-03 1.43094035e-03 1.87786645e-03 7.32774520e-03
      7.33660860e-03 2.15617404e-03 -3.39582039e-05 -2.67402572e-03
      -1.67052390e-03 -4.17610677e-03 -4.94374987e-03 -2.73053139e-03
      -5.62575005e-04 -2.76753237e-03 -2.14856607e-03 -4.63142665e-03
      -3.78885379e-05 4.90542781e-03 8.07166472e-03 1.64125609e-04
      -1.81500695e-03 7.75831519e-03 2.45761796e-04 -3.59279779e-03
      -2.21139425e-03 -3.31511907e-03 -1.14416215e-03 2.81975558e-03
      1.08205527e-02 1.78418886e-02 4.35591210e-03 -2.46982352e-04
      8.03313596e-05 -1.13964302e-03 -5.16001717e-04 3.61031940e-04
      3.73975676e-03 3.75526329e-03 2.05743662e-03 2.15324154e-03
      1.41749170e-03 1.16417534e-03 1.53228495e-04 -1.78568449e-03
      -3.44857993e-03 -5.38268406e-03 -4.96928394e-03 -3.71433911e-03
      -1.52596680e-03 -1.27242561e-02 -4.59061610e-03 -2.21430161e-03
      -1.27814524e-03 -5.13033301e-04 -4.02368518e-04 2.92995755e-05
      -1.75470463e-03 -1.60333363e-03 -2.31548375e-03 -4.52505844e-03
      -1.40078994e-03 3.02216737e-04 -1.69091427e-03 -3.43010458e-03
      -2.27826228e-03 -1.31776452e-03 1.99860180e-04 1.80679292e-03
      1.81819475e-03 2.56675849e-05 7.09437940e-04 9.40268219e-04
      1.77316077e-03 4.49259486e-03 8.60257912e-03 1.51607431e-02
      4.76815132e-03 1.63527357e-03 1.70167745e-03 1.73126033e-03
      3.57215496e-04 3.09287827e-03 2.45107035e-03 2.00100103e-03
      1.02939375e-03 5.80475724e-04 7.90349790e-04 3.98615329e-03
      -8.85747466e-03 -3.09136789e-03 -1.52228575e-03 -1.02995406e-03
      -1.40007667e-03 2.31705979e-03 6.51824055e-03 2.00252584e-03
      -2.75124609e-03 5.12264669e-04 1.10254949e-03 -1.59925246e-03
      -5.59071545e-03 -1.25598600e-02 -5.64841041e-03 -5.09006064e-03
      -5.75619191e-03 -4.28068638e-03 -9.77051351e-03 4.19061445e-03
      -2.49050558e-03 3.94232152e-03 3.54551175e-03 3.91262863e-03
      4.04242892e-03 -3.37516819e-03 -1.39890413e-03 1.39935338e-03
      -4.22256795e-04 -1.10974151e-03 -2.66210362e-03 2.53222999e-03
      9.44279321e-03 1.77875243e-03 8.58974727e-06 1.19855569e-03
      -1.33460911e-03 -1.91098708e-03 -3.20562720e-03 1.03764178e-04
      1.46770675e-03 9.78111173e-04 1.45527232e-03 -2.13078805e-03
      -5.57628134e-03 -8.20955820e-03 -8.79861042e-03 -2.82356096e-03
      -1.52930350e-03 -3.05495015e-03 -2.76500592e-03 -4.49577253e-03
      7.51369260e-03 -1.22611097e-03 -2.39092833e-03 -5.51268284e-04
      -3.99799872e-04 -4.83884825e-04 1.66588475e-03 7.09004642e-04
      -5.12910337e-05 2.81139888e-04 -6.43078005e-03 -8.41155741e-03
      -5.91424759e-04 -1.06419278e-02 -7.63815537e-04 3.42127634e-04
      1.09972991e-03 5.46741067e-04 1.21999404e-03 1.57329789e-03
      2.49921461e-03 2.50053010e-03 1.24060502e-03 1.29394315e-03
      4.16456396e-03 5.92957484e-03 -1.30530354e-03 2.06362471e-04
      -5.60989603e-04 -2.34461313e-05 6.81002741e-04 1.53527607e-03
      8.64032074e-04 1.92970401e-04 3.46466113e-04 7.72619271e-04
      1.51719654e-03 4.60213656e-03 1.04971733e-02 1.10926693e-02
      1.50864094e-03 -1.55425118e-03 -1.39119977e-03 -1.27555372e-03
      -1.26941595e-03 -1.21047115e-03 -1.18081714e-03 -5.80241438e-04
      1.31738445e-04 -2.79931446e-05 4.16491821e-05 6.40171673e-03
      4.48494218e-03 3.08705471e-03 1.75862515e-03 -5.93832927e-04
      -8.31065420e-03 -2.23569367e-02 -2.65377034e-02 -6.79129548e-03
      -7.81836570e-04 2.69254390e-03 5.89287840e-03 7.91609846e-03
      9.20871086e-03 6.62011513e-03 2.27511642e-04 9.35861608e-04
      -4.52663226e-05 -3.45812528e-03 -8.96187127e-03 -7.98773428e-04
      2.13439250e-03 1.63413316e-03 8.89578194e-04 1.39979180e-03
      4.49161918e-04 4.86081000e-03 2.59397216e-02 1.37764933e-02
      7.69192399e-03 5.42830816e-03 -3.69284465e-03 -1.14879189e-02
      -2.73826253e-02 -1.37448162e-02 -5.03213517e-03 -3.08391615e-03
      8.13059602e-03 6.19710144e-03 7.75541179e-03 1.03755957e-02
      3.23882699e-03 2.01539625e-03 1.55588565e-03 1.26082872e-04
      4.29792330e-03 1.84618682e-03 -9.17727768e-04 -9.04271437e-04
      -2.71558226e-03 -5.39067667e-04 6.71469024e-04 7.28884479e-03
      7.27905519e-03 2.57340376e-03 1.35884015e-03 1.40328764e-03
      -4.43994155e-04 -1.15356012e-03 -1.50750077e-03 7.40727119e-05
      -9.72325288e-05 -7.25595921e-04 -2.03037867e-03 -1.37455529e-03
      1.09244278e-02 -3.89784604e-04 3.26832669e-04 -2.86467402e-04
      -7.09536427e-04 -1.02036644e-03 2.58327433e-04 -1.18197675e-03
      -4.35400102e-03 -2.92075542e-03 -8.32349004e-04 -1.07651611e-03
      7.72965606e-04 3.73284006e-03 1.35822792e-03 3.51589895e-03
      2.90521747e-03 -1.18978531e-03 -2.83556990e-04 -1.78023474e-03
      -4.33668087e-04 -6.33509969e-03 -2.88978871e-03 -3.11106816e-03
      -6.42364495e-04 -3.97489453e-03 -2.53063720e-03 -1.91140501e-03
      4.67920303e-03 -2.48100166e-03 -5.08038467e-03 -1.73648132e-03
      -2.99577392e-03 1.71484728e-03 2.23329430e-03 -3.56494187e-04
      -1.06161518e-03 1.74687488e-03 3.23660485e-03 3.54055013e-03
      -1.07063353e-02 -2.65763048e-03 -8.18338338e-03 -1.24517120e-02
      -1.20227272e-02 -5.53773077e-07 2.07934878e-03 3.50748794e-03
      1.25145214e-03 1.48734858e-03 -7.43034703e-04 -1.24043110e-03
      -3.19744635e-04 1.03403004e-02 5.84194716e-03 3.42656928e-03
      2.70077726e-03 2.94483732e-03 -2.25093114e-04 1.93545828e-03
      6.06046710e-03 3.40425479e-03 1.72613698e-04 2.13625119e-03
      1.22020266e-03 -1.92220250e-04 -9.35930200e-03 -8.86275340e-03
      -4.81485901e-03 -3.33458115e-03 -7.53100077e-03 -2.85748485e-03
      9.51104239e-03 5.35103912e-03 2.72297394e-03 3.01503739e-03
      1.90406141e-03 2.17170944e-03 2.32369197e-03 5.01563540e-03
      5.28816367e-04 1.30762660e-03 1.69189158e-03 5.90303935e-05
      1.97578827e-03 4.29262174e-03 3.32395127e-03 2.52206251e-03
      3.68932378e-03 1.73238781e-03 1.82911695e-03 -9.36381985e-04
      3.25823715e-03 6.08948059e-04 2.75331014e-03 -9.74746770e-04
      -5.62846242e-03 -4.38921060e-03 -7.13759847e-03 2.65334646e-04
      1.25341106e-03 -1.36296940e-03 -2.09320453e-03 -6.63524668e-04
      -3.52336746e-03 -5.15778176e-03 -1.96360121e-03 -3.36907455e-04
      1.51623180e-03 1.32912211e-03 -3.71580082e-03 -3.72016151e-03
      -3.41408886e-03 -3.59256577e-04 -7.81777257e-04 -2.21167877e-03
      -7.64327415e-04 -4.54466464e-03 1.09801185e-03 2.41815415e-03
      6.02767756e-03 7.65612721e-03 1.09011978e-02 5.99051593e-03
      4.40961123e-03 4.78579756e-03 7.08937505e-03 7.59153115e-03
      -1.24497979e-03 5.12842136e-03 -1.00864936e-02 2.06543948e-03
      -2.61526066e-03 -2.93174619e-03 -1.83830608e-03 -6.78465934e-04
      -5.46322810e-03 -2.57634372e-03 -2.43959716e-03 -3.57050635e-03
      2.07725493e-03 1.43962016e-03 7.83627736e-04 -3.84817272e-03
      -6.12125616e-04 2.29396811e-03 9.18714795e-04 2.21737404e-03
      -6.75308460e-04 -1.75936078e-03 1.33281457e-04 -1.11063980e-02
      -9.56788473e-03 2.47837161e-03 1.31040244e-04 -4.72729933e-03
      -6.29415689e-03 -9.21766274e-03 2.32561550e-04 1.23765331e-03
      2.09281314e-03 3.38755106e-03 6.22731354e-03 1.02042379e-02
      5.02675632e-03 4.56144288e-03 3.12915863e-03 2.00105691e-03
      2.75252992e-03 -2.32145935e-03 2.21993998e-02 5.67514915e-03
      4.43728454e-03 -2.50038684e-05 -1.64527760e-03 -4.46998747e-03
      -1.11938769e-03 -9.87173757e-04 -8.64554662e-04 -4.74418933e-03
      -8.38539563e-03 -2.37633474e-03 -1.91891659e-03 -1.58275869e-02
      -2.76150252e-03 -4.99354629e-03 -4.24235454e-03 -5.26181189e-04
      -1.79204205e-03 2.73824926e-03 5.79784811e-03 4.47815796e-03
      9.66313574e-03 1.30785387e-02 1.26604391e-02 1.49677983e-02
      -2.71876506e-03 4.98690119e-04 -4.21588018e-04 5.97342965e-04
      1.80736766e-03 6.02403283e-03 1.13455746e-02 6.33203599e-04
      4.25163365e-04 -3.22601467e-04 -1.59454241e-03 -2.44151731e-03
      -8.80869862e-04 -4.87227598e-03 1.47454720e-03 2.10168437e-04
      3.22792795e-04 2.13255663e-03 2.96220230e-03 1.38386954e-02
      2.09791050e-03 -8.92065349e-04 -2.35256553e-03 -4.79804352e-03
      -4.39022144e-04 1.31618383e-03 1.57957003e-02 5.66090085e-03
      4.51353332e-03 1.55994971e-03 1.18970498e-03 1.54023257e-03
      -3.86059564e-03 6.04771078e-04 1.80930027e-03 1.42969913e-03
      1.41995761e-03 -1.98354665e-03 -3.96651449e-03 -4.09444468e-03
      -2.21770912e-04 3.46742757e-03 3.74302664e-03 1.42121757e-03
      3.00737564e-03 -2.57738028e-03 6.00724888e-04 8.26028001e-04
      1.37129228e-03 2.13260390e-03 2.99988943e-03 9.39084310e-03
      -3.64859286e-03 2.54741847e-03 -2.47144350e-03 -4.14622575e-03
      -8.77068006e-03 -2.39813561e-03 -2.46331352e-03 2.44871189e-04
      -6.86678221e-04 9.68685199e-04 1.13007613e-03 1.80168427e-03
      2.60308827e-03 4.54848446e-03 3.39235808e-03 1.79778133e-03
      2.81027518e-03 -1.35302520e-03 8.33205831e-06 9.97113064e-04
      1.02360232e-03 1.21826795e-03 3.61186173e-03 3.10007343e-03
      5.66247385e-03 7.03521678e-03 5.96595183e-03 3.44821601e-04
      2.06463574e-03 -1.58001634e-03 -3.86335840e-03 2.42803711e-03
      3.18810297e-03 2.24379101e-03 1.60127541e-03 -2.72698060e-04
      -4.85037890e-04 1.36808550e-03 1.94133108e-03 6.81155082e-03
      2.83007557e-03 2.70280894e-03 2.57679797e-03 1.57402572e-03
      1.00123603e-03 -5.18665463e-03 -3.48991086e-03 -4.22025984e-03
      -1.90802850e-03 -3.35595408e-03 -3.00657074e-03 -1.25481165e-03
      6.16233749e-03 -1.04095379e-03 -5.01993811e-03 3.47159104e-03
      -4.33829986e-03 4.85445699e-03 1.24646081e-02 6.26775716e-03
      4.30120761e-03 4.43857582e-03 1.35119772e-03 2.40701134e-03
      -2.98253889e-03 1.40309299e-03 -2.34847423e-03 -2.26041675e-03
      -3.48860078e-04 -5.82852960e-03 -9.92551073e-03 -9.98974033e-03
      -4.62896936e-03 -8.98525305e-03 -6.04270305e-03 -2.72067566e-03
      -2.57962360e-03 -7.84632470e-03 3.91702168e-03 -2.87453108e-03
      1.72122661e-03 1.71518604e-05 5.24440454e-03 -8.92835390e-03
      -1.35811558e-03 -1.53138405e-02 -4.78978734e-04 -6.47499552e-03
      -9.90804867e-04 3.22181894e-03 6.21337909e-03 5.26671577e-03
      -1.04556174e-03 -4.88875376e-04 2.04291637e-03 5.22635225e-03
      4.03048284e-03 -8.73752683e-03 -2.26130825e-03 7.30926986e-04
      -6.45048218e-04 -8.59519059e-04 -1.59212959e-03 6.93341251e-04
      -2.85380171e-04 1.59063668e-03 -1.66910887e-03 -9.41922888e-04
      -1.09988125e-03 3.32257187e-05 2.98152212e-03 -3.73464380e-03
      2.57449388e-03 5.85549558e-03 1.20604411e-02 3.40026850e-03
      -1.46026653e-03 9.98618430e-04 2.27522408e-03 -1.56237711e-05
      1.38210168e-03 1.18418527e-03 9.18352278e-04 4.04846761e-03
      4.41796985e-03 1.14444958e-03 2.03833496e-03 2.76120380e-04
      1.57687464e-03 -3.13605764e-03 7.58699188e-03 1.28816848e-03
      1.66420802e-03 1.96486362e-03 1.73636631e-03 8.99882638e-04
      2.27934192e-03 1.16468407e-03 -6.46846881e-03 -1.60549078e-02
      -1.02220448e-02 -4.99586994e-03 4.31561330e-03 -2.05540657e-03
      -4.12354805e-03 -1.76076277e-03 -1.99005078e-03 -2.18700711e-03
      -7.34296453e-04 3.29872407e-03 -3.15023965e-04 -4.06191306e-04
      -1.35873316e-03 2.00829934e-03 6.17545797e-03 6.97097508e-03
      -6.13291399e-04 -3.67117277e-03 -1.55261718e-03 -3.65784531e-03
      -2.30552303e-03 -7.52326706e-03 -9.35060438e-03 -1.54004255e-02
      -1.13683864e-02 -5.83189819e-03 -4.42610169e-03 -4.45305603e-03
      2.69066356e-03 -6.95611211e-03 -5.94393117e-03 -3.95120448e-03
      -2.74999184e-03 -4.18453477e-03 -7.59887800e-04 1.70156604e-03
      1.01154053e-03 -8.45433038e-04 1.57064362e-03 9.22170759e-04
      7.42786724e-05 1.44687213e-03 -6.72448706e-03 -2.00574985e-03
      9.09518974e-04 -1.91972486e-03 -8.67928728e-04 1.48838013e-03
      5.01625706e-03 4.96964809e-03 1.81204418e-03 2.66840798e-03
      1.89816079e-03 -1.89553446e-03 -4.49878443e-03 3.10536404e-03
      -3.02377250e-03 -2.13008584e-03 -3.69114429e-03 -2.81627802e-03
      5.35321233e-05 -8.62543937e-04 2.79573142e-03 4.07337735e-04
      2.21342183e-04 1.39811076e-03 3.02690268e-03 7.10459054e-03
      9.79963690e-04 -5.01288334e-03 -6.58000959e-03 -1.24436838e-03
      -1.19738560e-03 -2.78115645e-03 -4.80826857e-04 -1.66217505e-04
      5.95384394e-04 1.57873507e-03 8.68267787e-04 -1.29518303e-04
      -1.57922704e-03 -7.14447699e-04 1.29665260e-03 1.44107069e-03
      5.95099467e-04 1.41891278e-03 3.53699317e-03 4.03698022e-03
      9.71844478e-04 2.17125955e-04 1.44831976e-03 9.44372092e-04
      1.51245401e-03 5.36622992e-03 4.63073328e-03 2.75153946e-03
      6.94180792e-03 1.77462783e-03 -3.35531542e-03 -1.74264202e-03
      -3.90755991e-03 -2.67377775e-03 -4.21777455e-04 1.39733520e-03
      1.88644786e-04 7.77828565e-04 1.24898215e-03 6.71840832e-03
      1.13853032e-03 1.85580074e-03 2.98407185e-03 2.41325959e-03
      2.23990809e-03 4.67478251e-03 1.99586409e-03 -5.93795849e-05
      -5.59077307e-04 -2.01840722e-03 -3.72428622e-04 -2.36848532e-03
      6.29923260e-03 3.17305024e-03 3.93408304e-03 3.80031508e-03
      8.69736727e-03 3.41002154e-03 -1.03820898e-02 -7.50531582e-03
      -3.89380381e-03 -2.85161776e-03 -2.46722042e-03 -7.34263565e-04
      -1.06773479e-03 -1.14356484e-02 -3.05791153e-03 -8.36684543e-04
      -3.89542151e-03 -2.60642869e-03 -3.89015977e-03 8.15366581e-03
      1.41321952e-02 4.49287007e-03 1.54326216e-03 3.57388984e-04
      2.95181363e-03 2.22119316e-03 -1.71332117e-02 -4.10538586e-03
      2.74953723e-04 -1.25170290e-03 -3.41809914e-03 -8.28341115e-03
      7.38647708e-04 4.67654131e-03 2.13357969e-03 -1.75569335e-03
      2.73008225e-03 5.96208440e-04 1.19347620e-04 7.07553513e-03
      5.82010858e-03 5.23099268e-04 4.89117485e-03 5.10971388e-03
      4.02698293e-03 -2.60411249e-03 -1.10790497e-02 -7.05255708e-03
      -3.29476572e-03 -5.74561488e-03 -4.26274864e-03 -5.37111983e-03
      1.00489671e-03 4.26611048e-04 1.38876773e-03 -2.01873411e-03
      -1.01475220e-03 -3.32270958e-03 -5.77942701e-04 2.59292126e-03
      2.64637102e-03 -6.22372376e-03 -4.10796842e-03 1.19150418e-03
      -2.62112520e-03 -5.68574434e-03 -1.99260097e-03 5.65293361e-04
      2.57401640e-04 4.63208044e-03 5.57870790e-03 4.53165174e-03
      9.02440050e-04 8.20539135e-04 1.27986597e-03 1.30692904e-03
      1.62892439e-03 2.54170317e-03 6.91696210e-03 4.31578234e-03
      1.98260043e-03 2.76470021e-03 3.34897544e-03 3.92530812e-03
      4.39233705e-03 4.02081618e-03 -8.43677026e-06 -3.25840618e-03
      -2.44859955e-03 7.29305577e-03 4.02865140e-03 -7.75537966e-03
      -5.06001804e-03 -3.22595122e-03 -5.23678900e-04 1.13900960e-03
      4.27880883e-03 3.96302994e-03 1.48415705e-03 1.59706245e-03
      1.85147481e-04 -8.51143443e-04 5.74459205e-04 3.55807762e-03
      6.34864857e-03 6.66433852e-03 4.36692359e-03 2.85697216e-03
      1.17965124e-03 1.81980932e-03 -1.14980387e-03 -2.38887896e-03
      -2.74420017e-03 -3.76980682e-03 -2.91996822e-03 -4.74294368e-03
      1.58772361e-03 3.24248988e-03 -1.77421025e-04 -3.26399517e-04
      -1.56703652e-04 6.20312276e-05 -3.50723881e-03 -2.53607053e-03
      -7.98662845e-03 -2.47277948e-03 -1.92403106e-03 -6.26443746e-03
      -4.34048148e-03 -5.83174825e-03 -1.76768862e-02 -8.88877083e-03
      -3.01632541e-03 -3.49258189e-03 -1.56756796e-05 1.70557969e-03
      3.00762779e-03 8.19572771e-04 1.95323071e-03 1.03015068e-03
      1.47945550e-03 6.16466766e-03 1.93103421e-02 1.66954268e-02
      7.94156746e-04 -7.43270619e-04 1.31619640e-03 8.36044928e-05
      2.18555913e-03 1.26549322e-03 3.02006933e-03 4.05959412e-03
      6.02077274e-03 3.97766335e-03 6.47232123e-03 9.65365767e-03
      5.96873276e-03 2.34156474e-03 -1.65328837e-03 1.27330469e-03
      1.90651452e-03 -7.23354402e-04 9.25115775e-04 1.89546344e-03
      1.11229694e-03 1.18165044e-03 1.04303414e-03 2.96560000e-03
      4.19187825e-03 5.35164401e-03 3.21480469e-03 1.81908137e-03
      1.43903552e-03 9.56449076e-04 1.27390935e-03 5.10747603e-04
      2.73710815e-04 1.53535570e-04 -8.20027664e-04 -1.18412275e-03
      -2.21594307e-03 -1.03260158e-03 3.22298915e-03 9.85457189e-03
      6.65853918e-03 1.08304797e-02 1.11706387e-02 1.36584109e-02
      1.04690781e-02 1.47119910e-03 3.57324665e-04 1.13808783e-03
      -6.38482918e-04 2.18342990e-04 5.10405400e-04 1.98106305e-03
      4.03421087e-04 4.21717996e-04 5.30603225e-04 1.15975119e-04
      3.27792688e-04 3.75285908e-03 8.46536085e-03 8.23474547e-04
      -2.33424548e-03 -6.69142744e-03 -7.85859115e-03 -1.15686478e-02
      -2.45052241e-02 4.35836706e-03 1.54791109e-03 1.08011032e-03
      -3.78052937e-05 -8.48191703e-05 -9.44930303e-04 -7.18940329e-03
      -6.58957707e-03 -5.05944435e-03 -1.72163534e-03 -4.63643437e-03
      1.58358179e-03 -1.66933388e-02 -6.53774291e-03 -1.10434438e-03
      -4.13572090e-03 -1.43739546e-03 -9.51914699e-04 7.28943059e-03
      -4.19193064e-04 -3.36554646e-03 -7.89288804e-03 -6.65891869e-03
      -8.77342932e-03 -1.03985732e-02 -1.84533317e-02 -5.33208903e-03
      1.04109279e-03 1.21792522e-03 -3.10189906e-03 -1.29903597e-03
      1.01900203e-02 -9.84663609e-04 5.00073773e-04 -8.78509018e-04
      -5.54187968e-03 -6.55022403e-03 -1.32714789e-02 -1.60400085e-02
      -9.47883539e-03 -1.22409724e-02 -4.68237605e-03 -2.09177844e-03
      1.39505826e-02 2.67824158e-02 5.68910595e-03 -2.90679117e-03
      -7.32332980e-03 -8.49653501e-03 -8.41111690e-03 -7.82485865e-03
      -8.83769430e-03 -1.40526018e-03 -1.71646138e-03 -4.28104494e-03
      -9.19630518e-04 -3.63501697e-03 -7.69773265e-03 6.02128403e-03
      1.00120772e-02 9.72129405e-03 1.15731545e-02 1.87425911e-02
      4.15211590e-03 1.03856600e-03 -1.50534499e-03 -5.97642688e-03
      -2.77147209e-03 -8.32009711e-04 8.28440953e-03 1.12971095e-02
      5.33653714e-04 -1.46070833e-03 7.25384511e-04 1.45897339e-03
      -9.75012372e-04 1.52401777e-03 -7.85493234e-04 6.27561822e-04
      -5.63438749e-04 8.41074216e-05 3.92231625e-04 6.12040283e-04
      9.92394518e-04 4.41245444e-04 9.28980764e-04 1.78897707e-03
      3.54036863e-04 -1.33852905e-03 1.80214155e-03 -1.09521588e-02
      -3.07353260e-03 -6.38274214e-05 8.74901598e-04 1.46021578e-03
      2.90648313e-03 1.55521545e-03 1.01128232e-03 -1.93035361e-04
      -7.38892530e-04 -9.47289227e-05 2.94812140e-03 9.68460925e-04
      -1.64515956e-03 -2.65300088e-03 4.81532683e-04 -2.89881078e-04
      -1.13754207e-03 -2.57746736e-03 -4.98668617e-03 -2.64520850e-03
      -9.48039000e-04 -4.41302732e-03 -3.59466323e-03 -2.83289631e-03
      -4.66996152e-03 -1.64461380e-03 1.25452096e-03 7.78726651e-04
      -2.37888726e-03 -1.27218722e-03 -3.43177002e-03 -4.28808201e-03
      -6.96422393e-03 -9.46029462e-03 -7.45632453e-03 -9.18034278e-03
      -5.36558777e-03 6.12893701e-03 -9.36153997e-03 -4.07897355e-03
      -3.33265890e-03 2.17152014e-03 4.83324705e-03 4.64106537e-03
      7.41911493e-03 8.40705168e-03 6.29071193e-03 4.75645624e-03
      2.36073229e-03 5.91492420e-03 6.73763314e-03 1.21566057e-02
      2.20448617e-03 -1.58904964e-04 2.55335792e-04 2.01415666e-03
      3.52380774e-03 9.94192902e-03 7.30644772e-03 3.06667527e-03
      3.01227253e-03 1.60854193e-03 2.17087567e-03 7.53688114e-03
      8.09898600e-03 3.02958791e-03 5.31320227e-04 2.55273795e-03
      3.36524681e-03 4.96501988e-03 -4.64472367e-04 -1.23474712e-03
      -8.25802621e-04 9.82282101e-04 8.26219795e-04 1.05811981e-03
      3.24506615e-03 8.72454606e-03 6.14252593e-03 5.11026569e-03
      6.08941773e-03 6.06287224e-03 1.44868763e-03 3.68881319e-03
      2.47674854e-03 2.35369359e-03 8.49890348e-04 -1.09952479e-03
      -1.17097259e-03 6.23692176e-05 -1.38229970e-02 -4.38721431e-03
      -4.65457421e-03 -3.58294230e-03 -2.88732490e-03 -1.92999060e-03
      -5.41794673e-03 1.24106463e-02 3.46151646e-03 1.54424424e-03
      9.48561938e-04 -1.14689535e-03 -2.24736612e-03 -1.12459646e-03
      8.48212148e-05 1.42140407e-03 4.50608175e-04 5.18338662e-03
      2.09622178e-02 1.22339325e-02 7.44830118e-03 5.36432955e-03
      -7.10288994e-04 -8.25108029e-04 -1.96417281e-03 -1.59603835e-03
      -1.67875532e-02 -4.41056583e-03 -4.68303711e-04 -4.81790950e-04
      -4.28003405e-04 -1.16630958e-03 -1.03346035e-02 -3.49768251e-03
      -4.48206533e-03 -5.27971564e-03 -4.72275680e-03 -7.77620403e-03
      -1.42814303e-02 -3.59186456e-02 -1.42004509e-02 -1.03530576e-02
      -9.68172960e-03 -1.25574032e-02 -8.08014255e-03 7.17121456e-03
      2.18402706e-02 2.54587736e-02 2.01471597e-02 6.84670731e-03
      2.66723265e-03 -1.24716545e-02 -2.38535870e-02 -6.24789018e-03
      -4.14022710e-03 -5.37052704e-03 -4.37702099e-03 -5.65696554e-03
      -2.37927516e-03 1.72523214e-05 -8.58143554e-04 -1.75241701e-04
      -3.46700614e-03 -3.35311494e-03 -8.77129566e-03 -2.37680096e-02
      -3.54088587e-03 1.86550722e-03 8.58543161e-03 1.99349299e-02
      9.51907970e-03 -5.23815909e-03 -1.23782558e-02 -1.03258137e-02
      -9.82580241e-03 -8.01006891e-03 -1.25341350e-02 -9.14105494e-03
      7.01331242e-04 1.09699590e-03 1.79174228e-03 8.45355098e-05
      -9.16253193e-04 2.53085466e-03 9.17157996e-03 -1.00575143e-03
      -3.28916265e-03 -2.60240166e-03 -3.09849251e-03 -3.38620879e-03
      -2.63524451e-03 -2.11889856e-02 -5.47240023e-03 -5.64240105e-03
      -8.88243597e-03 -1.81137640e-02 -2.04535015e-02 -1.71265770e-02
      1.19281300e-04 6.20964821e-03 4.06618230e-03 1.98120158e-03
      1.53424998e-03 6.87976135e-05 8.03457294e-03 1.66136504e-03
      2.47889804e-03 2.16226047e-03 2.40412890e-03 3.78695759e-03
      1.17674191e-02 7.58103235e-03 4.18958114e-03 6.80005644e-04
      -5.90071082e-03 -6.85437443e-03 -1.98466214e-03 -9.27328691e-03
      -4.59113158e-03 -2.80771591e-03 -1.73573048e-04 1.84549252e-03
      1.68196799e-03 -5.01359999e-03 -3.09084170e-03 6.36743987e-03
      7.39868870e-03 3.02904332e-03 7.58153060e-03 2.94682570e-03
      1.09819497e-03 -8.09889287e-04 -2.33202288e-03 -1.28797546e-03
      -5.03288815e-03 -9.20327613e-04 1.99014251e-03 -2.61628930e-03
      -1.79125334e-03 -1.59803778e-03 -1.41695875e-03 -4.29871446e-03
      3.04887258e-03 -9.78689641e-03 -1.85382308e-03 -7.38960051e-04
      1.18098548e-03 -8.05878313e-04 -1.19136320e-03 1.74290373e-03
      -2.59916857e-03 -1.94404158e-03 -2.51019164e-03 -1.99075649e-03
      -4.84959269e-03 1.28018316e-02 -1.55066010e-02 -1.32341087e-02
      -7.69291073e-03 -3.99245694e-03 -3.57641489e-03 4.85555560e-04
      -8.30208242e-04 -6.43137319e-04 1.46637554e-03 -2.38485052e-03
      -4.42661531e-03 2.36639942e-04 -3.90975038e-03 1.74370315e-02
      3.48235038e-03 -1.36527978e-03 6.31246483e-04 2.27388181e-03
      3.37522826e-03 7.03741331e-03 5.17715421e-03 2.52595055e-03
      1.65228650e-03 1.28160449e-04 1.30626792e-03 1.31147774e-03
      -1.06487488e-02 -3.53238778e-03 -2.85953376e-03 -3.19182058e-03
      -8.67295428e-04 4.56382753e-04 4.50386293e-03 -2.69303960e-03
      -2.11049919e-03 -2.63088942e-03 -8.29569472e-04 -4.20779652e-05
      9.27579775e-03 1.15803489e-02 8.54986068e-03 3.29842698e-03
      -1.69364770e-03 -6.15070201e-03 -2.95986771e-03 1.38259621e-03
      -7.63926539e-04 -1.71547791e-03 -1.77954324e-03 5.35415253e-04
      -3.47749272e-04 -6.86339568e-04 8.37881956e-03 5.95020037e-03
      5.35142003e-03 4.95286239e-03 1.74564682e-03 5.07508777e-03
      1.88044049e-02 -6.24440284e-03 -1.15546510e-02 -7.21870107e-04
      3.70194274e-03 4.20115975e-04 -1.39038777e-03 -4.83861845e-03
      -2.34494917e-03 -4.86869086e-03 -6.10656803e-03 -4.49256506e-03
      -2.33473387e-02 1.91271231e-02 2.39243498e-03 4.71769040e-03
      1.87376363e-03 4.68025610e-05 2.11038790e-03 6.22295775e-03
      3.78635130e-03 -5.38150372e-04 -1.14993274e-03 -3.05729266e-03
      -3.64339736e-04 1.69819617e-03 1.13396882e-03 3.40824970e-03
      1.57154072e-03 1.42106076e-03 7.38750852e-04 1.13628877e-04
      -9.20937804e-04 -4.70158039e-03 -3.48347845e-03 -2.76491465e-03
      -3.73972207e-03 -6.25476567e-03 -1.34756537e-02 -2.46068090e-02
      -1.87021717e-02 -7.14814849e-03 -6.12765798e-05 1.11400923e-02
      1.75133757e-02 6.15515467e-03 3.14951618e-03 2.67011928e-03
      1.90574548e-03 2.38832342e-03 1.87806436e-03 5.51243592e-03
      1.75450742e-03 1.55077243e-04 2.05201493e-03 -2.98122433e-03
      -3.91120696e-03 -5.61880833e-03 -1.12168072e-02 1.43781432e-03
      2.70060543e-03 1.45513588e-03 -1.11749931e-03 -1.27373664e-02
      -2.00514812e-02 -2.36759521e-02 -1.03499088e-02 -5.74171217e-03
      -3.01996083e-03 -2.86880671e-03 -2.28531845e-03 -2.77490821e-03
      -3.28842388e-03 1.20144535e-03 -3.08850827e-03 -3.95921757e-03
      -7.88860302e-03 -1.11547892e-03 6.37456216e-03 4.41357400e-03
      7.90976163e-04 6.28164783e-03 3.73725989e-03 5.54642174e-03
      9.58970748e-03 1.39671275e-02 2.19836412e-03 1.51405868e-03
      9.05714405e-04 9.98753472e-04 -4.48192330e-03 -1.03259385e-02
      -1.41308475e-02 -6.55066734e-03 -4.14658478e-03 -4.03506123e-03
      -1.93876668e-03 -4.81506390e-03 7.13587925e-03 8.92913158e-05
      -2.66837014e-04 -8.88432376e-04 -1.01082660e-04 -7.75398733e-03
      -1.03423251e-02 -1.23984329e-02 -2.59825168e-03 1.47565198e-03
      -5.50649315e-03 -6.34539686e-03 5.66843711e-03 -9.72239673e-03
      9.98627394e-04 2.27234210e-03 1.28767523e-03 5.65181137e-04
      1.00903236e-03 3.62766045e-03 6.54492667e-03 -3.87928588e-03
      -6.19438617e-03 -1.33009953e-03 3.21021187e-03 4.45013074e-03
      1.61208864e-02 -1.62092748e-03 -5.45849279e-03 1.61249074e-03
      1.82866561e-03 3.35574942e-03 -8.91517615e-04 3.29293590e-03
      -2.33377353e-03 -1.81057164e-03 -7.48149073e-03 -1.00096334e-02
      -9.23049357e-03 -3.90496897e-03 2.62021762e-03 2.80298386e-03
      2.02452904e-03 -5.44557406e-04 4.92042978e-04 1.47663092e-03
      3.02797789e-03 1.70503010e-03 2.46762997e-03 4.30800347e-03
      6.98739104e-03 3.19669326e-03 -1.54434505e-03 -1.23890874e-03
      1.56412541e-03 2.90396414e-03 3.74825462e-03 4.44675330e-03
      4.98638116e-03 3.88567871e-03 -5.36116313e-05 4.07827392e-05
      4.58503346e-04 4.09911433e-03 7.48358993e-03 1.24420188e-02
      4.12326073e-03 2.19429916e-04 1.13654346e-03 2.43934081e-03
      2.09867186e-03 1.50480517e-03 7.77256908e-04 -6.82322134e-05
      1.23168563e-03 -8.62214249e-04 -1.74446532e-03 1.82628108e-03
      1.97109883e-03 1.88181875e-04 -4.82096197e-03 -6.68880017e-03
      -5.25891688e-03 -3.21062282e-04 -2.65713478e-03 -6.85923034e-03
      -4.40246938e-03 -5.70848025e-03 -5.91221557e-04 2.49677105e-03
      1.47063824e-04 -1.05049787e-02 1.23041042e-03 -7.94358458e-03
      -9.75273829e-03 -1.45337749e-02 -1.04239834e-02 -3.58326081e-03
      -1.65216299e-03 -1.94869889e-03 -2.26968178e-03 -2.83185928e-03
      -1.14137842e-03 3.74294585e-03 4.76469249e-02 2.24503763e-02
      1.69204418e-02 6.39410457e-03 -2.73525482e-04 -2.51641981e-02
      -3.62556726e-02 5.00919006e-04 6.58457447e-03 5.78111922e-03
      1.33545315e-02 1.81090385e-02 1.99056678e-02 1.26311444e-02
      -1.51344563e-03 1.33695730e-05 -1.74360198e-03 -1.11988764e-02
      -2.02698596e-02 6.13300456e-03 8.86570290e-03 8.91049579e-03
      7.13108527e-03 5.81640610e-03 7.73626193e-03 1.86292324e-02
      -8.44527793e-04 -8.19459744e-03 -6.59066392e-03 -2.48174928e-03
      -8.20606854e-03 -9.08607710e-03 -2.55050417e-03 -1.76698912e-03
      6.84744082e-05 2.64820713e-03 3.84295313e-03 6.79627387e-03
      8.67833383e-03 1.35089271e-02 2.48688692e-03 2.00024410e-03
      1.44410529e-03 1.06631615e-03 1.13182864e-03 -4.12559370e-03
      -4.01270716e-03 -2.77784793e-03 -1.41087128e-03 -4.53286397e-04
      -1.17542408e-03 4.64719348e-03 1.22217387e-02 6.23408053e-03
      3.33123538e-03 4.17095376e-03 -1.54377799e-03 -4.19329386e-03
      -1.03157172e-02 -1.01487888e-02 -7.34054670e-03 -1.07611809e-02
      -8.68342072e-03 -1.44420080e-02 -1.18482569e-02 -1.39140082e-03
      -1.77529559e-03 -4.03644098e-03 -4.67937626e-03 -4.14265040e-03
      -1.83288497e-03 -2.46609189e-03 2.05338540e-04 -1.09384232e-03
      -1.14561175e-03 -3.16438003e-04 1.90005277e-03 7.00349640e-03
      4.10777889e-02 2.53136773e-02 9.83599387e-03 2.82579986e-03
      -2.23474624e-03 -1.02111083e-02 -3.90646569e-02 -1.13769583e-02
      1.92044093e-03 7.43656419e-03 2.38416288e-02 2.28606276e-02
      2.93881334e-02 2.79334653e-02 7.77699845e-03 7.15296529e-03
      5.96112246e-03 5.43402275e-03 7.82273337e-03 7.10898358e-03
      -5.83099574e-03 -3.54366400e-03 -7.09017925e-03 -2.71007419e-03
      -3.48578207e-03 7.85437785e-03 5.41123142e-03 7.02992128e-03
      7.07608124e-04 1.25478371e-03 -1.67545408e-03 -2.97910208e-03
      -1.17563959e-02 -2.80680740e-03 -2.20913859e-03 -6.01652951e-04
      -2.62328220e-04 -4.98412701e-05 2.09005852e-03 -3.80775030e-03
      1.70031958e-03 6.18967635e-04 -7.58340102e-05 -4.35138296e-04
      -3.19468626e-03 -4.99080028e-03 -1.58411767e-02 -1.43368579e-02
      -1.32746715e-02 -1.04349647e-02 -5.51464874e-03 -3.52379029e-05
      1.25359576e-02 1.94370991e-03 3.89581639e-03 4.49673738e-03
      2.72393250e-03 2.98297917e-03 3.14199948e-03 4.06452641e-03
      3.03379749e-03 1.16820971e-03 -2.82271556e-03 -4.28285915e-03
      1.24793006e-02 7.37631926e-04 -2.82149203e-03 -2.19650727e-04
      -2.23744806e-04 -9.71046218e-04 2.79744458e-03 2.97997822e-03
      8.07639677e-04 2.50950479e-03 4.36234381e-03 3.79401818e-03
      5.36560593e-03 8.44636373e-03 1.20234431e-03 1.43303233e-03
      -1.70660508e-03 -7.07488041e-04 1.00127934e-03 1.39373145e-03
      3.16599081e-03 1.94416044e-03 2.60742498e-03 4.97270655e-03
      2.15923204e-03 2.57337093e-03 1.07997535e-02 2.10248120e-02
      7.45459227e-04 -2.62215501e-04 1.38951361e-03 3.48587753e-03
      1.94129790e-03 5.62683272e-04 4.73521388e-04 1.07427349e-03
      1.27801334e-03 6.15628262e-04 -1.00451941e-03 7.72356428e-03
      9.18145943e-03 2.07122951e-03 2.09309813e-03 3.23906611e-03
      2.64789560e-03 1.32739055e-03 -8.48173921e-04 3.04588047e-03
      9.46852553e-04 1.36640354e-03 1.97324250e-03 2.46406044e-03
      1.68080453e-03 -2.10931851e-03 3.91725247e-04 -7.91730185e-04
      -6.01319538e-04 -1.91186345e-03 -1.91705278e-03 -4.12427541e-03
      -4.11374168e-03 -2.58148182e-03 -1.83883903e-03 1.27241292e-04
      3.33223678e-03 4.14631655e-03 1.29626514e-02 8.59725475e-03
      1.00318640e-02 8.32784548e-03 3.53606348e-03 8.84914014e-04
      -9.18832887e-03 -3.75504303e-03 -2.86761555e-03 3.37046781e-03
      3.56780691e-03 2.02878541e-03 2.88381241e-03 8.24782625e-03
      3.38119129e-03 2.62423814e-03 4.95113758e-03 4.06442257e-03
      1.95563282e-03 7.59300217e-03 1.05772316e-02 4.50767716e-03
      2.18606996e-03 2.29352294e-03 2.77488562e-03 3.57245700e-03
      4.67042346e-03 5.63584035e-03 -1.94596103e-03 1.70410634e-03
      -2.36071623e-03 -4.17952985e-03 3.25727742e-03 2.30760337e-03
      -7.63024378e-04 1.01200258e-03 -3.36049561e-04 -6.81522652e-05
      1.94580454e-04 8.30952078e-03 3.10473889e-03 3.59319453e-03
      5.38089266e-03 5.36193652e-03 5.88144502e-03 1.05764847e-02
      3.40295699e-03 1.90087536e-03 3.57273477e-03 5.22235082e-03
      3.91762191e-03 6.73001632e-03 1.08084851e-03 -1.73548376e-03
      -1.44934817e-03 2.02912692e-04 1.08835033e-04 3.80018260e-04
      3.06116417e-03 4.46504122e-03 -6.72064023e-03 8.29942583e-04
      1.26007311e-02 1.60017889e-02 5.43743139e-03 -2.09565391e-04
      3.19588487e-03 1.16151816e-03 4.55082348e-03 1.48474763e-03
      8.17638170e-03 8.18676502e-03 9.96886170e-04 2.90290662e-03
      2.31513637e-03 2.41926080e-03 5.67403669e-03 1.32279715e-03
      1.13911368e-02 4.02956875e-03 3.08057852e-03 5.86486142e-03
      -5.96896838e-03 -1.09745348e-02 -1.57030940e-03 -3.77366692e-03
      5.14305150e-03 2.46798922e-03 2.62152450e-03 3.57247842e-03
      -7.34010755e-05 -5.30239777e-04 -6.47576468e-04 -2.39140834e-04
      -1.42680935e-03 -2.98497570e-03 3.34111904e-03 6.85720937e-03
      8.39776359e-03 4.50874446e-03 3.22581967e-03 2.43093888e-03
      3.46564804e-03 3.77059006e-03 -6.54489035e-03 2.85418215e-03
      4.24641231e-03 4.11887094e-03 -3.02280067e-04 -3.13776685e-03
      3.17157805e-03 3.08779697e-03 4.65677073e-03 2.01217132e-03
      1.81186048e-03 3.58138024e-03 2.00635084e-04 3.31813563e-03
      9.77635384e-04 3.33325821e-03 3.40283848e-03 4.72244620e-03
      5.55364694e-03 2.44486233e-04 -2.83718761e-03 -3.95649299e-03
      -3.19234282e-03 -2.48981407e-03 -8.55266931e-04 -3.27279698e-03
      1.51460506e-02 3.15827434e-03 1.20255619e-03 1.45770749e-03
      6.33372110e-04 -8.46556912e-04 1.33276114e-03 1.85468642e-03
      1.10679795e-03 7.39393639e-04 -4.33820329e-04 1.30953721e-03
      1.17558911e-02 -3.25502967e-03 1.55348575e-03 -2.69318494e-04
      -5.22753980e-04 -6.75273885e-04 9.30675073e-04 -2.13402163e-04
      -1.71389768e-03 1.66341153e-04 1.42033817e-03 1.36924349e-03
      6.30021561e-04 1.89567427e-03 2.85021990e-04 4.13655350e-03
      8.79001280e-04 1.86867930e-03 3.09390156e-03 5.51139982e-03
      1.26785180e-02 -3.92520288e-03 -1.46149483e-04 1.34490547e-03
      2.93519278e-03 6.04820950e-03 7.23028742e-03 4.98984242e-03
      7.63245812e-03 -1.22594414e-04 -2.59396248e-03 -2.29631318e-03
      5.55944210e-03 9.28905606e-03 1.11652566e-02 3.43486737e-03
      4.13055066e-03 2.38757231e-03 3.07210512e-03 6.38393743e-04
      9.73558147e-03 6.06826786e-03 6.36609690e-03 4.88034822e-03
      5.19022159e-03 6.50698319e-03 1.53619135e-02 -3.90943792e-03
      -2.29172671e-04 -9.97067182e-05 -2.32747203e-04 2.66910356e-04
      -7.26162968e-03 -2.68711057e-02 5.53166447e-03 -3.02145636e-04
      -4.68342844e-03 2.08091398e-04 -6.67395443e-03 1.30034517e-02
      1.00158826e-02 4.86521842e-03 9.95701062e-04 6.40457682e-03
      2.35782354e-03 5.72178047e-03 3.19258007e-03 7.69440690e-03
      8.90595093e-03 8.72010889e-04 4.73983167e-03 5.18462388e-03
      2.56192498e-03 7.27960188e-03 3.18579492e-03 6.65167253e-03
      2.55699526e-03 2.41153035e-03 2.48812576e-04 4.26292274e-04
      5.54198050e-04 2.89282715e-03 -2.22493010e-03 -2.00791168e-03
      7.39522092e-03 5.53827267e-03 1.06118424e-02 -8.25361290e-04
      -1.24422205e-03 -1.39455602e-04 -6.31101336e-03 4.34742949e-04
      -6.20789919e-03 6.31911028e-03 -2.37059500e-03 -4.18412453e-03
      -6.44530123e-03 -3.39056714e-03 1.25306714e-02 1.15775345e-02
      6.47329632e-03 3.29450797e-03 1.95613038e-03 2.61754752e-03
      3.41296708e-03 9.61267110e-03 7.04309996e-03 9.93768871e-03
      1.00471862e-02 7.84285553e-03 7.29464414e-03 1.48065072e-02
      9.82183777e-03 8.27378407e-03 8.83325352e-04 1.48792262e-03
      -9.25722474e-04 -5.76522248e-03 -2.07668357e-02 -1.23257097e-02
      -8.45482014e-03 -3.67879472e-03 -1.13048768e-02 5.45223057e-03
      1.68312918e-02 8.09965935e-03 7.49046216e-03 5.60317049e-03
      3.38863418e-03 3.88448942e-03 5.41877514e-03 1.61649752e-02
      4.76452848e-03 6.17551617e-03 6.37679733e-03 8.67097639e-03
      1.46453418e-02 1.12012383e-02 8.71876534e-03 4.35269857e-03
      5.33830281e-03 4.34272829e-03 8.60082451e-03 5.40060271e-03
      4.62328317e-03 2.95338361e-03 -1.42169325e-03 -4.37062560e-03
      -5.71717182e-03 -4.15406702e-03 1.38136628e-03 4.32586391e-03
      6.97732787e-04 2.92040920e-03 6.09645504e-04 3.62437428e-03
      3.75194382e-03 -6.54114317e-03 -3.54667380e-03 5.72191377e-04
      -5.12754032e-03 -6.00199448e-03 -4.01334139e-03 -5.51757403e-04
      4.87306900e-03 5.60778985e-03 6.47689123e-03 4.78212209e-03
      3.62764345e-03 -7.57137823e-05 6.48124656e-03 1.59010349e-03
      3.24602635e-03 -1.74495403e-03 -6.55100308e-03 -1.33662205e-02
      -2.97909137e-02 3.58882506e-04 6.86668325e-03 -1.44229460e-04
      1.23570557e-03 3.66911408e-03 4.33062343e-03 2.61586416e-03
      -3.31972726e-04 6.41072984e-04 2.07985425e-03 5.36222104e-03
      -2.64288159e-03 -3.99069116e-03 -3.41130584e-03 -9.19338781e-04
      2.58343900e-03 6.03703200e-04 1.93224079e-03 -4.10891464e-03
      -1.62077963e-03 2.69817992e-05 6.30104681e-04 6.15047291e-03
      -2.93429737e-04 -3.04950518e-04 1.57251736e-04 9.99453012e-04
      -2.60089734e-03 2.36556446e-03 7.10926601e-04 2.23563681e-03
      -9.34828259e-03 -1.39507195e-02 -2.02119676e-03 -2.86572753e-03
      -2.48448853e-03 -1.14869943e-03 2.34788074e-03 -3.80622339e-04
      4.22961265e-03 1.80487602e-03 -4.43199475e-04 -4.24056547e-03
      -1.29430264e-03 -4.26601153e-03 1.51983351e-02 6.07457012e-03
      7.85586238e-03 1.33467093e-02 1.46943387e-02 7.23778689e-03
      9.26076621e-03 -3.95831140e-03 -5.31993574e-03 4.44548158e-03
      2.03454704e-03 7.74284964e-03 -9.62238200e-03 1.09290099e-02
      4.75464296e-03 -1.06729113e-03 2.32454226e-03 5.52189955e-03
      2.94287526e-03 -8.83071159e-04 3.15404101e-03 5.54339786e-04
      2.89548491e-03 2.13864353e-03 -2.04093661e-03 -3.00863525e-03
      7.00118486e-03 6.83671329e-03 6.77183550e-03 1.21135889e-02
      1.08136078e-02 6.34885486e-03 -1.43617252e-02 6.28997898e-03
      9.97018255e-03 1.23863462e-02 -3.29988194e-03 1.51797533e-02
      -9.98619664e-03 2.32354598e-03 3.16916523e-03 -3.47923697e-03
      1.93346129e-03 -1.35858834e-03 2.28716686e-04 8.45628325e-03
      5.99371095e-04 -6.88772136e-03 -6.37183955e-04 -4.44878638e-03
      4.79053520e-03 -7.88795936e-04 -8.17207713e-03 -3.90722271e-04
      -1.02032337e-03 -7.45619065e-04 -4.78871912e-03 -1.24077452e-02
      -5.72110666e-03 -8.65463726e-03 -1.31719084e-02 2.55535310e-03
      2.51538376e-03 -8.14406388e-03 -5.24314633e-03 -1.34348152e-02
      -5.30250790e-03 -3.62195284e-03 -3.07485019e-03 -2.97035265e-04
      -2.54960469e-04 9.30166524e-03 -3.78733210e-04 -1.91292970e-03
      -3.49035976e-03 -1.74253609e-03 -4.18952527e-03 -7.68199272e-04
      -3.21031362e-03 3.72338132e-03 1.65823579e-03 1.71581411e-03
      1.54447393e-03 2.80587294e-04 -5.49493008e-04 -6.87925704e-03
      -9.33928322e-03 -1.13866245e-03 7.51980301e-03 -4.27002436e-04
      -1.71910669e-03 -9.26842075e-03 2.38849851e-03 5.67818526e-03
      4.93467832e-03 1.00585315e-02 1.96062364e-02 7.18813250e-03
      4.74240724e-03 -1.56707328e-03 -1.43965660e-03 -3.52219067e-04
      -1.44415628e-03 -1.59431272e-03 5.80778287e-04 1.60524936e-03
      -7.84799340e-04 -8.98448192e-03 -1.39873959e-02 -1.29997190e-02
      -1.01187546e-02 -1.41097438e-02 1.42317847e-03 4.65444929e-04
      -5.42418566e-03 5.18917758e-03 -3.29530006e-03 -9.07045603e-03
      2.09508603e-03 -8.38318747e-03 -2.11718492e-03 -3.88447568e-03
      -1.74047635e-03 3.74554843e-03 -3.81074264e-03 -8.03475082e-03
      5.05948393e-03 8.83667078e-03 8.89071822e-03 6.25571329e-03
      1.61967222e-02 4.44668951e-03 3.31494794e-03 5.84490597e-03
      2.31290888e-03 -9.11704730e-04 -3.43571277e-03 -1.54656777e-02
      -6.62419805e-03 -7.76322745e-03 3.53162963e-04 1.84052112e-03
      8.21777154e-03 -2.45564803e-02 -4.08666860e-03 5.20638132e-04
      -9.78280883e-03 -9.75411292e-03 -1.17660332e-02 -1.25419293e-02
      -2.88292510e-03 1.28001692e-02 1.49358399e-02 1.85717549e-02
      1.12350089e-02 1.03646237e-02 -6.45770459e-03 1.61086337e-03
      -1.86436708e-04 -2.23909761e-03 9.21828381e-04 3.83298355e-03
      3.95453861e-03 6.09558600e-04 -1.35809998e-03 -4.95445449e-03
      -6.94679376e-03 -1.10973241e-02 -8.24572705e-03 -9.12595354e-03
      2.17507081e-03 3.75111122e-03 1.60532107e-03 3.20486957e-03
      3.65671096e-03 9.07790754e-03 -7.62866344e-03 -6.16972800e-03
      -2.19485862e-03 -1.56061840e-03 3.41619155e-03 -2.10732967e-03
      -3.18281190e-03 -3.29498830e-03 5.39286004e-04 -1.60720525e-03
      -3.03761242e-03 5.04280580e-03 6.36470038e-03 -1.81718089e-03
      1.19414576e-03 -1.65845628e-03 1.27929403e-03 1.43815414e-03
      3.11153894e-03 -5.06669632e-04 -4.39948963e-05 -1.27826200e-03
      4.00416180e-03 7.24236527e-03 8.39895010e-03 1.11782597e-02
      3.28728883e-03 5.43137686e-03 -2.97632860e-03 6.38543512e-04
      -7.90322851e-03 -1.39533181e-03 3.27193923e-03 -3.69962095e-03
      9.41474864e-04 -2.24781618e-03 -1.00229622e-03 -2.31225253e-03
      1.04606831e-02 -2.46603671e-03 -1.06221787e-03 -4.67480626e-03
      1.69856485e-03 -4.88186022e-03 -1.10722641e-02 -2.12597148e-03
      -9.22701322e-03 -1.14180718e-03 -4.22397209e-03 -2.85351416e-03
      -2.16461183e-03 1.87873822e-02 6.99766818e-03 3.80852213e-03
      3.01747327e-03 -1.02502352e-03 4.12692409e-03 -9.40484315e-05
      9.07474011e-03 2.02505710e-03 -1.63247940e-04 -2.02374486e-03
      -2.79198820e-03 -4.54329280e-03 -2.89633335e-03 4.98042209e-04
      -9.91181587e-04 -6.04462391e-03 -9.78073012e-03 -1.27739375e-02
      -6.30271714e-03 -2.03058366e-02 -4.40014759e-03 -6.50825072e-03
      -4.57454380e-03 2.91630765e-03 5.40224649e-03 9.32941865e-03
      5.52703952e-03 -2.90787837e-04 -1.36945615e-04 -5.32561855e-04
      5.06882882e-03 9.50646121e-03 -1.30040022e-02 -5.52974781e-03
      -4.37691528e-03 -1.79243982e-02 -1.87820829e-02 -6.29817182e-03
      -4.09250055e-03 -3.82442377e-03 -1.68963219e-03 9.22832871e-04
      -3.31343338e-03 -4.87452745e-03 -5.06083062e-03 3.47426627e-03
      1.50046591e-03 -6.62338221e-03 -9.89972614e-04 1.58162322e-03
      -3.97931971e-03 1.46363178e-04 1.33740075e-03 2.78530316e-03
      4.48257106e-06 9.31779295e-03 7.11118057e-03 9.20196436e-03
      -1.50447208e-02 -8.65552668e-03 -1.91203468e-02 -1.32435327e-02
      -1.19142160e-02 5.32822544e-03 1.40628917e-02 6.56214217e-03
      3.82090360e-03 3.99937667e-03 4.29270905e-04 1.71037810e-03
      1.12811278e-03 8.14370625e-03 1.02790026e-02 2.72395858e-03
      1.19738444e-03 3.55438911e-04 -6.36404729e-05 3.33231338e-03
      2.91723269e-03 4.03797301e-03 2.44499766e-03 -7.88576610e-04
      4.03195526e-03 -1.93342174e-04 1.87320600e-03 -4.51373635e-03
      -2.19981465e-03 -1.64517347e-04 -6.44101674e-05 1.68012246e-03
      9.59402788e-03 3.43079004e-03 4.31466360e-05 2.45323218e-03
      1.45619444e-04 2.18037725e-03 9.85359424e-04 -6.62649516e-03
      -1.89698790e-03 -7.43676908e-04 -1.32299354e-03 -2.68527283e-03
      -7.05706235e-03 9.75848176e-04 9.99660464e-04 1.85792870e-03
      4.31521749e-03 1.68796757e-03 2.50661978e-03 -3.45928711e-03
      -3.01224267e-04 -4.86385310e-03 -3.01659829e-03 -7.08855456e-04
      3.45489848e-03 1.03122443e-02 5.58427826e-04 -3.15237208e-03
      -2.87521724e-03 -2.25891895e-03 1.58606155e-03 -3.56833939e-03
      -6.92678557e-04 2.23624683e-03 7.11189641e-04 -2.70626997e-03
      -1.24304695e-03 -6.49717450e-03 -1.76974956e-03 -4.85668937e-03
      -1.99589855e-03 -2.19727005e-03 -1.63514647e-04 -2.50353082e-03
      -4.31073923e-03 -3.55745456e-03 2.84531713e-03 9.66523425e-04
      1.46421502e-04 -1.39588199e-03 -1.09670544e-02 -1.86368600e-02
      -3.12398840e-03 3.67951952e-03 1.10745023e-03 8.17419961e-03
      8.96002806e-04 4.45486000e-03 8.27389117e-03 1.70562696e-02
      8.26752279e-03 4.86561796e-03 8.03735759e-03 5.16252220e-03
      1.51552050e-03 3.90637375e-04 -3.37144150e-03 5.39333001e-03
      -2.68381415e-03 1.55497470e-03 -1.47522334e-03 -8.24474439e-04
      2.45724892e-04 -1.22006498e-02 -2.31038692e-04 -1.08457478e-02
      3.68211209e-03 -1.28669096e-02 -1.39225824e-02 -4.72583203e-03
      -9.33814328e-04 -5.90460002e-03 -9.65455361e-03 -1.63557455e-02
      -1.22876922e-02 -1.81094406e-03 -6.61132345e-03 -4.29224223e-03
      -1.08007796e-03 -5.23268303e-04 -9.01469216e-03 -3.70692112e-03
      -1.24454061e-02 -8.10505915e-03 -7.83178303e-03 -5.94512187e-03
      -4.59745573e-03 -4.93531022e-03 9.61848814e-03 9.06887744e-03
      1.16639063e-02 7.75103597e-03 1.39914267e-02 9.40342061e-03
      -9.76635981e-03 -6.31173933e-03 -4.51330189e-03 -8.73635337e-03
      -4.72906884e-03 -4.68500983e-03 -3.71410255e-03 1.47379702e-03
      -7.35365367e-03 7.34806177e-04 -5.40101435e-03 -4.13066661e-03
      -8.69984925e-03 -5.32254111e-03 -2.18951562e-03 9.50498739e-04
      3.16542061e-03 2.25231191e-03 2.64480943e-03 -1.48162525e-03
      -2.07028934e-03 -8.10298836e-04 5.66476723e-03 5.18100569e-04
      9.66377649e-03 -4.66527045e-03 6.77512167e-03 1.73799554e-03
      8.77377577e-03 5.82263526e-03 6.35445118e-03 2.49843718e-03
      5.92913886e-04 -7.75393331e-03 -6.75327564e-03 -1.60702504e-03
      -7.37815816e-03 -4.65760095e-04 -3.32535664e-03 7.45352684e-03
      1.78038795e-03 -8.95394696e-05 3.60749313e-03 2.51564151e-03
      1.27651880e-03 -1.07574125e-03 -7.73327949e-04 6.80449186e-04
      -1.77557187e-04 1.95208157e-03 7.14720809e-04 6.34883344e-03
      -3.82847921e-03 -6.48705522e-04 6.36431563e-04 2.95306579e-03
      1.80553214e-03 9.89437569e-03 -9.41092707e-03 3.84294707e-03
      -2.42468624e-04 -2.03254516e-03 1.24800194e-03 2.25065975e-03
      -2.71606795e-03 4.27514827e-03 -3.06321052e-03 1.62660843e-03
      4.55274945e-03 1.61546725e-03 7.99697638e-03 -8.70594231e-04
      -2.25084135e-03 4.31116996e-03 1.59473333e-03 2.45301775e-03
      -1.51847687e-03 -1.85002631e-03 4.53101425e-03 2.31704372e-03
      6.05940865e-03 1.15491019e-03 5.13957534e-03 1.46102067e-03
      1.38958485e-03 7.52600201e-04 3.65816662e-03 9.91794514e-04
      6.21378305e-04 -4.36673785e-04 2.34301551e-03 2.74972408e-03
      4.50526888e-04 6.57235156e-04 4.56898124e-04 -2.16933107e-03
      -2.12157983e-03 -7.78894126e-03 3.51968710e-03 2.18440173e-03
      6.01026090e-03 -3.39957303e-04 2.62556062e-03 2.28286115e-03
      1.41660804e-02 1.68764703e-02 8.36277730e-04 -1.50250401e-02
      -2.26654243e-02 -1.57001149e-02 -1.47655457e-02 -2.54507679e-02
      -3.73129360e-03 -4.61766031e-03 -1.98917766e-03 4.44569113e-03
      9.79821105e-03 2.17583999e-02 1.81979053e-02 3.74400709e-03
      3.98458354e-03 3.31625761e-03 -1.89478870e-03 2.61601480e-03
      2.19033659e-02 9.56283230e-03 6.91461284e-03 2.01408821e-03
      -1.70069642e-03 -3.48513271e-03 -3.96817690e-03 1.20286670e-04
      -2.59659369e-03 7.20236357e-03 -3.36655159e-03 6.03667740e-03
      2.61125766e-04 -4.19846131e-03 -3.56661738e-03 -6.97039440e-03
      -5.74416202e-03 -1.99523219e-03 -1.03868563e-02 -1.93212349e-02
      -3.60585540e-03 -2.13839882e-03 6.11145515e-04 8.18054285e-03
      1.18103875e-02 1.13712084e-02 8.18254706e-03 1.14312943e-03
      2.15091230e-03 6.12997566e-04 5.94586181e-03 7.03598885e-03
      9.81607009e-03 4.58078808e-04 2.87246821e-03 5.34199830e-03
      3.60240927e-04 1.96392089e-03 2.01959372e-03 -1.50104053e-02
      2.99565471e-03 2.95948214e-03 1.90949140e-04 3.66500509e-03
      -5.77246258e-03 8.58851708e-03 5.84752904e-03 7.37547502e-03
      1.02482308e-02 3.29768867e-03 4.62762173e-03 8.14930629e-03
      -1.77887157e-02 -5.43408655e-03 -7.47716427e-03 4.79746424e-03
      -4.11962159e-03 9.46484273e-04 8.31688941e-03 5.47184260e-04
      -3.90258618e-03 3.94061720e-03 -1.46467017e-03 1.35828753e-03
      2.95212073e-03 6.97080838e-03 4.50817693e-04 -3.56771867e-03
      4.69657651e-04 -3.62736266e-03 -5.01742528e-04 1.17590418e-02
      3.58340493e-03 -7.15096761e-03 -1.07025020e-02 -1.79297011e-02
      -4.16152738e-03 3.17908591e-03 -2.59946124e-03 -2.60276697e-03
      4.43225447e-03 1.81656575e-03 2.62542441e-03 7.09753856e-03
      4.43876535e-03 3.83346365e-03 4.27451869e-03 3.86906369e-03
      4.00998723e-03 2.33919290e-03 5.67540200e-03 1.36958212e-02
      9.39339772e-03 1.81464087e-02 1.14742666e-02 -3.38575628e-05
      3.45412036e-03 -1.18040452e-02 -2.70171347e-03 -7.70896534e-03
      -1.91348384e-03 1.21902314e-03 -1.62245950e-03 1.27379200e-03
      7.07871001e-03 3.40986159e-03 1.82282005e-03 2.65241461e-03
      -4.04325314e-03 -5.12996363e-03 3.43326014e-03 7.97780231e-03
      1.07857697e-02 5.18779317e-03 -8.13470222e-04 -2.45199376e-03
      -8.54055397e-03 -1.09984316e-02 -6.38762861e-03 -2.93085002e-03
      2.22655805e-03 -3.95057403e-04 1.58812822e-04 -5.32930624e-03
      8.32573802e-04 -4.25792066e-03 -3.58997466e-04 2.96087353e-03
      -3.09293508e-04 7.64007447e-03 -1.15908906e-02 -4.57206322e-03
      -5.44637535e-03 -8.71537268e-05 -6.11680234e-03 -9.09919851e-03
      -1.66763365e-02 -6.91824593e-03 -5.22038899e-03 -4.03477019e-03
      -1.18820462e-03 9.75655043e-04 4.34117438e-03 1.19582536e-02
      -2.65785144e-03 -9.07091482e-04 -2.95800762e-03 -1.03801554e-02
      -7.36586610e-03 -1.05357403e-02 -6.89490838e-03 -1.30291684e-02
      -3.57816997e-03 -3.72634456e-03 -6.60711667e-03 -8.35410878e-03
      3.02739698e-03 -3.61581985e-03 -2.83975736e-04 -6.25260873e-03
      -8.32614210e-03 3.13725974e-03 3.65257263e-03 8.28463468e-04
      1.56635419e-03 2.40755081e-03 1.94664439e-03 4.20385413e-03
      7.57409865e-03 9.91817843e-03 5.84160350e-03 6.46600686e-03
      7.92951602e-03 4.34546545e-03 1.47332801e-04 3.33134993e-03
      1.09757436e-03 3.08571034e-03 3.51713598e-03 3.16731096e-03
      9.41608474e-03 1.21070798e-02 4.41144919e-03 -5.60371205e-03
      -2.13373592e-03 1.27488782e-03 3.51016968e-03 5.27055468e-03
      4.20404226e-03 2.42479844e-03 3.98944132e-03 1.07582111e-03
      -4.80272283e-04 1.36598735e-03 2.49898387e-03 4.09315852e-03
      2.94703292e-03 4.30516340e-03 6.18088897e-03 -1.96277106e-05
      -4.18433966e-03 -5.54443151e-03 -5.07707300e-04 -1.60973112e-03
      2.05937424e-03 6.79046963e-04 6.08482806e-04 2.52459268e-03
      1.36546604e-03 -8.12724058e-04 2.44190363e-04 2.19564233e-03
      -4.41390835e-03 6.49448996e-03 6.22374425e-03 -1.97873637e-03
      2.83259503e-03 -4.79982409e-04 -8.52013240e-04 4.33334120e-04
      3.34501412e-04 5.10614179e-03 9.37642413e-04 1.02030952e-03
      6.90477755e-05 3.57449171e-03 -9.04780230e-04 -6.13062736e-03
      -7.86441192e-03 -2.90232059e-03 -1.02476601e-03 -7.93101732e-03
      -1.52072301e-02 -1.47260195e-02 9.70332045e-03 -9.14054457e-03
      -8.28112569e-03 -6.84731826e-03 -1.82731282e-02 -4.30926587e-03
      9.05371085e-03 4.17586649e-03 5.23561239e-03 6.37292070e-03
      5.06622391e-03 4.26349323e-03 6.91903615e-03 1.94308572e-02
      1.27417909e-03 -1.55371730e-03 -2.63040070e-04 -4.95578721e-03
      -9.81195550e-03 -1.70544349e-02 -5.10610128e-03 -8.56797863e-03
      -1.58420801e-02 -7.37998728e-03 -5.80457086e-03 -3.32364929e-03
      -5.40584419e-03 2.01255525e-03 -2.67244736e-03 6.37489092e-03
      1.14495130e-02 7.71877542e-03 2.05945931e-02 8.28255527e-03
      2.49736174e-03 -1.84449274e-03 -2.87998724e-03 -1.55155617e-03
      -1.15003688e-02 -1.14526674e-02 -5.46060689e-03 1.70241494e-03
      -7.74596352e-03 -3.08913644e-03 -1.21524651e-02 -3.76218953e-03
      4.03194164e-04 -3.53215123e-03 -1.23882657e-02 -1.64512452e-03
      -1.45101296e-02 -1.17677758e-02 -3.08517274e-03 1.04446814e-03
      7.43260887e-03 1.01986770e-02 1.64882205e-02 4.87046968e-03
      -5.48089156e-03 -2.20063664e-02 -1.39791230e-02 -1.25505833e-03
      -4.55581350e-03 2.05782009e-03 -1.20590916e-02 -9.16462392e-03
      -3.48483771e-03 -4.31341212e-03 -3.38845141e-03 -2.47853948e-03
      -8.54166225e-03 -6.23985752e-03 -6.30143052e-03 -1.77136797e-03
      -3.27182421e-03 -2.91252742e-03 -5.97753003e-03 -6.52211299e-03
      5.28177805e-03 3.06740147e-03 -2.77598854e-04 1.27669773e-03
      -8.42001406e-04 4.12502605e-03 -5.76643739e-03 -5.33835590e-03
      1.75223046e-03 2.35190120e-04 1.59643590e-03 4.67396853e-03
      9.97863803e-03 9.14916396e-03 -5.30960364e-03 -3.55739170e-03
      -3.97331640e-03 -3.60108609e-03 -1.72432605e-03 -1.71729401e-02
      -6.67463895e-03 1.98026421e-03 -2.27160193e-03 2.18881803e-04
      -2.51414953e-03 -1.15061516e-03 -7.18469208e-04 1.31326099e-03
      3.32512055e-03 1.25038403e-03 5.40795691e-06 1.96099537e-03
      2.25565257e-03 6.82828855e-03 -5.90568176e-03 -1.85194297e-03
      4.61411430e-03 5.97863400e-04 2.86304741e-03 5.35899960e-03
      -4.22522239e-03 -2.87099811e-03 -2.85266410e-03 -9.84868314e-03
      -8.17639055e-04 7.97072332e-03 -1.83200324e-03 -4.26003337e-03
      -3.73838958e-03 -3.48561700e-03 -8.69414711e-04 -2.38932157e-03
      2.17782985e-03 -3.45130131e-04 -2.35461234e-03 2.96216761e-03
      9.08928458e-03 1.38779143e-02 1.86682101e-02 9.05701518e-03
      8.24909564e-03 1.56666767e-02 1.40268542e-02 7.24629126e-03
      -1.14748413e-02 -2.32461095e-03 -3.05519113e-03 -4.76876227e-03
      -1.62189500e-03 -1.77551829e-03 -1.60735694e-03 7.51601392e-03
      1.46432570e-03 -1.08531465e-04 3.18948412e-03 3.34335607e-03
      4.29682620e-03 -4.36627166e-03 6.89861365e-03 2.75482261e-03
      2.61476566e-03 2.87683704e-03 5.03548654e-03 4.39200347e-04
      4.32331813e-03 2.44945229e-04 -2.49822368e-03 -1.04108336e-03
      -8.92804284e-03 3.28169466e-04 9.48132761e-03 -2.05359445e-03
      1.83336076e-03 3.75216175e-03 4.42655198e-03 3.46923177e-03
      6.50162296e-03 1.06194355e-02 5.01643214e-03 7.54930588e-05
      3.32044298e-03 -2.01556296e-03 7.12717744e-03 5.99218579e-03
      1.66469626e-02 -1.58380892e-03 1.88634661e-03 -2.46372214e-03
      -5.02576912e-03 -6.60232268e-03 -1.44226290e-03 -7.90839642e-03
      -1.11445738e-02 -3.14101507e-03 -7.19938718e-04 -9.28534253e-04
      5.65455703e-04 1.98322858e-04 2.01316527e-03 -3.22639872e-03
      -5.57751860e-03 -1.26366166e-03 1.25430233e-03 6.80369046e-03
      -4.03896719e-03 -9.63604311e-04 -5.89631265e-03 7.17147486e-03
      1.61216166e-02 1.41638955e-02 1.47932796e-02 2.52198102e-03
      2.50688894e-03 1.87770312e-03 1.63148402e-03 -4.86485660e-03
      -2.01182975e-03 -1.79636478e-02 -1.19908573e-02 1.23481976e-03
      -7.45288748e-03 1.67045963e-03 7.02042552e-03 -4.16488945e-03
      -1.37223315e-03 -3.60527169e-03 -2.21291534e-03 -2.31573149e-03
      -4.04811418e-03 -1.15068937e-02 4.00053989e-03 6.12978917e-03
      1.16497576e-02 6.18479215e-03 4.74625820e-04 -1.09110614e-02
      -2.14513876e-02 -2.82120821e-03 -2.01064115e-03 -1.70992629e-03
      -1.94174470e-04 -5.24148904e-03 -4.19210503e-03 -4.33197385e-03
      -3.19018890e-03 -7.39197293e-03 -5.09083504e-03 -3.58470459e-03
      5.94564993e-03 1.58718452e-02 6.88664149e-04 -2.33598941e-04
      -1.50222320e-03 -6.05707522e-03 -4.77926247e-03 -1.19211096e-02
      -1.27401222e-02 -8.78853723e-03 -1.52860703e-02 -4.55304561e-03
      -5.16615994e-03 3.99892405e-03 9.88292042e-03 5.73798222e-03
      8.74290988e-03 4.51498805e-03 5.72278304e-03 2.43465975e-03
      -7.87897967e-03 -1.99467526e-03 1.56003842e-03 4.48872335e-03
      4.68472717e-03 2.22270889e-03 2.90658022e-03 9.05658770e-03
      1.81339006e-03 -1.83846045e-04 3.80130811e-03 1.82023575e-03
      2.39061308e-03 -2.90991127e-04 2.91930023e-03 1.24462170e-03
      8.73728562e-03 2.84923660e-03 3.70742031e-03 2.78541120e-03
      1.56920019e-03 -3.94041231e-03 -5.90343168e-03 -1.06300134e-02
      -6.90807169e-03 -7.77075300e-03 -1.08233048e-02 -2.57654046e-03
      2.72197416e-03 -1.99278980e-03 -5.16027038e-04 -6.58665132e-03
      -6.62691658e-03 -6.23928010e-03 -3.86210810e-03 2.34668632e-03
      3.24592344e-04 -5.72624558e-04 7.37783685e-03 -2.41204025e-03
      -3.63815832e-03 -7.59746123e-04 -2.75441026e-03 8.26518517e-05
      -1.20942271e-03 5.90565288e-03 -3.50270187e-03 -4.40715021e-03
      -8.74300674e-03 -3.72780429e-04 -7.14913523e-03 -7.22714001e-03
      -8.85685813e-03 1.66682224e-03 8.17355001e-04 1.30475231e-03
      -5.12654769e-05 -2.12005660e-04 -1.36271131e-03 1.06264427e-02
      8.50192737e-03 7.08339969e-04 5.83158247e-03 -2.65833130e-03
      -3.69836390e-03 -1.62741600e-03 2.43489235e-03 1.68025203e-03
      8.10463075e-03 6.25178125e-03 6.60263840e-03 1.09840967e-02
      -2.50817416e-03 1.06809065e-02 4.49238531e-03 4.76288289e-04
      -5.72832581e-03 1.47394894e-03 1.49453152e-03 -1.95337739e-03
      -4.50850604e-03 1.29452290e-03 2.84247962e-03 2.13519298e-03
      2.86102365e-03 6.66712876e-04 4.15998185e-03 1.49736681e-03
      4.18611016e-04 -2.34606396e-03 -9.97311785e-04 -1.88312121e-03
      1.24582066e-03 3.38313472e-03 3.56099242e-03 1.98548147e-03
      3.49018653e-03 -5.53767430e-03 7.90338870e-03 9.06063244e-03
      6.41976157e-03 3.79954930e-03 -4.49081603e-03 1.08560943e-03
      -5.03930605e-05 3.64479539e-03 2.96913530e-03 2.44092126e-03
      2.05008895e-03 5.14945062e-03 3.50313308e-03 9.18387435e-03
      3.54758999e-03 3.32704163e-03 6.85848901e-03 6.20322721e-03
      1.15664974e-02 3.13545810e-03 -9.64682957e-04 -2.93347868e-03
      -4.02170885e-03 -2.55664764e-03 -2.44650687e-03 1.59832858e-03
      -1.07252533e-02 -1.59820402e-03 2.59631849e-03 -1.55307185e-02
      -1.25359613e-02 -5.10197179e-03 -3.58444988e-03 4.83201304e-03
      -4.64947103e-03 -1.22154655e-03 -3.74008948e-03 -4.74738237e-03
      -5.48054185e-03 5.49593614e-03 1.22732355e-03 -6.56225835e-04
      -4.50804969e-03 -3.11855576e-03 -2.61203293e-03 -4.99276211e-03
      -3.37374769e-03 -9.66447499e-03 -1.46538240e-03 -1.63865497e-03
      6.45856746e-03 -4.01773723e-03 -8.60205572e-03 3.70107700e-05
      -4.72660549e-03 7.81314820e-03 -2.94477562e-03 -4.13699076e-03
      -1.96780660e-03 2.12318380e-03 3.50548164e-03 -2.10811413e-04
      1.62270851e-03 4.34798049e-03 6.40889539e-06 -7.53844529e-03
      -8.73932848e-04 -3.21463263e-03 -2.13779672e-03 -6.37680106e-03
      -5.71629452e-03 -1.56210428e-02 -2.83992337e-03 -6.02319278e-03
      2.44907656e-04 5.26133506e-03 4.44515748e-03 -7.94145186e-03
      1.71478819e-02 4.71894629e-03 4.45355102e-03 6.02888316e-03
      7.48253474e-03 2.85100192e-03 -1.76193733e-02 1.12129247e-03
      4.60018171e-03 -1.78491406e-03 1.87386014e-03 6.94409682e-05
      2.91255768e-03 -8.62622540e-03 4.42500366e-03 2.99070636e-03
      1.86899514e-03 5.41252783e-04 -6.17671665e-03 -1.77162588e-02
      -8.04034714e-03 -7.06509920e-04 -2.55288882e-03 -1.72152708e-03
      -4.07414045e-03 -2.09615193e-03 5.43590540e-05 -5.05637238e-03
      2.75270548e-03 1.61731630e-04 -5.14126569e-03 -5.91530418e-03
      2.00059973e-02 1.17271077e-02 4.38589184e-03 -4.36250260e-03
      -4.45954083e-03 -2.12091999e-03 2.72663217e-03 -1.89326063e-03
      -5.02269110e-03 -5.68190217e-03 3.36155831e-03 4.52037016e-03
      1.68532077e-02 1.27678122e-02 1.46090332e-03 -3.10558802e-03
      4.48043970e-03 1.28740771e-03 -1.46536273e-03 -4.32284409e-03
      2.90231477e-03 -5.92113333e-03 -4.94786119e-03 -3.83561407e-03
      -2.78666127e-03 8.34402803e-04 -5.67918411e-04 -6.49886159e-03
      -7.94326700e-03 -2.02377734e-04 -2.21917126e-03 8.16529710e-03
      1.10031646e-02 1.03014298e-02 9.03604459e-03 7.46897748e-03
      6.13634661e-03 8.49124882e-03 -2.25824348e-04 -2.19911560e-02
      -3.58149386e-03 -4.78550472e-04 -1.34861458e-03 -3.37560312e-03
      2.42563151e-03 7.85638671e-03 4.60127415e-03 -9.31045797e-04
      9.68775566e-06 3.12405813e-04 -5.50934859e-03 -6.59024995e-03
      -6.56364206e-03 -7.07058748e-03 -3.98064498e-03 -2.38919095e-03
      1.73502753e-03 2.41518742e-03 7.96768162e-03 6.35077665e-03
      1.50225116e-02 2.64160382e-03 4.18843643e-04 -6.70610135e-03
      -7.80589413e-03 -2.61195912e-03 1.21482171e-03 9.87198320e-04
      2.86749797e-03 1.07704813e-03 2.69707618e-03 2.31480948e-03
      -2.63930950e-03 2.41857278e-03 -6.44880580e-03 -5.30870352e-03
      -2.90695135e-03 -1.52589637e-03 2.84113130e-03 -1.11236228e-02
      -5.94205339e-04 -5.00865746e-03 -3.20938299e-03 -1.10857002e-02
      -1.24732601e-02 -8.72922409e-03 8.12589191e-04 -2.24258960e-03
      1.40617276e-03 7.05139572e-03 9.05806106e-03 3.77973635e-03
      8.61534569e-03 2.61555496e-03 1.49997196e-03 9.61178914e-04
      1.62188255e-03 -4.60262131e-03 1.60551667e-02 4.26288461e-03
      3.57314968e-03 2.25809216e-03 4.73565189e-03 5.55882510e-03
      2.48617982e-03 2.66036950e-03 -1.00409668e-02 -2.36795451e-02
      -1.23376986e-02 -1.05243167e-02 9.97188617e-05 -4.58439259e-04
      -8.44569877e-03 -4.85594803e-03 8.70646967e-04 1.10222201e-03
      2.04017386e-03 9.55566298e-03 2.20519258e-03 1.05802319e-03
      1.62721903e-03 3.20498319e-03 3.89735261e-03 -8.05732852e-04
      5.67557057e-03 3.39309708e-03 3.60299344e-03 7.39875948e-03
      3.43172299e-03 -5.55794104e-05 1.53775827e-03 -6.74124667e-03
      2.17788015e-03 -5.08296117e-03 -7.88305141e-03 -9.64257494e-03
      1.59670301e-02 -2.86819274e-03 -2.66128383e-03 1.04667468e-03
      -4.07822663e-03 -9.98682436e-03 -8.51664506e-03 -1.40896183e-03
      -5.65320021e-03 4.21836786e-03 4.33910545e-03 7.33866589e-03
      2.29134527e-03 8.85125063e-03 9.94789181e-04 2.43059825e-03
      2.45653046e-03 4.19937307e-04 1.92367402e-03 1.01027102e-03
      -4.63162083e-03 -9.12978128e-03 -6.39046915e-03 -4.47929109e-04
      3.32606724e-03 2.26394084e-04 -1.88965059e-04 -7.70998513e-03
      -5.92013821e-03 -3.40698240e-03 8.83542118e-04 -1.40051905e-03
      5.30848140e-03 1.86068937e-02 1.00549664e-02 2.96887988e-03
      3.93690262e-03 2.48140423e-03 4.35500126e-03 3.37314047e-03
      -8.67125299e-03 -1.53609691e-02 -1.18603166e-02 -1.20462328e-02
      -8.42230953e-03 -1.28353136e-02 -1.20122926e-02 -1.47326030e-02
      -6.50084391e-03 -2.03233474e-04 -6.36127379e-06 1.80167158e-03
      6.76025171e-03 -1.00059249e-02 -1.27522985e-03 -7.92752660e-04
      1.25893287e-03 -3.31598031e-03 -1.54310698e-03 8.77723284e-03
      2.04057153e-03 -7.80421356e-03 -2.14994792e-03 -5.09002293e-03
      -2.95554986e-03 8.07261677e-04 -1.13312732e-02 -8.01925897e-04
      1.37245620e-03 2.15680149e-04 1.94609957e-03 -2.59481766e-03
      1.41868915e-03 7.61040254e-03 4.23680805e-03 3.19951354e-03
      8.78839521e-04 -4.98723064e-04 5.97378612e-03 2.09478475e-02
      -4.39495780e-03 -4.41385945e-03 6.40288927e-04 -1.58068584e-03
      6.82655349e-03 -3.14395991e-03 4.13397700e-03 3.16523504e-03
      -1.50422123e-03 1.10787118e-03 -1.86078344e-03 8.46108608e-03
      4.94108582e-03 3.54510569e-03 1.75159937e-03 -2.92009837e-03
      -3.18972371e-03 -2.19564881e-05 9.99634154e-03 1.33869108e-02
      7.56406365e-03 8.66372231e-03 3.08606820e-03 -1.13118079e-03
      -9.76161566e-03 -7.89717492e-03 3.29310913e-03 2.15581339e-03
      -6.37383154e-03 -2.52062199e-03 1.03003334e-03 4.86374646e-03
      3.28730722e-03 6.89153210e-04 1.29933731e-04 5.00938797e-04
      6.56261574e-03 8.58337712e-03 -2.19733510e-02 -3.92612163e-03
      -1.97083633e-02 -1.20205875e-03 -8.26797541e-03 3.32715455e-03
      7.91500974e-03 3.27824662e-03 2.56294291e-03 4.06898372e-03
      5.21976780e-03 2.71768332e-03 5.02715586e-04 -9.46761481e-03
      -7.09560560e-03 -2.15719687e-03 -4.27446142e-03 -4.19388106e-03
      -1.20632257e-03 1.09534990e-02 1.59224204e-03 -3.78588127e-04
      1.56316464e-03 -1.21465861e-03 -1.46905705e-03 -5.73048193e-04
      -1.44857925e-03 -1.12072262e-03 1.35471765e-03 2.46758369e-04
      -3.56175238e-03 -1.03213135e-02 -8.73375684e-03 -3.03455209e-03
      -2.02646479e-03 -7.02120829e-04 -1.45063139e-04 -2.13193661e-03
      7.28830288e-04 5.57058165e-03 3.48207355e-03 2.54372624e-03
      7.33423186e-03 4.52535460e-03 8.60184245e-03 6.13807095e-03
      3.27933929e-03 2.58030673e-03 4.56022331e-03 1.54429267e-03
      5.81031712e-03 5.96849620e-03 8.77437927e-03 -3.61288013e-03
      1.17953541e-03 1.45171979e-03 -5.45273349e-03 -8.25203024e-03
      -8.39507766e-03 -7.84312002e-03 -5.57525828e-03 -2.99374782e-03
      -4.14658757e-03 -2.73151929e-03 -1.63401477e-03 5.95577015e-03
      1.92057314e-06 -5.29780336e-05 4.45003214e-04 2.08818703e-03
      1.75347307e-03 3.61021399e-03 -5.60767110e-03 -4.22033109e-03
      -7.21443910e-04 -1.81176676e-03 2.41158088e-03 -2.06907047e-03
      -1.46989478e-03 6.79451413e-03 7.25298421e-03 1.54879177e-03
      -1.73773977e-03 3.84746096e-03 5.49677236e-04 -2.83388863e-03
      1.13496592e-03 2.46920483e-03 2.71101482e-04 4.04194603e-03
      2.06812308e-03 1.07618058e-02 2.82233395e-03 3.89983063e-03
      5.81435021e-03 2.53713154e-03 6.18193252e-03 3.47330212e-03
      1.34127168e-02 5.15109580e-03 3.84734501e-03 2.27055425e-04
      -7.06241466e-04 -1.07635697e-02 -2.89230188e-03 -4.67994018e-04
      1.81830861e-03 -3.08276038e-04 4.37875278e-03 -2.97764526e-03
      -2.38118861e-02 -3.58821219e-03 9.57213284e-04 4.67003352e-04
      -1.34897746e-05 -2.49091699e-03 -5.89203439e-04 6.50083181e-04
      1.79565931e-03 1.85755291e-03 1.28006694e-04 1.77040009e-03
      3.52179306e-03 7.66117498e-03 1.55890565e-02 1.76622067e-03
      -5.57385478e-03 -3.12050991e-03 1.30471773e-03 2.07558647e-03
      1.43387113e-02 -1.53098127e-03 -1.07439025e-03 6.16328791e-03
      1.15822284e-02 1.74153820e-02 2.83083860e-02 9.10887215e-03
      4.60628275e-04 3.45185166e-03 5.18074667e-04 6.28917245e-03
      3.59158381e-03 -3.41199571e-04 -4.97627351e-03 -2.04201555e-03
      -4.41036280e-03 -7.01672584e-03 -1.45799629e-02 6.28756883e-04
      8.65351316e-03 3.20501613e-06 7.24146434e-04 -1.81460113e-03
      -2.91963434e-03 4.22082655e-03 -1.97882988e-02 -9.67902690e-03
      -4.28499468e-03 -7.10504549e-03 -4.37374739e-03 -4.89799445e-03
      -3.70870763e-03 6.73171598e-03 6.00089366e-03 4.72858129e-03
      4.97395126e-03 6.01655431e-03 1.18212895e-02 1.46519076e-02
      -5.23824291e-03 -2.90186703e-03 3.68252350e-03 1.14581396e-03
      2.04995647e-03 1.48657791e-03 -3.16984556e-03 -5.47960075e-03
      -3.79033596e-03 -5.42079704e-03 -1.52548763e-03 -5.54580707e-03
      4.59029665e-03 1.64723583e-03 1.66289369e-03 4.01349226e-03
      5.36181091e-04 1.31994789e-03 2.36725085e-03 7.90209975e-03
      5.89008490e-03 -4.69973031e-03 3.65691702e-03 2.05930672e-03
      -4.59595630e-03 9.59791802e-03 9.74915363e-03 2.43910472e-03
      7.57208792e-03 1.66987721e-02 4.95943101e-03 6.42141607e-03
      2.85537494e-03 -2.46586767e-03 2.12013931e-03 -1.36013841e-04
      5.52914618e-03 1.67856447e-03 -3.46569531e-03 -6.73250761e-04
      -1.55562791e-03 -2.88998778e-03 -2.21458520e-03 -1.95796660e-04
      -9.30506038e-04 3.11530917e-03 -1.86182756e-03 -9.81648080e-03
      -6.25738967e-03 -9.95915569e-03 -3.81912128e-03 -1.23487795e-02
      -6.76242821e-03 -8.73707980e-03 -6.37896080e-03 7.26246508e-04
      -2.29959469e-03 -6.27025403e-03 -1.29309669e-03 5.09793311e-03
      1.92177575e-03 1.93354546e-03 8.99330262e-05 -9.12239368e-04
      5.05428994e-03 -7.47408718e-04 9.11511481e-04 -2.83172820e-03
      -3.42651736e-03 -4.17254725e-03 1.76587084e-03 -3.58684920e-03
      -3.62137961e-03 -1.39378402e-02 -5.43116592e-03 -3.15561891e-03
      -7.61050126e-03 3.56946047e-03 -3.15018208e-03 -5.14276675e-04
      -2.30784132e-03 2.14600377e-03 5.20058535e-03 8.16447567e-03
      5.19849942e-04 -2.07021809e-03 8.23730428e-04 4.00303910e-03
      5.16120531e-03 6.04875572e-03 9.57120489e-03 5.53516205e-03
      2.94545689e-03 5.97723993e-03 8.43219738e-03 6.39575068e-03
      5.16724121e-03 2.76184292e-03 -5.67903323e-03 -7.23831449e-03
      -6.41428027e-03 1.06588611e-03 -6.03215070e-03 -1.79060511e-02
      -5.64026553e-03 -3.19589977e-03 6.12119620e-04 1.28112605e-03
      5.87138231e-04 5.34917600e-03 -1.81010590e-04 1.22013374e-03
      -2.33425541e-04 -3.21125682e-03 1.22170825e-03 7.34551391e-03
      7.30228610e-03 7.90567324e-03 2.13894714e-03 7.72720296e-03
      4.57606837e-03 7.78399687e-03 7.64822075e-03 3.34214908e-03
      -4.70149302e-04 -7.51284882e-03 -1.39796233e-03 -4.78003314e-03
      -6.63214549e-03 -7.23232608e-03 -1.00299483e-02 -9.76174232e-03
      -6.09300984e-03 -1.10246206e-03 3.66241694e-03 2.96361302e-03
      3.89782921e-03 7.12131755e-03 -2.33163452e-03 3.20229749e-03
      -3.73584521e-03 9.24962864e-04 -3.31571233e-03 -3.19298450e-03
      -1.00376201e-03 -8.83464469e-04 -4.48564487e-03 -4.09153104e-03
      8.33258778e-03 3.43971350e-03 1.56764628e-03 1.76692347e-03
      1.62478653e-03 -6.36945944e-03 -2.59737857e-03 1.57533318e-03
      -3.23209516e-03 -5.28495293e-03 7.94944877e-04 -5.02349925e-04
      1.78277623e-04 3.22459126e-03 -3.95995239e-03 -5.44701051e-03
      -4.36509680e-03 -9.21746437e-03 2.74175685e-03 -8.64368584e-03
      -8.28649104e-03 2.83437688e-03 1.84346619e-03 -1.31656323e-03
      -6.05965266e-04 3.61440470e-03 -6.66216621e-03 -7.90125132e-03
      -7.39887776e-03 -7.38843344e-03 -4.18338273e-03 -3.81321181e-03
      1.96192670e-03 -1.14066377e-02 -2.54335161e-03 1.14928029e-04
      -3.61253344e-03 2.15767912e-04 -4.09188587e-03 1.86010916e-03
      -1.45655684e-02 -1.62803358e-03 -9.59086407e-04 -4.23492957e-03
      -9.80219990e-03 -2.10794788e-02 -1.67049114e-02 -2.08354439e-03
      3.92742222e-03 -4.66409372e-03 -2.16228003e-03 -3.00649181e-03
      -2.59838044e-03 4.36092145e-04 1.55317516e-03 -1.52395817e-03
      7.52584718e-04 -4.93151951e-04 5.90172829e-03 1.72268637e-02
      -4.91542742e-04 3.45085544e-04 -1.70058804e-03 5.26801636e-03
      -5.87995979e-04 -1.07913790e-02 -6.96918974e-03 -3.38800764e-03
      -2.89382227e-03 -3.21064406e-04 -4.38794075e-03 -7.32003711e-03
      -1.26735801e-02 -6.41678832e-03 -4.94376943e-03 -7.89433531e-03
      -3.93760996e-03 1.17962295e-03 6.58981036e-03 -4.13945783e-03
      -6.80317171e-03 -2.68152216e-04 8.74223420e-04 -3.46192298e-03
      -1.06145591e-02 2.59060552e-03 9.92067531e-03 3.37202474e-03
      -3.71882133e-03 -1.87138608e-03 -5.92074532e-04 1.21719399e-02
      6.88506989e-03 3.29966773e-03 1.02965836e-03 3.11745098e-03
      4.68340423e-03 5.72401751e-03 6.58477563e-03 -1.15684746e-02
      -6.63788198e-03 2.08376252e-04 -7.21525634e-04 -9.48504137e-04
      8.39193352e-03 7.68640684e-03 5.18593471e-03 7.67532969e-03
      6.00887323e-03 7.37004448e-03 4.77278885e-03 -7.80438632e-03
      6.65091735e-04 -5.88349532e-04 -1.65334984e-03 3.49341426e-03
      7.85049330e-03 1.06889242e-02 6.08132547e-03 1.94909226e-03
      3.07540083e-03 2.35126121e-03 4.27821046e-03 3.41122434e-03
      -8.39560293e-03 -5.83026325e-03 -6.32507820e-03 -1.04246195e-03
      3.34502989e-03 -1.47986051e-03 -6.05961913e-03 -3.96008370e-03
      -3.38071783e-04 1.27999054e-03 -2.51214183e-03 -2.81284866e-03
      1.25298614e-03 -1.45014114e-04 -3.28461058e-03 -7.43199780e-04
      -3.19066783e-03 -4.17475309e-03 3.11362371e-03 -6.25113142e-04
      -1.59028592e-03 -2.67306832e-03 -1.54584635e-03 -1.48035225e-03
      -6.47878554e-03 -4.01155604e-03 -7.01304059e-03 -1.24271098e-03
      -4.43874253e-03 -2.95112375e-03 -2.24043103e-03 2.46633368e-04
      -3.73008952e-04 -2.29834041e-04 -3.09131760e-03 1.36371574e-03
      -5.28448727e-04 1.46816531e-03 3.27776559e-03 1.35191008e-02
      3.94118391e-03 9.10901872e-04 2.81234365e-03 3.70670040e-03
      -5.71339857e-04 2.34034890e-03 4.14635707e-03 -4.20627277e-03
      -2.39541288e-03 -1.02496259e-02 -7.98902474e-03 -1.02266986e-02
      6.91914465e-05 -7.92199280e-04 7.66362250e-03 5.50650293e-03
      7.66835548e-03 9.41074081e-03 1.11216148e-02 1.31157506e-03
      4.43876628e-03 4.83811507e-03 4.59122984e-03 2.32167984e-03
      2.22695130e-03 8.46605806e-04 2.13003391e-03 1.78150239e-03
      2.87686591e-03 1.71240605e-03 2.67086294e-03 1.55294267e-02
      7.14248465e-03 6.19339384e-03 -7.67355494e-04 2.94696051e-03
      4.55860328e-03 4.67873085e-03 -5.65785868e-03 7.43203983e-03
      6.02919795e-03 -3.55150434e-03 3.57471779e-03 -9.62088723e-03
      -2.65619326e-02 -1.28111020e-02 -6.56331144e-03 -4.22103563e-03
      -1.10457290e-03 -2.97424849e-04 -3.03964498e-05 -9.77867097e-03
      -9.61649523e-04 -4.31486464e-04 -3.64089687e-03 -2.04845681e-04
      -3.04652215e-03 -5.85614843e-03 -1.63221487e-03 4.69331071e-03
      -5.57758205e-04 9.28830472e-04 -2.59196502e-04 -1.14463817e-03
      1.92911513e-02 8.04335810e-03 5.75912604e-03 6.13851799e-03
      7.88037106e-03 5.07108448e-03 8.08241195e-04 -1.66700333e-02
      -9.00416914e-03 -7.13684969e-03 -3.37006757e-03 -3.96230724e-03
      -3.72072333e-03 -1.63558498e-02 -3.76265310e-03 -2.54734606e-03
      -7.95501936e-03 -6.90155709e-03 -4.01678821e-03 2.01706439e-02
      1.58789158e-02 -3.31031159e-04 5.60538936e-03 1.89999805e-03
      6.06932491e-03 -4.06932842e-04 -3.74189345e-03 3.12437257e-03
      1.76046148e-03 8.91152676e-03 4.97445348e-04 -7.29691843e-03
      1.83058288e-02 -3.02220043e-03 6.23632967e-03 1.34671424e-02
      7.52066309e-03 1.42366551e-02 8.66270717e-03 2.39706319e-02
      9.36759077e-03 4.77713207e-03 6.13118382e-03 7.39454152e-03
      9.96206142e-03 7.35487463e-03 -8.76908097e-03 -2.07972969e-03
      1.15045463e-03 -6.02693204e-03 -3.92038282e-03 -1.99109991e-03
      -1.66187878e-03 3.16410698e-03 3.73295275e-03 -1.35966251e-03
      -7.78941496e-04 -9.17720515e-03 1.49000925e-03 1.35436170e-02
      -2.13595689e-03 2.61211558e-03 -3.02363071e-04 -8.39850865e-04
      -5.97896396e-05 2.73346212e-02 1.27502438e-02 -1.20213849e-03
      6.46888837e-03 -7.07530882e-04 8.00056383e-03 1.14162546e-02
      -1.31129464e-02 -7.00612040e-03 -2.63664220e-03 -4.41883598e-03
      -7.79097993e-03 -4.57014237e-03 -4.54815384e-03 -3.35842720e-03
      2.74961255e-03 -1.21946482e-03 -2.55526160e-04 -1.52015034e-03
      1.30235776e-02 1.06986398e-02 9.18030273e-03 -1.61431008e-03
      6.97506871e-03 -2.07353872e-03 -4.72821249e-03 -1.83006339e-02
      6.45593565e-04 5.14800986e-03 2.52087507e-03 7.20592635e-03
      6.81843236e-03 5.37442463e-03 -6.95545634e-04 -8.80818407e-04
      -9.27434128e-04 -1.93742197e-03 -5.66843292e-03 -1.33041595e-03
      -2.77486397e-03 2.56731850e-03 4.73119598e-03 9.20069579e-04
      3.67934280e-03 6.08716067e-03 1.55273441e-03 6.84655877e-03
      -3.01194098e-03 -1.02226285e-03 -3.57962679e-03 1.97087694e-03
      2.87309429e-03 -1.55121153e-02 1.35396345e-04 2.38744705e-03
      2.75820331e-03 9.11982171e-03 1.34754302e-02 1.57299247e-02
      8.80303886e-03 4.46890853e-03 3.39813577e-03 7.96516601e-04
      2.74342048e-04 6.14673784e-03 5.28896600e-03 3.98625899e-03
      1.84152962e-03 2.49055494e-03 2.85792770e-03 4.70178900e-03
      5.10696042e-03 1.97195821e-03 -3.85148241e-03 -6.40815683e-03
      -7.53820455e-03 -6.94936956e-04 3.35429376e-03 -1.60484631e-02
      -3.59642087e-03 -3.50068253e-03 6.80024212e-04 1.27987296e-03
      3.63100204e-03 6.49617240e-03 3.84133589e-03 1.45856431e-03
      2.23192852e-03 -4.79190517e-03 2.05836748e-03 -4.14813915e-03
      3.91043210e-03 1.69007061e-03 1.27976574e-03 2.05409480e-03
      4.20853589e-03 6.57350849e-03 4.69141034e-03 8.68113618e-03
      7.27516506e-03 7.30144884e-03 7.80593650e-03 1.34927910e-02
      -8.57026409e-03 -4.84054023e-03 -1.65163458e-03 3.89911846e-04
      7.59121671e-04 3.11407098e-03 4.79392055e-03 -1.16591626e-04
      3.98320006e-03 1.29223231e-03 -7.06169230e-04 1.66471451e-04
      -1.91090780e-03 -9.70433583e-04 5.58080804e-03 8.22396390e-03
      6.89403573e-03 1.00626452e-02 5.86498622e-03 6.56856690e-03
      1.36946898e-03 2.08542217e-03 -1.65842567e-03 -4.77225939e-03
      -4.54599457e-03 -3.37789906e-03 -1.28862297e-03 4.45996551e-03
      -1.94157808e-04 -5.82696055e-04 2.21321313e-03 1.28459686e-03
      -3.61983757e-03 -5.70475636e-03 -2.50052405e-03 -2.53110105e-04
      1.55741384e-03 5.58546744e-03 -2.45894516e-05 2.70536635e-03
      -1.09828208e-02 -4.87583689e-03 7.45835423e-04 8.72986799e-04
      -6.72145281e-04 -1.20844226e-03 6.93278853e-03 -6.85001817e-03
      -5.89482533e-03 -6.76527806e-03 -4.78174165e-03 -6.30884850e-03
      1.72973261e-03 -5.20353951e-03 -2.77323904e-03 2.02618120e-03
      -2.05276906e-03 -1.47344929e-03 -4.60419245e-03 -3.67910159e-03
      -6.86002662e-03 -6.87996484e-03 -7.39261974e-03 -1.06660882e-02
      -6.21774420e-03 1.98549009e-03 -2.51510479e-02 -1.06108533e-02
      -1.42904627e-03 -5.25118690e-03 2.92134029e-03 4.72384924e-03
      1.04720546e-02 1.02221705e-02 6.30363589e-03 1.02678656e-04
      -1.37095770e-03 4.57612006e-03 1.80187989e-02 1.02390414e-02
      5.30674169e-03 2.53499369e-03 9.70272580e-04 4.62224567e-03
      8.75387713e-03 1.08292187e-02 2.21198425e-03 -1.70296070e-03
      -7.60669215e-03 -3.41976644e-04 -5.80892991e-03 4.00904939e-03
      -1.26072010e-02 -1.95485866e-03 -2.61212979e-03 1.19937567e-05
      -4.22503916e-04 6.38189772e-03 9.13169235e-03 2.20916746e-03
      2.14755279e-03 4.41242894e-03 9.13753698e-04 1.33881811e-03
      3.60230543e-03 -1.13624230e-03 -3.76006914e-03 -8.55543127e-04
      1.76187861e-03 -6.51154434e-03 1.77012946e-04 -4.39714827e-03
      1.12991012e-03 4.02755756e-03 2.34667072e-03 7.78546266e-04
      2.76732864e-03 1.33807939e-02 3.67689435e-03 4.24909755e-04
      -3.35904537e-03 -2.55490741e-04 2.32736603e-03 -1.04432553e-03
      2.59321276e-03 7.17938226e-03 4.31139115e-03 3.41853988e-03
      2.74111144e-03 5.38763450e-03 5.62320137e-03 1.01200817e-02
      6.92944787e-03 3.46587785e-03 2.78979726e-03 1.54359045e-03
      3.11968545e-03 4.04558261e-04 2.77366978e-03 -1.27928914e-03
      2.58902716e-03 -1.28006842e-03 2.77365604e-03 3.19196237e-03
      -7.38299917e-03 2.26367731e-03 -9.20970179e-03 -9.53004789e-03
      -1.09792883e-02 -1.04343547e-02 -1.42284692e-03 -1.97297195e-03
      -2.40654987e-03 1.07046741e-03 1.42626616e-03 2.90818419e-03
      2.47315760e-03 4.42587677e-03 1.81469752e-03 1.72221044e-03
      2.36883340e-03 1.24174880e-03 -1.46787567e-03 -4.01668221e-04
      -4.01991070e-04 -7.77381065e-04 -2.90239230e-03 -3.60322767e-03
      -2.78829364e-03 9.82173905e-03 -3.58647690e-03 9.86843649e-03
      6.29335316e-03 1.34349288e-02 1.25036845e-02 2.21959110e-02
      1.19560203e-02 1.20784342e-03 3.06489714e-03 3.50872660e-03
      1.23265898e-03 2.60785013e-03 1.49135606e-03 1.11798896e-02
      4.81587602e-03 3.86460149e-03 5.04561979e-03 6.09764876e-03
      3.48829851e-03 4.96771559e-03 8.83810781e-03 4.83130803e-03
      6.74074935e-03 1.06387876e-03 1.00645330e-03 -7.58812670e-03
      -1.11377947e-02 7.30333803e-03 2.22530987e-04 4.60645324e-03
      9.22151748e-03 1.50957471e-02 2.75157411e-02 8.85028671e-03
      3.63793899e-03 3.67871090e-03 1.51038694e-04 7.65043020e-04
      1.64599519e-03 5.77034941e-03 2.31447048e-04 7.75981462e-04
      9.06750036e-04 -3.55432625e-04 -2.84668466e-04 8.08634888e-03
      8.64851568e-03 -3.07715381e-03 -9.11830110e-04 -9.32354294e-03
      -1.56250782e-02 -1.86116230e-02 -8.25969782e-03 8.63178540e-03
      -4.16589086e-04 1.08548452e-03 1.77354610e-03 1.07706683e-02
      2.61927635e-04 -1.75638637e-03 -1.02005554e-02 -2.08453112e-03
      -6.58874109e-04 -2.70925369e-03 -4.65795019e-04 -1.61834154e-02
      -5.21899015e-03 -2.90696626e-03 -5.40521462e-03 -1.00900335e-02
      -8.86311755e-03 -2.54631676e-02 -1.17490841e-02 -7.02992035e-03
      -1.59328636e-02 -5.98612195e-03 -9.38069355e-03 -8.44709401e-04
      1.96970277e-03 1.22903399e-02 3.66220390e-03 6.83818432e-03
      4.12768731e-03 4.93595330e-03 -9.96523071e-03 -3.12841870e-03
      -4.34587849e-03 -8.49458296e-03 -1.40678242e-03 -7.71385944e-03
      -1.86206982e-03 -2.69745979e-02 -6.09721756e-03 -9.74861206e-04
      -3.37403733e-03 6.41344814e-04 1.35509635e-03 2.41503008e-02
      1.04939602e-02 5.44639444e-03 1.95638114e-03 6.42757118e-03
      6.16030814e-03 -2.45889067e-04 -9.44644492e-03 -3.46074556e-03
      7.89383613e-03 1.19725848e-03 -1.23915437e-03 -5.60669601e-03
      -3.87914293e-03 -2.27101333e-03 4.14245808e-03 -7.43178278e-03
      -3.06189060e-03 -7.16626085e-03 -7.54974922e-03 3.87995387e-03
      6.30076509e-04 -2.52097705e-03 2.08236766e-03 -5.60036022e-03
      1.24045452e-02 2.78189741e-02 4.91729192e-03 -3.73345846e-03
      -4.13543545e-04 -6.56238198e-03 8.80693609e-04 -1.02651434e-03
      -2.13989429e-03 9.77088511e-03 5.17458329e-03 4.29980597e-03
      6.51107403e-03 4.03568475e-03 3.86417061e-02 1.64523106e-02
      1.19315218e-02 7.81411957e-03 -3.61133693e-03 3.48930224e-03
      1.50822848e-03 1.12285633e-02 -4.06818883e-03 -3.78368422e-03
      -6.63747778e-03 1.26892037e-03 -8.28769174e-04 1.41733326e-02
      3.10702133e-04 -8.26512463e-03 -6.24024309e-03 -4.80702939e-03
      -9.43165738e-03 -5.78615395e-03 -4.06668801e-03 -3.26473778e-03
      -3.82233015e-03 -1.26935565e-03 -2.52830959e-03 -3.59118846e-03
      1.31018758e-02 1.34579791e-02 8.95247702e-03 1.56022878e-02
      1.08654974e-02 2.71328315e-02 3.60149611e-03 2.82320939e-03
      -8.27041746e-04 -6.87206071e-03 -5.46059525e-03 -3.48783593e-04
      -7.12779770e-03 2.60738796e-03 -7.07212277e-03 -3.84195917e-03
      -4.54185624e-03 -2.08109923e-04 -4.08647349e-03 -4.69296845e-03
      -1.29313888e-02 3.43104219e-03 -2.37228072e-04 -8.34369287e-03
      -3.28170182e-03 -1.30246002e-02 -1.91680398e-02 5.24440827e-03
      8.28844402e-03 3.32866353e-03 1.19122639e-02 7.53082335e-03
      2.14651017e-03 -2.91030621e-03 -6.70913782e-04 -2.00985023e-03
      -5.01280744e-03 -1.69963241e-02 -6.14644820e-03 -7.80060282e-03
      -5.24621969e-03 -1.11242440e-02 -1.19720562e-03 -5.06144192e-04
      -6.15941221e-03 -2.54848064e-03 2.93029170e-03 5.20683546e-03
      2.69013370e-04 2.29678419e-03 2.08707526e-03 1.93567958e-03
      -1.13723893e-03 1.07503147e-03 -9.72673856e-03 -2.38079857e-03
      3.07795126e-05 9.01505444e-03 5.55195962e-04 -1.57290511e-02
      -6.02025865e-03 -2.18113256e-03 -1.41394546e-03 -9.45572683e-04
      -1.88130420e-03 1.21111872e-04 2.61336309e-03 2.43001338e-03
      6.34201802e-04 2.07789213e-04 5.99524193e-03 1.38941745e-03
      5.10746613e-03 -4.55377100e-04 -4.26789949e-04 1.14295736e-03
      2.06431467e-03 2.78114481e-03 2.12317985e-03 1.83136924e-03
      2.89785257e-03 -2.02891440e-03 -1.29348505e-03 7.80401111e-04
      2.75172759e-04 -6.50587445e-03 5.65253664e-03 3.69064487e-03
      4.48918995e-03 6.47835573e-03 9.39251576e-03 4.41771653e-03
      4.80505824e-03 1.79271714e-03 5.31119935e-04 2.32844707e-03
      4.84934822e-03 5.67040034e-03 -3.76684428e-03 -7.35367241e-04
      -5.19606285e-04 -1.90672593e-03 -3.79021838e-03 -9.38181358e-04
      -1.02514373e-02 -1.29577732e-02 -4.28905198e-03 -7.30164396e-03
      -4.18031774e-03 -2.30307505e-03 -1.61007023e-03 -6.31114293e-04
      1.13198496e-02 1.19210631e-02 2.28671334e-03 2.64252885e-03
      -7.26916362e-03 -3.23350145e-03 -1.99819426e-03 -1.67890731e-02
      -1.56479608e-02 -4.96789161e-03 -5.68704540e-03 -9.12589766e-03
      -1.16726849e-02 -2.77621206e-03 -1.90392858e-03 -6.90237898e-03
      -5.29839937e-03 -4.80687618e-03 -4.34529129e-03 -2.47882772e-03
      4.25590435e-04 -8.64162762e-03 -7.72404717e-03 -8.89538694e-03
      -1.60818230e-02 -4.63025924e-03 -5.62344585e-03 -3.58936796e-03
      -1.20850268e-03 -1.03228563e-03 -2.55031540e-04 -3.67822731e-03
      -6.69830432e-03 -8.36232863e-03 -1.76008977e-03 -1.27870655e-02
      -4.35659057e-03 4.20786347e-03 -3.37155000e-03 -2.20523798e-03
      7.52899854e-04 -2.67674355e-03 -2.50731548e-03 -1.17449614e-03
      3.34805623e-03 -1.30972138e-03 5.42294991e-04 -2.45884340e-03
      -1.92662969e-03 1.86369359e-03 2.00046804e-02 2.11122967e-02
      -3.28520336e-03 -2.55240337e-03 -1.30034331e-03 -3.53987119e-03
      -3.92275909e-03 -1.61619987e-02 -5.33361034e-03 -4.71439213e-03
      -1.03032379e-03 -3.49739974e-04 1.50270585e-03 6.26963563e-03
      -8.69162008e-03 -1.00040697e-02 -7.74433045e-03 -7.59855611e-03
      -5.41544519e-03 -2.02348037e-03 -3.87353217e-03 -2.44750176e-03
      -4.08045342e-03 -1.51452632e-03 4.14164551e-03 7.01892097e-03
      1.37142360e-03 1.13960030e-02 5.92115382e-03 -1.07377139e-03
      2.56029889e-03 3.97567265e-03 1.17304991e-03 1.89322839e-03
      -2.40941485e-03 3.75149283e-03 2.92650051e-03 2.11364706e-03
      3.54586891e-03 8.87019746e-03 5.42422244e-03 -6.66733226e-03
      -6.92285085e-03 -3.10323812e-04 1.23898871e-03 1.24966493e-03
      4.04388318e-03 1.95943913e-03 1.99188362e-03 1.99049432e-03
      1.77202316e-03 5.52963465e-03 5.46227815e-03 6.78737462e-03
      1.96867669e-03 5.36673761e-04 2.11597956e-03 2.41304841e-03
      1.76591484e-03 1.27537001e-03 1.72285631e-03 3.09182983e-03
      -3.95796495e-03 -2.68716854e-03 -1.05847884e-02 -1.26135834e-02
      -6.59930147e-03 -1.01758670e-02 -5.45978593e-03 -5.45785879e-04
      -6.65838306e-05 8.42860609e-04 -3.20104882e-03 1.59837480e-03
      1.59968110e-03 1.02606998e-03 5.60898217e-04 7.75169465e-04
      7.07036583e-04 2.81496765e-03 2.63315346e-03 2.02727644e-03
      1.50287629e-03 2.46514753e-03 4.73598158e-03 1.35534350e-03
      -2.70429556e-03 -4.55398671e-03 -4.98703588e-03 -2.12705228e-03
      -9.40441445e-04 -2.82056018e-04 4.14323295e-03 -1.34413771e-03
      -4.87059681e-03 -1.64993189e-03 -6.51014410e-03 -9.16331913e-03
      -1.95460673e-02 -1.12819280e-02 -7.33844936e-03 -5.91449812e-03
      -2.19605234e-03 -2.60771206e-03 -1.20071974e-03 -1.28933163e-02
      -4.55628196e-03 -3.09155486e-03 -4.10028128e-03 -5.54907555e-03
      -5.95011190e-03 3.07394890e-03 3.78892198e-03 -7.23157311e-04
      -6.32919278e-03 -4.55265446e-03 -5.76702319e-03 -2.72640889e-03
      3.38829798e-03 1.10363290e-02 8.29165801e-03 1.82421952e-02
      1.14051364e-02 1.43189076e-02 1.85376853e-02 3.08174011e-03
      -2.25311829e-04 4.92098415e-03 -1.84930931e-03 4.73038468e-04
      -4.08416288e-03 1.50973757e-03 -5.44050883e-04 -1.40739570e-03
      1.06183917e-03 2.48787925e-03 7.49165611e-03 5.30047202e-03
      7.31677376e-03 -1.58497819e-03 -6.50265906e-03 -1.28142620e-02
      -1.37104299e-02 -1.98658518e-02 -1.50274998e-02 8.66540067e-04
      -3.59065412e-03 -6.73317257e-03 -9.92363226e-03 -1.34976488e-02
      2.83284183e-03 -6.09598914e-03 -1.75026606e-03 -3.37678182e-04
      -2.22121389e-03 -2.95255939e-03 -3.89355281e-03 -1.14613967e-02
      -3.93022364e-03 3.11359327e-04 2.85762391e-04 2.43914872e-03
      -1.01386232e-03 -7.34803407e-03 -2.96830595e-03 -1.11148842e-02
      4.24433347e-05 -9.87039134e-03 -1.00830272e-02 -8.99843872e-03
      -1.52025158e-02 3.01644439e-03 3.73781170e-03 6.63813762e-03
      9.91310552e-03 8.94552935e-03 5.74267237e-03 -3.88800283e-04
      1.01249490e-03 -9.53996496e-05 1.05533202e-03 -1.62005925e-03
      7.43458886e-03 -1.42900907e-02 -1.05116302e-02 -2.43761437e-03
      -2.34587980e-03 6.83711562e-03 1.64766368e-02 2.55634934e-02
      1.14024933e-02 1.24057904e-02 -8.61845817e-03 1.30617223e-03
      -3.52184474e-03 -7.99899269e-03 -1.84911340e-02 -1.55112855e-02
      -5.66850230e-03 -1.00941700e-03 -3.64613696e-03 -2.80535343e-04
      5.48433932e-03 -1.24390041e-02 -9.22509376e-03 -8.64396803e-03
      -9.59058199e-03 -1.97000708e-02 -1.35790929e-02 -1.49376793e-02
      -6.91728154e-03 -1.17526595e-02 -2.05931766e-03 -4.56978660e-03
      1.16071571e-02 3.46150063e-02 6.19884394e-03 8.99959169e-03
      -3.08660767e-03 -3.95078026e-03 -3.46809230e-03 -7.78317638e-03
      -1.17944237e-02 -3.30538060e-05 -6.66064536e-03 1.92112708e-03
      -3.52066592e-03 -3.54724267e-04 7.11974921e-03 -4.59809694e-03
      -5.27741853e-03 -7.56124937e-05 -6.07162667e-03 -3.87303205e-03
      -1.39044700e-02 -1.47395190e-02 -7.12960912e-03 -1.40392967e-02
      -2.74303579e-03 6.04242925e-03 1.86650027e-02 3.05069461e-02
      1.25832399e-02 -2.47513635e-05 -2.70151254e-03 -4.09552082e-03
      -6.58077130e-04 -7.68088875e-03 -2.15486288e-02 -3.18316557e-03
      -2.87809595e-03 -4.02251258e-03 7.23468140e-04 -5.26458817e-03
      -8.86179879e-03 -2.44630012e-03 -4.35754750e-03 1.04320003e-02
      3.62684717e-03 1.12160882e-02 2.21205549e-03 2.05176463e-03
      2.98758759e-03 -3.97371454e-03 3.11672804e-03 -6.05970435e-03
      7.36793550e-03 6.44908240e-03 -4.58996464e-03 -5.27174026e-03
      6.91071444e-04 -8.13464692e-04 -3.70980729e-03 -2.75896513e-03
      1.23683145e-04 -2.10304931e-03 -9.16039746e-04 -3.49252927e-03
      -2.18909932e-03 -1.01560401e-03 -3.60383140e-03 1.17040321e-03
      -1.60376437e-03 -7.04715028e-04 1.40827172e-03 1.02570560e-02
      -4.94521577e-03 -7.02868495e-03 -4.70986450e-03 -7.44854892e-03
      6.80607627e-05 3.40682641e-03 1.25749782e-02 1.44764762e-02
      5.89258410e-03 2.62169563e-03 9.22870880e-04 2.96515413e-03
      4.82627982e-03 7.57029559e-03 7.40170106e-03 3.46171763e-03
      3.32705647e-04 1.34624192e-03 1.68561668e-03 2.62723072e-03
      2.39818683e-03 6.34400931e-04 3.91943380e-03 3.25695216e-03
      2.12374562e-03 -5.12677105e-03 -1.02213053e-02 2.52218940e-03
      4.84266691e-03 1.87323010e-03 4.23854392e-04 -2.85896612e-03
      2.44335039e-03 5.73227089e-03 2.68942793e-03 1.02414435e-03
      3.73025937e-03 3.33602307e-03 9.06183664e-03 5.77399973e-03
      -3.44483019e-03 -2.63190723e-05 -3.45497479e-04 -1.25956885e-03
      -8.54485028e-04 1.33810111e-03 5.20378677e-03 5.83024137e-03
      1.06667150e-02 2.73330952e-03 -3.19393235e-03 -1.11728432e-02
      -2.44136201e-03 -9.82010830e-03 -7.12550106e-03 -2.04004254e-03
      -3.87857872e-04 2.42438237e-03 5.36563154e-03 1.27487979e-03
      7.63495511e-04 -6.30554743e-04 -2.63646222e-03 -7.70189043e-04
      -2.20015156e-03 -3.24612367e-04 1.01636946e-02 -4.02628817e-03
      3.63003765e-03 6.51207287e-03 4.27676784e-03 -1.66363677e-03
      -5.75300679e-03 3.73105286e-03 9.25528468e-04 -4.01421217e-03
      2.13551801e-03 5.87261468e-03 -1.02835021e-03 -8.37768987e-03
      -4.18534642e-03 -2.38200137e-03 -7.17587071e-03 -5.16439555e-03
      5.61079010e-04 -1.96507340e-03 -6.90855784e-03 -3.57898232e-03
      2.45895426e-05 -1.76686770e-03 -7.16689043e-04 1.63256587e-03
      -1.14937872e-02 -5.99670457e-03 2.08236277e-03 2.13544117e-03
      2.56160158e-04 6.06860267e-04 4.80387826e-03 -3.70513205e-03
      -3.44149233e-03 -8.98100643e-06 -1.49957044e-03 -3.40542570e-03
      4.97386232e-03 -7.54033495e-03 -1.56296487e-03 1.61233463e-03
      9.84043349e-04 -2.78200326e-03 -7.23932032e-03 -3.17308889e-03
      -1.45579991e-03 -1.88695022e-03 -1.46038318e-03 -7.34128430e-03
      -3.73805221e-03 1.32211286e-03 -1.41756674e-02 -2.17060861e-03
      1.83656914e-04 -1.74064236e-03 3.54659883e-03 1.36621576e-03
      1.36521710e-02 8.50375649e-03 9.10548400e-03 6.28973031e-03
      -1.43564702e-03 1.01696234e-03 9.62173752e-03 1.07266894e-02
      -1.17503328e-03 6.43436005e-03 6.57923147e-03 1.25639746e-02
      1.19521683e-02 1.82396472e-02 1.14700049e-02 4.43416415e-03
      -1.83441374e-03 2.65172194e-03 7.77132009e-05 -4.39761672e-04
      1.65119860e-02 -3.12455319e-04 2.04192800e-03 6.42494252e-03
      7.18176970e-03 3.03810067e-03 1.27172042e-02 1.09193791e-02
      8.74512363e-03 6.40753424e-03 2.19388027e-03 -2.93668965e-03
      -4.44627041e-03 4.21449821e-03 2.56888731e-03 -1.11184793e-03
      1.28032966e-03 1.08351221e-03 5.30972471e-03 1.23763252e-02
      2.17621122e-03 2.07490474e-03 9.71356314e-03 3.43895471e-03
      7.78005784e-03 1.39798848e-02 8.78699706e-04 -6.55920536e-04
      -7.74449483e-03 -5.56230173e-03 -1.27517071e-03 -2.07657018e-03
      3.31519311e-03 1.91651413e-03 1.26687950e-03 1.89801049e-03
      6.53811905e-04 2.12411117e-03 3.00873024e-03 5.38030686e-03
      2.79492280e-03 4.29586828e-04 5.29876444e-04 5.27512282e-04
      8.39128566e-04 2.07803838e-04 -2.25551170e-03 -2.64374306e-03
      -7.20521784e-04 -2.92098406e-03 -2.15064792e-04 6.57364121e-03
      -5.48765622e-03 -3.52466083e-03 -2.70470092e-03 -5.95922023e-03
      -4.86752018e-03 2.51794234e-03 4.00851248e-03 -5.67859644e-03
      -5.00242412e-03 -2.51986901e-03 5.53478421e-05 6.83976570e-04
      2.79579917e-03 4.11258312e-03 4.53565782e-03 5.87710086e-03
      1.11419158e-02 1.30959339e-02 9.40443482e-03 7.98875187e-03
      -1.50601042e-03 2.82473397e-03 -5.90158161e-03 -5.66106429e-03
      -8.01069289e-03 -4.45966562e-03 -1.53162573e-02 -1.09075056e-02
      -6.18987205e-03 -6.71370234e-03 -2.96792423e-04 2.81721819e-03
      -1.35301966e-02 1.65931793e-04 -6.74027205e-03 -8.59608594e-03
      -4.79013473e-03 -9.54103656e-03 -5.14777517e-03 -1.42036648e-02
      -5.23449574e-03 -4.85654781e-03 -3.97503562e-03 4.65105614e-03
      2.53270138e-02 2.85651386e-02 1.76884811e-02 3.61164263e-03
      1.36336696e-03 -3.17353103e-03 -6.95028575e-03 -1.38389179e-03
      -4.04661186e-02 -1.73419267e-02 -1.59677193e-02 -9.81589779e-03
      -1.47349369e-02 -1.68748908e-02 -1.65660102e-02 -1.45562133e-02
      -9.25680902e-03 -6.52439287e-03 -6.36459049e-03 -1.10309906e-02
      -1.60246789e-02 -3.75984386e-02 -1.13534555e-02 -7.58278510e-03
      -6.99553778e-03 -1.04585830e-02 -1.31376097e-02 1.81211792e-02
      2.64902934e-02 2.07732543e-02 9.79179610e-03 -1.20791793e-02
      -8.71603005e-03 -2.29152609e-02 -2.32723281e-02 -1.01167811e-02
      -1.06239924e-03 8.41252677e-06 -5.62756264e-04 -4.07957332e-03
      -1.32305222e-02 -4.65929369e-03 -2.01701070e-03 -4.83071012e-03
      5.43103612e-04 -6.23574073e-04 -7.91012659e-04 -2.09170058e-02
      -7.82319251e-03 -4.73135803e-03 -2.16413988e-03 -9.75714345e-03
      -3.97612806e-03 1.38835860e-02 1.86369754e-02 1.31921880e-02
      7.83525966e-03 6.59679878e-04 -1.45762751e-03 -1.57005452e-02
      -1.76540520e-02 -4.30855341e-03 -1.19085039e-03 1.61194103e-03
      -3.67740495e-03 1.84269785e-03 1.91161700e-03 4.60755732e-03
      -1.47206680e-04 5.33387577e-03 -4.91507677e-03 6.27499481e-04
      -1.19845727e-02 -2.14216504e-02 -1.01009812e-02 -9.23425797e-03
      -3.37940524e-03 2.58264877e-03 2.02591326e-02 3.95356677e-02
      1.80890132e-02 -4.75617731e-03 3.13970167e-03 -1.06229736e-02
      -2.07874645e-02 -2.70415712e-02 7.19100004e-03 2.34371284e-03
      9.49699781e-04 6.18905574e-03 5.26222121e-03 -5.88895811e-04
      1.40111661e-02 7.03144073e-03 6.95724413e-03 6.71397988e-03
      -2.18413494e-04 4.41274093e-03 -2.59966054e-03 -2.57961210e-02
      -7.03149848e-03 -7.20931450e-03 2.95137940e-03 1.79726211e-03
      1.47760706e-02 3.00166290e-02 2.60170293e-03 4.36640065e-03
      4.95434226e-03 -2.45317305e-03 -1.38158433e-03 -6.82772370e-03
      -2.13976000e-02 -1.19878193e-02 -1.08148754e-02 -1.02584958e-02
      -1.16664674e-02 -1.34388367e-02 -1.79888750e-03 -2.38984753e-03
      -5.56719350e-03 -4.15771909e-04 -2.60401028e-03 3.39829782e-03
      5.89617854e-03 1.34055270e-03 -4.25647525e-03 1.80813484e-03
      8.28174874e-03 9.66687221e-03 3.90984770e-03 1.50412666e-02
      1.05090747e-02 -1.75794726e-03 3.75525677e-03 1.35989649e-05
      -8.45337287e-03 -1.37369484e-02 -1.28262183e-02 -8.57320894e-03
      -4.69231047e-03 -8.05263408e-03 -4.43303911e-03 -5.40101714e-03
      -1.31599065e-02 -1.11311292e-02 -5.03465207e-03 -3.70173203e-03
      -6.18605735e-03 -5.94290951e-03 -9.87032428e-03 -2.47021820e-02
      1.36927271e-03 -3.61146987e-03 1.29919813e-03 -6.06505666e-03
      -4.92376927e-03 1.10628130e-02 4.79708286e-03 -5.95957274e-03
      -3.87560972e-03 -4.07046918e-03 -2.91473069e-03 -5.79702295e-03
      -2.32327427e-03 -9.88786924e-04 -1.79928564e-03 5.67786337e-04
      -1.67898857e-03 -8.21357477e-04 7.81692471e-03 5.42003801e-03
      -3.18169128e-03 -3.84326279e-03 -7.92546477e-03 -7.73104327e-03
      -7.99227785e-03 -3.42410128e-03 -8.41012597e-03 -6.85428502e-03
      -7.58091127e-03 -2.71802070e-03 1.14833964e-02 5.11323521e-03
      -4.75134421e-03 5.63642010e-03 -1.00846461e-03 1.00778497e-03
      9.63510771e-04 -3.57043883e-03 1.01441033e-02 4.30690590e-03
      2.48217303e-03 3.12567409e-03 3.28741479e-03 3.58544150e-03
