svm_type c_svc
kernel_type rbf
gamma 0.001
nr_class 2
total_sv 2
rho -1.00027
label 0 10
nr_sv 1 1
SV
1 1:0.00039841537 2:0.038705815 3:0.066680558 4:0.076786458 5:0.066279113 6:0.038013998 7:0.00077911105 8:0.075685039 9:0.13060449 10:0.15051168 11:0.12980141 12:0.074321888 13:0.0011253608 14:0.10934107 15:0.18916686 16:0.21823648 17:0.18796186 18:0.107347 
-1 1:-0.00023180332 2:3.8753609e-05 3:0.00029988529 4:0.00047930173 5:0.00052933494 6:0.00043889377 7:-0.00045557073 8:7.3829411e-05 9:0.00059101591 10:0.00093903561 11:0.0010280018 12:0.00085229386 13:-0.00066339417 14:0.00010207786 15:0.00086519128 16:0.001360485 17:0.0014672235 18:0.0012165959 
